{"sizes": [784, 30, 10], "performance": "95.23", "biases": [[[0.5221573526156512], [-0.23133630624185292], [-4.084110856780176], [-7.566035101054682], [-5.708445612165166], [-4.803350741843101], [-5.846625536310257], [0.26001963976622533], [5.069878671176733], [-1.6138420710946846], [2.7933631471798095], [1.391484398219234], [2.267228631526239], [1.1850035553537668], [-0.846642343937634], [5.68606621741113], [0.4326180130492282], [2.62643198593022], [-1.250737795392539], [1.9871617971294167], [0.0027348199451148994], [-2.22457393714515], [-3.904195065732929], [-0.005599842401717282], [-2.342349463999762], [-0.15518041875377325], [3.9017517229203187], [-4.0217632315913585], [0.8879537636490216], [-1.1455278832532614]], [[-2.3618021705210417], [-1.913725448403124], [-1.664890430918961], [-4.1039750895044635], [0.48562636008667814], [-2.8507405262327055], [-6.179475759155298], [-1.6234742185676045], [-6.141933764456672], [-4.635925772598631]]], "weights": [[[-2.1638870540621205, 0.10505435064732047, -0.7488178331049019, 0.45845505622361393, -1.1467441869306978, 0.8476789687004519, -0.8552865496497568, -0.9659380965774991, -2.5805414931478396, 0.1812360556798038, -0.33587916828708136, 0.2575226334191187, -0.43555269488631226, 0.5855903989340676, 0.3481677608899188, 0.9561425929217954, -0.9088488392399408, 0.47684360271260745, -0.9915442489251949, 1.1545545672122672, 1.2458365081250529, 1.4184707624037163, 1.2897250035060368, 1.8261887553629041, 1.1885539510751968, -0.013129532499190237, 0.19506491721044353, -0.2479340502893398, -0.6475647982760919, 1.4278963465584267, -0.08741690718141817, 2.1544050863954087, 1.4274649987075705, 0.8056518938438019, -0.581984264329152, 2.44611461817491, 0.7199206451734896, -2.432350197015296, 0.2723160734312523, -0.3771347953764223, 0.9807103776886109, 2.290615310287623, 0.4660629150413768, -0.36724749250204525, 0.29425933069355104, 0.24136261804571585, 0.5410354461627515, 0.1318641485021545, -0.9558507110084475, -0.7932342041018503, 0.7936763556815762, 0.4222312702292591, -0.3419827119977465, 0.29176773393554967, -0.4406356212588907, 0.8110716305067506, -0.02505897434594787, 1.3907466056488802, 1.9276380066980863, -0.7237189673089446, -0.2568599723757505, -0.008629049546924462, 2.334417713413869, -0.6131316137019638, 0.19829717821782217, -1.454484851658604, 1.3971327648983374, 0.2501467763923655, -0.167967699523562, -0.46282394097078067, -1.317754784208692, 1.1664411115135656, 1.5070214476424668, 1.0196723303344444, 0.4403262483975593, -0.8813946783420683, -0.9615699442017164, -0.2619934909515835, -0.3701356549455649, -0.036345744717719806, 0.5801947863381959, 1.3860404349942577, -1.450961369015311, -0.8114300149010151, 0.4958926363826435, -0.12090022394204986, -0.807408589347146, -0.5889228357563713, -0.5058596088242288, -2.1907142473134025, 0.26978924855770126, 0.6344700675419384, -0.12728390804931294, 0.21695449501285982, -1.113921224953222, -1.4036644499411877, -0.6422157330276392, -0.6766053400570099, 0.5480606659439956, -1.1890096868845776, 1.8400620010196305, 0.6178505855196267, -0.23599424174700445, 0.1826249597531017, -1.0691562180683656, -2.0455978848763468, -0.25155207251577977, -0.1653340072009977, 0.022250216473316653, 1.6756578594934164, 0.6598300626704681, 1.3406212317120814, 0.8790835307785024, -0.06613069080186493, 1.414806410078362, 1.4471576265606125, -1.699868458462995, 1.1842617083096938, 1.4421018623668416, -0.39523285258958873, -0.7079121879417077, -0.8030211817640415, 0.48368535880369395, 2.266256766865161, -0.4322009244297024, -1.0559328201516105, -0.024120308777737708, -0.7824495425130028, 1.7738332286282334, 1.9910463317300817, 0.05244407715974296, 0.7246838168352091, 0.6404856542532035, 0.6474621187074292, 0.10663534300125221, 1.0404113710770349, -0.7330291234183259, -0.7318059102461659, 1.3617962866045215, 0.6457972225699127, -1.051343655731956, -0.04636756946728002, 0.1240063191333464, -0.44383240123757145, 0.4229294647840992, -2.7560481947079176, 1.952484435991764, -0.20113547795760003, -0.4902374435181754, 1.540547882758819, 0.6603380599170183, 0.1368186500778671, 1.1056200667496159, 0.15761594954201938, -0.6693551234763787, 1.6561259504490258, 0.6017026200201332, 1.2667345595622133, -0.15251754913453772, -0.41412531435583627, -0.9010010427263127, 0.2932586951876094, -0.43735485544380664, -0.3990098244800271, -1.8757695648333395, -0.07834008514326844, -0.2555464104452668, -2.769033669817176, -1.1465387219760217, -0.6514583695029258, 0.11214325444086967, 1.5672544571600633, 0.9316758468313515, 0.15344890027249708, 1.5967685293766114, 1.9065392469550275, -0.47934597126418704, -1.537348682727629, 0.45953343943572095, 0.6760373877617762, 1.3081446022578493, 0.30910936609570155, 0.7471233584387981, 0.2623335828705499, 1.2778798927412904, 0.2510881510387292, 0.4336124918266506, 0.24440991321638353, -1.0748307314371697, -1.3450486755928246, 0.4025013251229477, 0.30395588681361585, -0.32023551173935316, 1.3683826161381396, 0.18814994951748676, 0.8008863064873174, -0.2668079760527441, -0.7776018653835574, -1.1287603433529116, 0.8992125424481574, 1.1200032292920556, -0.7533806602123135, -1.0953941519247121, -0.620184479727572, -0.8115835468536935, 0.5058284775255077, 0.21948315848213076, 2.126454412329469, 0.5527530293830384, 0.3560020436529131, 1.4211427738674873, 1.5114831751936784, 0.4579543399138119, -1.491666494124724, -1.0146886869431702, -2.322195150075413, -1.793592449123815, 0.25115637812901687, -1.484794172209812, 0.16334221879991714, -0.4343266340849676, 0.9505589332081233, -0.5961299305932038, -1.5227895329588634, 0.4907142551181154, 0.13216880571034823, -0.4479786861506438, 0.21965585295389936, 0.2860922209732894, -0.6935515738027639, -0.02246948326121524, -0.0010306488282672696, 0.8843632262533205, 0.45886504361620456, -0.4898093324982815, -0.4935196823194921, 1.950223108332988, 0.5208952177826704, -0.41154896673045516, 1.2831742793390628, -0.6935313548037173, 0.613278679260028, 2.3395810542519904, 0.47635463184818166, -0.00033618979878830295, 0.2939066453285045, 0.7293134065491454, -1.0521838808891333, -0.32100507497551994, -0.2284183800512461, -1.5290710503346043, -1.7212769596071456, -0.37922247291758593, 0.29823932660805713, 0.40538691482709693, 0.7768843644942989, 1.089467833762607, -0.8805681302420502, 0.0266621425942619, 2.3222634552392063, 0.6197743330446233, -0.2454376005908473, 0.7392623858959682, 0.33839047400452893, -0.32503194434544314, -1.0247808262916058, 1.5714164884073307, 1.0325488287130526, -0.1828312390529564, 0.016337804882703765, 1.9195229775419091, 1.593347486493718, -0.215139984820871, 0.7078650550309236, -2.0157758565803534, 0.07555040636419648, -1.2773573787864614, 0.799945202538991, 0.5365313810162122, 2.0729180209442744, 0.1773703488050696, -0.12496645250132987, 0.06295845753638672, 0.47455976269157873, -1.0768293675483818, 1.304910653757732, 0.42300878989204926, 0.6492175747894073, 0.7591598947863086, -0.6989989730936168, 1.0571638141016382, -0.860919358355413, -0.028071459332717746, 1.9659505575165594, -0.5651984580280011, 0.856817777079632, -0.8276523160378539, -1.4519940938125586, 0.07652223667394878, -0.847271780761318, 1.1596888269864167, -0.3182477702489338, 0.9324712278457408, 0.6943137046244511, -0.08497849040018873, 1.6214093309485955, -0.5037396174814187, -0.07303321341710275, -0.7850829655243433, -0.2839304861124133, -0.46342084288890933, 0.8848198612376176, 0.9990417012389592, 0.34391783313228563, 0.22641196929446145, 0.07976617426578796, 1.3364712702197579, -0.14445987139799737, -0.1890178080661209, -0.6889621604677555, -0.1807249917305435, 0.8785531972350149, 0.3035949613758453, -0.25780689864790807, -0.47006297052968576, -0.13124258301151498, -0.8994619556117254, 0.8909602085239032, 0.03798728974236733, 0.1260521386858108, 0.8528634510497238, -0.8676735998408289, -0.6729284214359944, 0.5345863900835124, 0.4437577785774055, -0.2907934144102527, 0.9432570621827511, 1.0720514529454208, -0.1272242363493817, -1.8440207205979695, -0.41877942831625836, -0.9148101646932556, 1.134963287204745, 0.09355099747398883, -0.6564234200072188, 1.6638294492349937, 2.2941662831062484, 0.4755539864231848, 1.5481661002117175, 0.7175666218519675, -0.1698991875331988, 0.04295641643170363, 0.0814472727241787, -1.2637371832838942, 0.6394651670809856, -0.7989272951527436, -0.8673257275919949, 1.07504229952511, -1.1269569015200986, 3.4617028928457136, 0.8599966817304252, 1.396721283888742, 0.21313406765392012, -0.2585470779932564, 0.5693207038530558, -0.8584095558537493, 0.3301577819654115, -0.1943867725676729, 0.19519781186456028, 1.8451092621634992, 1.3188173891318968, -0.26696742154255143, -0.5875142311851761, 0.11124959296935504, 0.8557245982880075, 1.0322867959666964, -0.876208186693141, -2.384911781320113, 0.7753046035648449, 0.830612529994738, -0.121899748593194, 0.7887408610717517, -0.05728747413362827, 0.2814901732349844, 0.31372405284795213, -0.4916716088020563, -0.12116116694068785, 0.2683912487248159, -1.5247464573918368, 1.1753283520046975, -1.4343325967497782, -0.20333207649623752, 0.8582313407502654, 1.3763607375725975, -0.8090791497243505, -0.6366192316857071, 1.0997670426874846, -1.6868309697143784, 0.8179865218600756, 0.9665118170289325, -0.15619339677419583, -0.2870804085523935, 0.022125389673241593, -0.10102020401868171, -0.027253494595235017, -0.8739825293234682, 2.103398210823479, -1.5574101201738004, -1.7884558836059827, 1.1896362611914717, 1.512090519116455, 1.114084922420259, 0.3058969836668314, 1.0583907845468803, 0.6140426435490418, -1.820232873190044, -0.8592321960359862, 0.3383933708334929, 0.6426897593862533, -0.0003238886246200979, 0.3576972597391166, -0.9485017019459732, -0.10922487893208623, -0.7369532002658679, 1.2852113935757887, 0.44329580789570805, 0.7145351438546899, 1.305168214621488, -0.26705317542203516, 1.0169162418691722, 1.871686314656965, -0.5391138922422898, -0.23990934850895848, 0.11086350704311067, -0.08895877289207864, -2.9457422191509344, 1.6352826324820482, 1.6910847305331334, 0.40912851171914705, 0.2681178747766571, 0.48132428894737117, 0.2599735381976756, 1.7594175552851514, -0.793630580279182, 0.9417689152569914, 0.27980962672795456, -0.4371975291031512, -0.7954968746502621, 0.0715250328580174, 0.5518091037868371, 0.34955154567780744, -1.4574702966921682, 0.5160374954779007, 0.9551882044113222, -0.2601694728038105, -0.530950544360815, -0.3503416626760931, 0.4637991820095091, -0.5660030698901292, -0.2393466956833493, 0.8812043756039337, -0.001430026990840504, -0.6635913670407783, -0.4044095006939614, 0.3207180454201104, 0.21898843749445177, -0.042129004621763874, 1.7479780000250122, -0.22678286275454895, -0.3050871849556983, 0.7423470715373669, 1.0317935917536758, 0.4248635814016755, -2.022018477371968, 1.3122712313368763, -0.3711447625898975, 0.9727685267421269, 1.4256835642932904, -1.3015289832578727, 0.26406245626291136, 0.7913971982403704, -0.5618852333790346, 0.44090439105093365, 0.35344229154604156, -0.9312411328010118, 0.5382208463851332, 1.4180310339982656, -0.5987986511997357, 0.13249562552480787, 1.0167591373427058, 0.5271844047974561, 0.9083812035239411, 0.08414644109835787, 0.4212611519767577, 1.206832957185342, 0.7443847952943563, -0.7991889236518667, 0.793010686173947, 1.1700468207339743, -0.5480013278780401, 0.03405887993622769, 0.9887127527344933, -2.2779725728467937, -0.18672221344035594, -0.6102802239863657, -0.7134739319766672, -1.5331483679334839, 1.6849870448078141, 0.5124254059872164, -0.1503905790547556, 1.6517699809265654, 1.2063260164313878, 0.9026406930952456, 0.08449231382916043, 0.061537954096840514, 0.7301572883953534, -0.03885168407330666, 1.7325926167030805, 0.9008020459104846, 1.5941118743265537, 0.11242697616256397, 0.12443992594995272, 0.5801006160856044, -0.2685411726430278, -0.3338432597304961, 2.1559518551717365, -0.7755809707524002, -1.2903453478271751, -0.4736688847905178, 1.105526765239167, 0.440390126901335, -0.022325886775734563, -0.39727700157355494, 1.4224877418046364, 0.46971849821742584, 1.0554500735679422, -0.13107391226812232, -1.8608834140786317, 1.4714866939169404, 1.2297829205056006, -1.4977185811965357, -1.4012293197372205, -1.8236788707454967, -0.23772134803635533, -1.2158031709543446, 0.7597124570390276, 0.6147423193226089, 1.27064787220365, 0.4248736004566611, 0.26578034990152516, 1.3908530112801702, 0.009442962609642462, 0.4570940149106066, -0.39718202966326766, 0.20204631641257695, 0.37064630059856263, -1.2932889697434016, -0.9488087955156033, -0.5463164195955031, 1.4017795991104316, 0.33788509154640906, 0.17596772646458597, -0.6889601730142183, -0.467511702019985, -0.2198807157074268, -1.4249327238947787, 0.4962302822864091, -0.005169411072719569, 0.4273325416860425, 0.07822903236599033, -1.1269557197826723, 1.079805661003352, 1.1282946939250877, 0.022820925771508547, 1.2420812687698046, 1.1824420663930804, -0.7012061651368581, 0.8706180327442363, 0.9038405437673678, -1.0925314444739291, -0.4383753610347011, -0.957344401229202, 0.45230491825391966, 0.13495800813548653, -0.29657454614369305, 1.9211811442086333, 0.513459322843202, 0.4532586535216763, 0.3906057372982553, 0.13364490389264877, -0.172806569684096, 0.09028182977010608, 0.7423935735883399, -2.238041511302351, 0.3376837381350427, -0.5030771080751935, 0.7236496822938885, -1.0248440707997033, 0.17591306486964495, 1.291756223463111, 0.45643886415148405, 0.8300048641741373, 1.8274508544044563, 0.6018396174018957, -1.9979688143141714, 1.1034179723048412, -0.23024407679811243, -0.9449072387423281, -0.2429226672502123, -0.7813928170265655, 0.5024913269951715, -2.2469308716486327, -0.15241752688427693, 0.5291110513645961, -1.6434317135245544, -1.6407510118185087, -0.28088451092033356, -0.0798837720265631, -0.05546450187406336, 0.5278787945307909, 0.17233364620271277, -0.20213384533516998, 0.3110302440830976, -0.5642296252257122, 0.2327252663374854, 0.48502652003931634, -0.02299602787513001, 1.038270952738264, 0.3718799662872547, -0.6455383009957131, 1.451375163634586, -0.01339822882607803, 0.6736556144679531, -0.13768496251231496, -0.781520732877155, -0.6435713405166278, -0.9889983693122045, 0.7937765373979925, 1.4241754819392916, -0.5086045961837086, 0.6951415995153755, -1.9206513238963503, 0.08768095246385293, 0.09593543896508934, -1.3894362245139278, 0.522228962977862, -0.31993790502822345, -1.547800843614582, -1.5384051030019745, -1.0294408607524894, -0.8385606869478506, 0.8621783939954474, -0.134770252822644, -0.661113157277361, -1.2234603981950267, -0.05191212009274576, 2.2328136971914274, 0.15558788497016812, 0.5271466224113024, 1.2111421582431385, -0.5013003580090317, -1.2830220710019065, -0.6451377061391337, -2.431496009208058, -1.034542191813145, 0.6828222114255005, 2.3646989824966806, 0.9414738570655602, 2.058934794812094, 0.17352289269097626, 0.9871594893237234, -1.607781000209004, 1.648140282749102, 1.2917814663950469, -0.28138411379060824, 1.247158510043698, 0.15715525942762582, 1.1373783335464893, 0.2655086314582995, -0.2706249769006273, 0.24491651000096304, -0.10823607849005172, -0.15835908122178793, 0.36455333863996975, 0.3755804828928015, -0.6432120332784842, -0.2975028055904163, -0.010841409616907166, 0.5684413698747268, -0.2388938162273597, 1.0656632432187811, 1.4167097840456495, -0.48145592952683486, -0.4661268849037155, -0.4550582329344215, 0.7931552571578427, 1.0380937011843678, 0.30907961910653686, -0.11058609014397787, -0.14089106674526866, 0.5056118154633995, -0.19505665141995282, 0.5660727514938162, 0.5600339752293599, -0.9855998861936831, -1.1112939291623927, 0.673306314407436, 0.012582929196148333, -0.5207238553374571, -1.0417774533880457, -0.987252744729793, 0.2602613170957869, 1.2179378881881302, -0.37867348177460525, -1.7798677587588618, 1.2459873867257094, 0.47915183710822856, 0.8643084457713129, -1.3103261560241788, 2.0778547092730433, 0.26632806137221404, -0.7247151894944234, -1.4370966592868548, -1.0042491445281378, 0.8756878402942424, -1.2040147968371615, -0.3995915800897524, -0.20511135416949505, 0.426209426472747, 1.5222601866958352, -0.7750679468759365, 1.2200467324093414, -1.0699280915679854, -1.104377207815773, -0.00904474548378375, -1.0026268642554788, -0.9244093359726344, -0.3908500932380969, 0.625658720416841, -0.5175681172859099, 0.48951252015495006, -1.163980888361303, 0.360285952402486, -0.6139900729325329, 0.3309084755410008, 0.6792416759808291, -0.14449378761239481, -0.30962690978157914, 0.898519397847765, 1.9673523511309872, -0.6320559756908279, -0.10133905871727804, 0.2346474496896687, 0.20450763175014613, -1.2569004821937624, 0.8827312135462375, -1.3863285826638039, 0.03559144280379495, 0.819681647063197, -1.050919794655648, -0.4300221307416924, 0.6202036260939978, -0.6994640673464133, -1.0849352176843654, -0.4859483910364211, 0.1538240242927189, -0.41265107582138694, 0.3568642589857927, -0.013498045410164479, -0.036926697392772115, -2.478855796147745, -0.39970876693599044, 0.38108418736435923, -1.4369416356219389, -0.5510286904248193, 1.064855293808228, 0.4329017606145345, 0.46798569127477413, -1.7928068957227785, 0.009344465446219802, 1.6254754338155146, 1.8286468144174195, -0.0583930280991026, -0.7286141410724359], [1.371741884288678, -0.3916923415397246, -0.4139177733316879, 0.5237822520592483, -0.7208893138117823, -1.0070704461962672, -0.7551308625871601, -0.3606861732318054, -0.7491671050775789, -1.689102256823124, -0.2401891673428785, 2.0507565580453844, 0.4991635160389502, 0.012257639763798492, -1.4934455547514163, -0.36706515868696293, -0.8512176034677663, -1.3050068296421309, 0.46345999431834345, -0.407959475252956, 1.4117443957106053, -1.6732107943078613, -0.8402089221288086, 0.8105116038300693, -0.16851137018675716, 1.1040275808909743, 1.4716767015352323, 1.0823399085822476, 1.0761275056722845, -0.564921480348225, -0.22480017218170373, 0.794933446466849, -2.1741961240103005, -0.9853919498863057, 0.26160681304325917, 0.8736557960001354, -1.4347724001136481, 0.8475699989076348, -1.1394021474159415, -0.9515158189029151, 1.887589344313841, 0.3530747166291186, 0.1876887624216365, -0.6311737521835383, 0.1122665307905054, 0.5633987769592509, -0.535148137375177, -1.3449119917455932, -1.713619495276074, 0.3030700072849814, -1.450312051379658, -1.10264885807742, -0.31677003321969804, 1.6591339502077769, 0.18708675211881182, -0.6879910746108282, 0.8913525466968146, 0.7455667079285043, 0.32230448510762266, -0.025858340271511182, 0.8762811310487499, 0.9384437796517177, 0.313315579922882, 0.5486833870820689, -0.48648537358717636, -0.16640624828639192, 0.3217126247661207, 1.4528853682501848, -0.0028868850088562847, -0.2828833389512639, 1.6849235784936438, 1.3858909921126927, -0.023493447178949314, 1.011217191029842, -0.6472195133821179, 0.7756464790341019, 0.2857275235751447, -0.6161458288417393, 0.08394069002424225, -0.08920327021746752, 2.0820584073673842, -0.7375712886221382, 0.7857975627511176, -1.0345819633032964, -0.21207994720705972, 0.8693061157409421, -0.068952647478241, 2.429161395434468, -1.423607801819008, -1.7199779050208832, -0.07203186078336556, 0.5363309816707725, 0.2687472583035578, 0.3043752911095517, 0.6986497026203924, 1.758778441531833, 2.558818018886108, -1.200324637277525, 0.9346948587987112, 0.1486179780352723, 0.14414041155380813, 1.4601928612351387, 1.368864175032879, 0.36006586247885763, -0.35932575423590546, 0.31850715703965476, -1.4252157052311833, -0.020559042362695942, 1.1182431565931208, -0.013954952080634409, 1.1817390446477183, 1.3565033726385616, 0.4034578683645116, -0.307336167855242, -0.3836440861658196, 0.8333162133356274, -1.4407068104688223, 0.3987905699779411, 0.8283793386202423, -0.07405527595372723, 0.06720543128896804, 0.1410555684984113, 1.8420008512822004, 1.2640158288402477, 1.113470700666767, 2.0086021432030208, 2.433217914395098, 0.15479830843275727, 1.523667966585726, 0.5691527407019005, 1.251555586989715, 0.5484551882446219, 0.20495195098988825, -0.2865356074468476, 1.9942821740508687, -1.2313753975038646, -0.7132868413052439, 1.9862164274664118, -0.18987424275633796, 0.19447643127504266, -1.009767962772277, 0.6298677092956223, -0.826012978471827, -0.2854334339347381, -0.38948741864655917, 0.5206949913717996, 0.637831491607171, 1.580588643234102, 2.372145055832878, 2.48196523761721, 1.4453574010328407, 1.7938028919789062, 0.5345933093072256, -0.15299060651057236, 1.3709655950686326, 1.1002015348758578, 0.6343732898706098, 2.3455233122666725, 0.8907251180844417, 0.3979942367000801, 0.49692073721090396, -0.7459597693710905, 1.324488604256795, -1.9121885206172247, -1.5739500782594509, 0.9774888535940754, 1.3822582451066199, -0.5965191353390955, -0.2108728499915222, 0.14705250881943188, -0.4771199865785837, 0.5711862590878236, -1.302018896882305, 0.9679268459641903, -0.4039522883316407, 1.4089404714728992, 1.288160275132243, 2.402803776518025, 1.746981314676941, 2.4435579652727313, 0.8970762143159529, -1.1237321602050339, -0.8051430625060816, 0.4336518103174337, 0.9444582751551064, -0.15643156783248585, -1.078156039981925, 0.6755366677910771, -1.6841608762711564, 0.7703902412695772, -0.6755341437679336, -0.8116053906923065, -0.2242253168444372, -1.4176515005704005, -0.3368290267259389, -0.9553135822525692, -0.26144731432693574, -1.2372635855999965, -0.3301410961930854, -0.3258184167702855, 1.759634265431043, 0.5484493689862522, -0.5208293678483896, 2.4779057925145107, 0.9695517232038562, 1.6950136494955588, -0.4477180675566591, -0.7012134682399753, 0.22101347928301693, -1.3384764211075098, -1.363114835299271, 1.507355915542258, -0.5053707027088784, 1.2145181992614946, -0.41619729547608125, 0.343878073227084, -0.11104850224456456, -1.4674974826382308, 0.42430658245341074, 0.32716149891625673, -0.3587199927932033, -1.4288628641134926, 0.4524988180441918, -2.515779537235276, -0.7180349591610306, 0.9671018809596393, -0.6874678533693154, -0.24548943497901374, -1.6757432616013932, 0.15022148683987213, -0.46558715244099436, 2.9052245353524473, -0.37780203024818476, 1.0194631604864677, 1.1444920125994156, 1.6169650515434801, 0.8882783921397962, 0.2526070350325052, -0.09494485490396908, -1.0034956123493481, 1.4177030250893656, -1.0233330083777985, 0.6300616222912417, 2.021780677254259, -1.2959957528676176, -0.19621341358002597, 0.1642291951630012, -0.6114167888240589, -0.5520595434977019, -1.221800443771936, 0.8713419822589186, 0.7042218870009803, 1.716613839708811, 0.6716389526631668, -0.5203409590653338, 0.7158823303141124, 1.79464273970764, 0.5827227594149923, -0.36802524029910266, -0.7567337823259617, 1.504123615249951, -0.788927800067577, -0.8199531388521997, 0.14027836802210747, -0.2436920128128449, -0.5701490486250195, -0.5322685360264459, -1.4933663875055085, -0.6054009122419, 0.4178636390608438, 1.0622892752462778, 2.012590741570415, 1.5369841222136675, -0.00820445407238137, 0.1623138316832851, 0.18733752586649452, -2.4290727545595243, -1.4995020248937931, 0.40795863093508833, -0.27024302335734823, -1.250143108513654, -0.9494730052198764, 0.5551418264990895, 2.877188971566583, 1.7732820268038634, -0.9801626151485289, 0.2072762479370833, -0.43339114504281767, 2.2867894836926683, 1.7302699650809843, -0.26370660423862224, -0.2277758362878005, -0.2903762796275542, -0.9546723376247136, -0.1551605142695116, -2.6722896029895145, 1.0415681091699736, 2.2590275887008424, 0.8146796357224904, -0.03056247745579453, -0.5675836256348838, -1.0790171075912396, 0.20525454904577367, -1.646654156800087, -2.262059305247185, -2.3053557793059367, 0.057833281617954306, -0.7866641828381188, 1.1643442447670784, 1.0323125927857504, -0.18104710197259405, 1.5579369253983468, -0.14563773864614638, 1.2070533385027764, 0.8215272963826098, 0.047219941466599094, 0.4266614689896117, 0.02588317091093461, 0.38995149814962576, 0.7931730209339894, 1.302914530882924, -1.3657211814467378, -1.63472705290401, -1.358414616433511, 0.7971457705623683, 2.490205018773357, 3.35765001570103, 0.3462036375002794, -0.09996091509878338, -0.5022444857792728, -1.6345278814665554, -1.6848427709630986, -1.8806725973453886, -2.570395444545082, 0.742403318670657, -0.3744795030850924, -0.7223767190456892, -0.7425949279649665, 0.4394266696824098, 0.7263133538560077, -0.37702682404335225, 0.8812522550943898, 0.7479626761536611, 0.4534817000947055, 1.1553897756874256, 0.7745171273683008, -0.5591529000397593, 1.0084619676326323, -2.4678685971609924, 0.10563452775715618, -2.4465364377926315, -1.0919280809517418, 1.1933193343541224, 1.9908921185927262, 3.1533291331015407, 3.034627307820069, 2.361911591636154, 2.4435887101249882, 0.9301546365151142, 2.215695262530542, 0.3112397292540674, 0.7660257074584287, -0.32134354768247414, -0.2646978500968138, 0.8145222218498228, 0.46564862716579586, 0.07031807833869276, -0.9452614600517452, -1.358981215092592, -1.1550854823685635, 0.8650040551467927, 0.5265770991304284, -0.21821280063338203, -0.5793870887670508, -1.1721574048745933, -0.9456198489675315, -0.477332261488742, -0.8726004167964858, 0.08613715014281347, 0.8699618051701389, 1.8016993351459456, -0.4078326869107805, 2.434948484585435, 4.041514595190026, 1.6320316321832962, 1.919225224441682, 1.9084151975187602, 2.2629865535247236, 1.167871599787411, -0.31196256995172583, 0.3018775091358057, -0.055847528147823254, 0.3101558733667425, 0.26987755505875, -0.8269818461282793, -0.3796888829135623, 0.983014836971992, -0.20128505158833093, 1.0885678089230104, 0.40086787103685195, -0.34480661223293135, -1.326403088785985, -0.44389915535122515, -0.15772711192364663, 1.1201578732709652, 0.4523367201879922, -0.2951963646190545, 0.2890586070131149, 0.06266480240552495, 1.929668951674035, -1.728361318867741, 1.5875448833672257, 0.7286524583651167, 3.311908490901333, 1.4824844790894087, 0.910209089482589, 0.2796646188149123, 0.6599193236428142, 1.45327005542128, -1.0890386160929613, 0.3198313456743263, -1.1542127325639708, -1.4380024159394433, -0.7629640661652927, -0.7865133268168499, -0.36259674028510785, 1.633839042203754, 2.2306151796409397, -0.4416992190786099, -0.22312067281802628, -0.7692825138426983, 2.1858584032674404, -0.5159229736944817, 0.6203494912246097, -0.2907798174530803, 1.0205151218038073, 0.3969016693610617, -1.238207725963538, -0.036483417805560726, 1.2981818530849083, 0.7268724137797979, 2.4187669650865646, 0.6586577149117839, 2.07665248141203, 1.9621309399206148, 0.3455043555850847, 2.2698022169943286, -1.18214669404499, -0.8216022370320621, 0.19583431357823938, 0.636661770683673, 0.33202702299566234, 0.6515702139386758, 0.08294617731551508, -0.0846559741213449, 1.6959099411732845, 0.040364070171809596, 1.9868227308296116, 0.8122568934112387, 0.8638004699926336, -1.530446469931519, 0.4665454607191465, 0.9477350466325525, 0.6068202694841155, 2.1312657056360593, 0.11914869116064748, 0.22776649571164764, -0.13896928967117467, 1.2129022989886933, 2.1046875396513993, 0.6068419646024021, -0.7664747191572662, -1.0639549347370996, 0.09064915071575065, 1.1184001698420054, -0.15312088667615417, -0.10884067392844929, 1.5802010739285686, -0.7421527833127719, 0.2659046662400059, -1.7978631921116863, -2.092496182634722, -0.11904442760252688, 0.9394873907052729, -0.1523901092468659, 0.43553503890268125, 0.6247022373036621, -0.3354531070192289, 1.6284742056594195, -0.9852626525095621, -0.23480794462896235, -2.223600212026712, 0.5364901919699795, 0.03379561154884986, 0.43495591360625135, 1.0115233006292836, 2.069634536109414, 1.5310792594667624, -0.4954422089535955, 3.5329092484643563, 1.147227095237873, -0.04798555849482803, 0.13715893960470926, -0.09617585425447873, 0.40664729444530023, -1.0445508049586367, -0.2766933742562322, 0.6279242744710557, -1.4232207672002053, -1.4520716548897559, -0.231343692247344, -2.2143316622759683, -0.8162891963008668, 0.01761810270662717, 1.0054850922717282, -1.2269866200359383, -2.068199872181617, 0.12066139291006918, -0.8057408223204067, -1.5773863673547426, -0.7666805333738512, -0.16285964041568912, 1.1472767604791048, 0.6034197364392455, 2.0013679401965856, 0.1602394870937081, 0.16027702805987812, 0.41592358122620404, 0.9001841615042782, -0.7740524247270728, -1.050332406632646, 0.3868493127006966, -0.07011966766555539, -0.6008873728691904, 2.083170459936155, 0.2508191433569076, -0.6941574526336874, 1.2285856307484595, 0.11417928672422151, 1.131897338373499, 0.8142836138028401, -0.18774321499579338, 2.7857593138558254, -0.9222262078252366, 0.5024285535237801, -0.7710599088270053, -1.5518165646400035, -1.0270533230568328, -0.5553980150488044, 0.25965512905638116, 1.853590566139663, -0.18835179484965792, 0.8632007389874837, 1.9851532660580897, 2.2667132342794467, 1.4266371713091313, 1.7579587510206802, 0.3812844655051677, -0.754875672414284, -0.5001749988742457, 0.013759456693096172, 1.5985744407953921, 0.72274970924851, -1.0013739923530238, -0.27722968649046437, -0.37743831343938744, -1.0258959507876384, -0.7045850360684491, -0.5633155159455346, -0.8705264355952664, -0.36761497506554786, -1.1450683141481266, -1.163670811049612, 0.23249912590027547, -0.7156312898435659, -1.4147706642055602, 0.5161452590429523, -1.801426330698204, 0.4110379301444042, -1.0871177559255132, 0.5690715353767467, 1.5369762860961154, 1.8593803609195996, -0.28772300131923156, 0.8134615541117904, -0.4243509878573251, -0.9689801856911364, -0.6657175495206532, -0.27103675224533835, -0.699778642319933, -1.510360715734231, 1.1341073272927318, 1.4058397437240076, -1.2605221969836693, 1.023292511721343, 0.08449056336720849, -1.1177446544304817, 0.8393546235434607, -1.1213509483684687, 0.8972129030242866, -0.4024767127126066, 1.1521056135331, -0.7439693414802067, -0.8196175118924615, 0.2152652751928342, -1.6410329870605551, -0.1309662288895697, 0.0008625682069525433, 1.6591599965094113, 0.9607647054760395, 0.42687528006547376, 0.5104234733674294, -1.0973016480032822, 0.24979717963703654, 2.207833310535435, 1.6282309218882907, -0.01606522388958115, 0.8197674981130839, 0.24367060720076952, 0.8371359226106675, -0.16380517918574589, -0.0569614965327444, 1.6577770619912273, 0.431415701786427, 1.0244451263964434, -0.03091562453769374, -1.5179069032580463, 0.25164242831481815, -0.8487575073487834, 0.7432613765972234, -0.003971752271167413, -0.6054767884910406, 0.7817415133330753, -0.3302944210520207, -0.8965757571855124, 0.6656944604600155, -1.5655021258960802, 1.2909162017517088, -0.1838057153156616, 0.548876039626309, -1.8597157218912035, -0.3932590980845028, -1.049573543664728, -1.41790341688372, -0.2727524028676415, 0.5259268187683764, -0.5394855690623284, 1.168420084471613, 0.48675606005285804, -0.6726464432157979, 0.5010228939976045, -0.7145277665692743, -1.02917240280516, -0.4966777062454446, 0.4304915356737858, 0.2546475695245245, -0.6584791725398088, 2.4261267465254703, 1.180783381245529, 0.5525159273876344, -0.2960113806775915, -0.7330600068858383, -1.8650076718322164, 1.3650870486843965, 0.7148220378106763, -0.12341800075035333, -1.1131165768154117, 2.861913439695496, 0.26712693079302663, -1.55335155586681, -1.1833165341874183, -0.3158248047355762, 1.9653039070862204, -1.4461116015899587, 1.1355513592610254, 0.41208139827591056, -0.3840130542306376, -0.18588965319369383, 0.445352739860678, -0.750373701278388, 0.9548528612112878, -0.26365723911847117, 0.23209718424835865, 0.06758770086719615, 0.46828667918901845, 1.9940138175869395, 0.14471021527379924, 0.5315166874775389, 1.376451064935341, 2.2000873450345644, -1.5370663772821764, -0.149238078281581, 0.6808866108981525, 1.3290147805609234, -0.538531563600095, 0.4554097576845903, 0.8946735391339714, 0.277375990044673, 1.9424924788303501, 1.257315323211993, 1.3076237082474682, -0.7446293579203606, -0.8562281491287951, -1.8277671089134322, -0.9692953880444178, 1.443677148864006, 0.2590557753084013, 0.467366208793173, 1.9766399995553088, -0.4850237586401881, -0.3732846526513952, -0.6858069276233656, -0.04685489718789053, 0.1126448852826707, 1.9132849176710536, -0.41098545693003735, 1.0226470156518201, 1.4273157934059946, 0.7613987733373198, -0.011386317174149906, 0.06110690494643099, 1.1272821540050517, -1.8089125883806878, 0.9590749822567197, -0.5160901507028817, 0.5936877042650447, -1.9879700572108625, 0.5293694371357889, 0.5002095507135291, -0.39051176422633804, -0.04688221611767677, -0.08003263532295658, -0.8364794198302921, -0.34736934715235845, 1.133583657796907, 0.04448904137042143, 0.6585242495379506, 0.7676518411032607, -1.39984069848041, 0.45390751084738723, -0.07117549014663092, -0.38563700669217654, 0.04345875089386388, 1.536286054259739, 0.8219678872727594, 0.8664539073986209, 0.24989454560185995, 0.9908632517034194, -0.38914803869735376, 0.6926500535978737, -0.1311491885250891, 1.0043109744217387, -0.6904325419537484, 0.2766017199834915, 0.365809326769636, -1.0387452672295183, -0.22935190023158675, -0.9187008534319384, 1.5796011762289035, 0.5368762278692678, -0.2739767550787404, -0.8695641873636416, 1.397308410496216, 1.0756762667113628, -0.5825858106587497, 0.01799576878047004, -0.07379912550501752, 0.19084029184854293, -1.6287226169490998, -0.17704182645363267, 0.5160993415487597, 0.15426291396898925, 0.08342526984960515, 0.291973077228162, 0.967686998930879, -0.05036345860372925, 1.3062435755710788, 2.2439063168730917, 1.7510917560734907, 0.7277065954426042, -1.4372425854888082, 2.973498463437415, 1.5947397627027278, 1.1228441848965658], [-0.14766942587672005, -0.5411380858665364, -0.2914359605536104, -0.6208243288952902, 0.04150466178978676, 0.5230558461854534, -0.011554110673581561, -1.2840446048787952, 0.21818600153591505, -0.6130258009830493, -0.3824371825965872, 0.29251967588428957, 0.5520091014886402, -1.377644528504418, 0.413994555485303, 0.2662623940221554, 0.190335625975047, -0.3942168278982223, -0.5582512169313275, 0.8176449204076812, -0.7197876642282968, 2.0611934596374324, 0.9292897412245513, 1.2560832425601034, -0.3662263821706951, -0.28770169407396123, 1.9037910086025764, -1.3422552628460624, 0.7674249996948567, 0.4431251898333939, -0.7723315924224213, -0.16897447714977323, -1.3624206069225737, -0.00545046765205964, -0.11214944870499212, -0.11158740781655174, -1.4325849585197519, 0.738457244528726, -0.5570644800246578, 0.5995748949102733, -0.1117731050326452, 1.1179892433253678, 0.10551546506427621, 0.23209910117605034, 1.0553807090505396, -0.39485286229066313, 0.05433248624495748, -1.5892255886183255, 0.8715472695786689, 0.3660645328867057, 0.4316997844111634, -0.8948944950027166, -0.0629542010716707, 1.0193087368209757, -1.3213145909365318, 1.5552717827067501, -0.7427618608477234, 0.9712253433874707, -0.8443772915870018, 1.8850771467365564, -1.0011298370564474, -0.05035860002396237, -0.5453488695624212, 2.3970113001077915, -0.8516177765610929, -0.9579184519204561, -1.0504112271082962, 1.1066436624855545, 1.6684210068160712, 1.2791283631411392, 0.44098934614984264, 1.4645741091424063, 0.3550046784730296, 1.1813703334427341, -0.06111739163338867, 0.5805078573943683, -1.2979270487134114, 0.5232012062007209, 0.9949163534003527, 0.368173334732477, -0.003314496165611916, 0.011190334269730384, 0.48992472723593705, 0.2194533177492131, -0.8289050983290439, -0.7830383731347117, 0.2360847173794333, 0.60519539767229, -0.606643820927494, -0.46476871887248566, 1.8840498354482302, -0.19876005095630542, -0.05011098843020176, 1.4360668682512523, 1.484598178295108, -0.006608821203159933, -0.2008151259430744, 0.8072106861382287, 0.21248117422568896, -1.1572028014288995, 0.04984622827266457, -1.0583544345362206, 1.3976922097146158, -0.08633669437101121, 0.7098443530287174, 0.8140010188203282, 1.303424765747178, -1.4630725914940677, 0.9045294056460065, -0.9372789683608636, -1.2466103608991934, -0.21165787676180334, -1.0047356604181032, 0.2581745904899231, -0.17161164812193916, -0.7544487156141887, 0.5707999268527506, 2.084836356247975, 1.2294600176623964, 0.6398098310290778, 0.03280708259723735, 0.8963459233746092, 1.2868237140092629, -0.02183837696381474, -0.9041000581681959, 0.3501569585790868, -2.5492753328894824, 0.676114176210055, -1.2697555912280347, 0.5634832300033826, -0.4631166517968925, -0.6111377336773908, 1.9565866417004965, -0.2726150570854284, -0.35344624610593295, -0.19319557718202615, -1.015465488564665, 0.22902847288987865, 0.3875081796186935, -0.19391109512271515, 0.49124671628211575, 0.03767385633635134, -0.13018037647262293, 1.2876203136849047, -0.19747626765997445, 0.6238575901128619, -1.6280223686638062, -0.8315011580617888, 0.8520593869992504, -0.3189811285914784, -0.7526042542464688, -0.38833579942629454, -0.18015890196043052, 0.5697210032659249, 0.538354946557808, -0.24676163420692973, -0.44808581273212117, -0.6542369783126774, 0.29109690270853533, 0.2782949344132229, -0.5801596567957584, -0.4223082262804281, -0.1822213125778642, 0.39450482833927736, 0.15273911240548305, -1.8204652172975786, -0.3574541653009983, 1.29108297424166, 0.005723141980408099, 1.3265880900135463, -0.8659269235121221, -0.9373447717302816, 1.1192541267172431, -1.9799117566902102, -0.3604600102280451, 0.40173181063615426, 0.024461462526761825, -1.215911139421926, -0.847024983871045, -0.858064005315949, -0.06665005319502107, -0.14322306501207813, -1.3340708518923219, 0.10745846615324423, -0.8484375327862556, -0.04082531644712219, 0.3039887861988465, 0.09826443945295216, -1.0255008001063481, -1.231086007728407, -0.701129686917303, -0.18848742765741708, -0.829060642204038, -0.5663415972237407, -0.9011480807121732, 0.8629683932671035, -0.11738939741266069, -0.11641151572959031, -1.3717764078825585, -0.7351494554104707, -1.408114215102744, -1.4662176888827771, 0.09099196098141679, -1.850246539105782, -0.9783516958919926, -1.5260866649902598, 1.0028212991215537, -0.47790408492134817, -1.5239768762266037, -1.4775159180705426, -2.568540028878522, -0.477237249102779, 0.4529854124220715, -0.5831942737874244, -1.4259555841102811, -0.6441356583263126, -1.4146094540210037, -0.8334221277032747, -1.1588384430406975, -1.4442654078842676, -0.0609074877268725, 0.6636290968861018, -0.41217458349671005, 0.5081464406906895, 0.382565650123879, -0.36470061263635634, 1.6969307896198662, -0.20273694508943574, -2.7857328893663533, -1.400571689653269, -0.4770569289670644, 0.2518245678145085, -0.18907951109237964, 1.0966572671301635, -1.0194028351903452, -0.7078984065509705, 0.2863469804238684, 1.040688629733092, -1.944800520278533, -0.5883990189222545, -2.0786838053573877, -1.1299724323239442, -0.050962493640912564, -0.28423587119980076, 0.8558412451083852, -0.08194907159380405, -0.3167580025722175, -1.972363497032139, -1.0853526230153365, -0.9467137442584322, -0.3435989039570547, -0.9102573269659178, 0.5046987527024246, -0.10029798078026898, 0.5840966621133971, 0.9690915413894426, -0.7716938009639789, -0.29278357071157324, 1.1389969485323956, 0.6119237519041769, 0.04638401370633104, -0.13352309824332464, 0.2971766751322655, 0.08122714209463316, 0.7688990399287292, 0.5645167383979529, -0.8808949114815524, -0.4036507994058144, -1.6285865160699402, -0.4634231657522149, -1.9521923638560321, -0.9860780495672589, -0.673302304182005, 0.7578279426380591, -0.3331380033890054, -1.273913582533532, -0.008333479396169557, -1.1608100026581187, 1.5405301593827008, -0.17765935861015303, 0.502429801454594, 2.8140840097055606, -0.5293893005960839, -0.9102387928414511, 1.5206868176586623, 0.6092129804425374, 0.07720410468703, 0.6697127353702658, 1.165248032812402, 1.590399593905654, 1.8404807872771092, 1.71439375473787, -1.7594945758568878, 0.9489565051674479, 1.3232790732602442, -1.5105270732252007, -0.3453277668342545, -0.18427111278366445, -1.363426233654863, -0.41127548708474926, -0.9636443142035114, 0.7099022443724905, 1.268506446137711, 0.5490480978202812, -1.7282461229047374, -1.2199167396889377, -0.1537350967381806, -0.1656605589178176, -0.44407250078405636, -0.537382301180929, -0.8132388685103721, -1.7272312229357873, -0.28554320929221916, 0.3347613217571689, -1.810840152793377, 2.4151577665603083, -0.24218148775542733, 0.8512154728472814, -0.15994388525960654, 0.9136097676661444, 0.10156044026190199, 1.133944094679012, 1.646149753126011, 1.0652228609535137, 1.4831309978177138, -2.805220633767836, 0.053068268525758376, -0.44390861263198383, 0.28738999720504593, 1.391877879239538, -0.5107182141237679, 2.385267023290864, 0.2994780452182412, 0.43123441476030167, 1.005833521672488, 0.12129542674688336, 0.45452588085534956, -1.137046892142912, -1.1597014445872613, -1.56563612012103, -0.02757733765559772, 0.725098758545134, -1.786193767943582, -0.984021048897043, 0.007399707616751616, 0.7548565856697674, -3.1102154839294105, -1.3639667837383944, -1.0245782032967083, 0.5122327851694535, 1.3166844839119023, 0.7788809578602516, -0.8991539459415528, -0.5675179094549911, 0.13253996541569774, -0.8317310847414722, 0.18400954573967976, 1.8732225613081326, 0.8028339754917098, 1.3255473709753416, 1.9453909019410562, 1.0342866148146561, -0.6054451528615697, -1.0972321374938134, 0.09044526885932014, -0.9020399718854242, 0.4551336338385553, -0.07949346814791106, -0.876551616442546, 0.3333991322285618, -1.4008368217006066, -1.9670286290370464, -0.7779337490562802, 0.8020133046562165, 0.00177450788633351, -0.8540377899301685, 0.466961661997149, 1.1927445149993112, 2.5066507710230836, 0.8378184958159984, 1.1934190735943289, -1.6381945773903, -0.025322566740309783, -1.5545888364610838, -0.43239741951530747, 0.4026864807964711, 0.439378057642506, 1.2684953254563576, 0.5332714785493267, -1.2175094824108128, 1.803883526110678, 2.100607944687371, 0.8024031574578345, 1.35741643556435, 0.9475785470508113, 1.1705958412559634, -0.6643607971480335, -2.1730806475027165, 0.3479537610852909, -2.0385171321883324, -1.0792211981502373, -1.5882262113450873, -0.2678182285402047, 1.2758076885338847, -0.3434269820569091, 0.03396584383139697, 2.00243812453751, 0.14172778493407615, 0.3483823951781339, -0.03389849094519189, -2.170285812248301, -1.2558968393753778, -0.2429470381365226, -1.2548635426926593, 0.8200614533136914, 0.1271296562315808, 0.5142617780774142, 0.9762996749255138, 0.09446994872406615, -0.7438637705427874, 8.800288025381961e-05, -0.9305158076173872, -1.371158299115114, 0.7539281804944694, -1.3293298073902842, -0.9075051989491578, 0.917138623174451, 1.0283515079232226, -1.0608963004149876, 0.9798786027975057, -0.1290515175634464, 1.0483739328091244, 2.811880164314155, 2.4810881042002166, 1.967536778880725, 0.8288454470987273, -0.6168720083432689, -1.1151283272207873, -0.4296199779309015, -1.084251373814366, -0.834644475986393, -1.616523945620058, -0.41201629731446887, -0.4482751137871617, 0.789530667696228, -1.224330966628816, -0.12249846457434328, 0.4466498564793459, -0.7793132366058574, 1.1417262299602091, 0.6631836342823868, -0.20941494539194636, 2.1079611610748223, -0.1526632162636449, -0.2585442668316012, -1.152092591144756, 0.8955794649328046, 0.7550941218733304, 1.6350420562530024, 1.7242667088930754, 0.8499394390100394, 2.7164300700137076, 2.3931537387011166, -0.3681367695053777, -1.1790799103427017, -1.7291236400764918, -0.14623233285864445, -1.3840939042944767, -0.618780559171189, -2.386701748159079, -1.4684783691557668, 2.146422109690347, 0.8990078309956229, 0.4282828168028166, 0.4937717242357805, 0.644371022714171, 0.7137729425244199, -1.0940999510254792, 0.6318812376736084, 0.8022998024801853, 0.3022761044723874, -0.9700538116863408, -1.7212348580221044, -1.571750401391766, 0.7926046276049237, 1.5852835941849592, 2.51826012626626, 1.6168614401575492, 2.064505189121971, 1.8913858972176258, -0.48633276408523246, -1.334982238769546, -1.6442235005686794, -0.6279236279816488, -2.1934064660763846, -0.33028255823783065, 0.3428059067345354, 0.5992426977706173, -0.6629845492309616, 0.4986679455386853, 2.1578431391607715, 0.518208238258295, -2.353535783544988, -0.5095859036890587, 0.2805292800201795, -0.4653495639031318, 1.250653795162728, -0.2952130212036572, 0.03830825606770359, 0.14571048233067113, -1.7656165879024472, -1.9747847767765792, 0.054743842181143254, 3.226421336726326, 2.2146399496349414, 4.195249340519793, 4.551594033989052, 2.4901629658337217, -2.4352162099743753, -0.3483186375277006, -0.7442874803565396, -0.638190520969788, -0.12493996161162359, 0.8714840438441827, -0.365907798501382, -0.28030128117667225, 1.2424011396013719, 0.34568390293220574, 1.194113511909645, 0.0029050853174676892, 0.6473953785290898, -0.19994068212414864, 0.017297392905933316, -0.8461899766641741, 0.2359347253956038, 1.7392876341102277, -1.1361073017991126, -0.6388185940262766, -1.1915680981337122, 0.35166954322410204, 0.6762569247642791, 3.9181790890550925, 2.6883897161361463, 4.535759014578556, 2.55355600071806, 0.028252024505919734, -4.3133197859485355, -2.599159461857701, 0.7884511547152296, -0.5978533715893591, -0.815498068596883, -1.4394443708051434, 0.7321980928382938, -1.5450338713222986, 0.9302801304979288, 0.34559948114579847, -0.8034500575743823, 0.9757297270126278, 1.1590484823752143, 0.07432486089832144, -0.7011692405041363, -1.1854387782648443, -0.5074099798790278, 1.1011866222169409, -1.9374441248232421, -2.0259395007600274, -1.2137825890730642, 0.3420334051080163, 0.8720632677201415, 1.6681159559349688, 0.9815073915042978, 1.37129239413378, 1.0675299744902127, -1.0403255821329354, -0.8191426808705674, -0.9156082239183553, -1.9432976151164316, -1.327233438079764, 0.05764267375375135, -0.5353431362794676, -1.5091809147316968, -1.1085953800547648, 0.6505964629331487, -0.6971466018175895, -0.3359641084036467, 1.3137832063610884, -1.6017091162835209, 1.0518403339310707, -0.20978961636663565, -0.07472427263546655, -2.032371813921396, 0.06718913101665526, -0.10589450799874575, -0.1262390803440668, 0.5854857828794476, 0.542045145572618, -0.9882226012434697, 0.9383917958567539, 0.31291994223081687, -1.5198211792656406, 0.8580695134800426, -0.7971764154753606, 0.20200706647878114, -1.1731296678144365, -3.1666134619827035, 0.3822265664183519, 0.47309184229446705, 0.46663602249453745, 0.39832613852034604, -0.23683889132571714, 1.2171626754567457, -1.0518548213721022, -0.3108427474737873, -0.6248390479540804, -0.3216942299893191, -0.8264516071537771, 0.8955794882387748, -0.13198931264429495, 0.18848175605861398, -0.1390943330876544, 0.1028871890793779, -0.2902209221936582, 1.930067788485331, -0.4221007315358849, 0.7502816458270918, -0.47626419687599175, 1.4589141170352542, -1.656434314234251, -0.6145504933844936, 2.5307167425535404, -0.4836801675049796, -0.579918012778119, -0.45866633941313006, -3.217400602814456, -3.12871377644538, 0.4704000546812919, 0.4387387930485368, 1.708775346966411, 0.8104207659556704, 1.3788528073654318, 0.8684371910595987, 1.280162035420419, -0.8274851875508711, 1.639713135669592, -0.3758464546110105, -1.0168285251670526, 0.17724687899198543, 0.6544824130054148, -0.7649531964319733, 0.40294426266116207, 0.3959105635441178, -0.8348405637766496, 1.1853620512568006, -0.08739616785884853, -0.5091683157203524, 0.40000815374434073, 0.6924752994217102, 0.4775536450603113, 0.6484741406412627, -0.02656295649393612, 0.2360098704419297, -1.5037118922062516, -0.38525377561525864, 0.7667078171927979, 0.2340448768406674, 1.123598365865968, -1.9281393661173047, -0.7743844211597364, 0.5791387243675686, -0.5855882933830888, -1.0993333319914564, 0.06465490346080231, 0.8970537280410288, -2.0074941035189866, -0.09029146659969821, 0.12497802534752016, -0.18573582318583895, -1.4875049778415137, -1.2372314891834177, -0.21291002376297935, -0.13030555465687904, -0.7748265669281198, -1.4207773871569391, 0.33188841629354676, 0.636285555063501, -0.3645859370376996, 0.813973586619688, 1.325855837531148, -0.644210071848727, -0.09083376023790272, -1.6403943540522907, 1.6210777510045355, -1.2727377497704884, -2.1321766619057514, -1.1059579896147935, 0.37850658109839574, 2.2627736378515966, 0.10967992275116188, -0.22523640651582483, 0.2360798187710546, -0.4147557671333644, -0.9555279787979579, 1.3351624028246005, -1.9768781832067712, 0.16463093995883116, -0.2216752587988707, -0.3146666209914864, -1.8841247497387024, -1.941080064927583, 0.04883516158355238, -1.5749332652946229, -1.0619070503807813, 0.5483935074929488, -3.3004902267522183, -1.0590139236354321, 0.6409317696297819, -0.5836508385300302, -1.491074388854528, -1.8485052008179335, -1.3234628911682806, -0.8444427816977513, 0.6087540799680979, -0.7762415668622581, -1.4437500542788866, 0.4926191674756938, 0.547775103899246, 0.27990159382681523, 0.4697762374018867, -0.05858236529642283, -1.0181497576826741, 0.3221429838519054, 1.6684849035504346, -0.47626004131694655, 0.5301772988104593, 0.8019024051372214, 1.2979601746059795, 0.3633230694470997, -1.0926902777850127, 0.6783144772697599, -1.2395331268529723, 1.0109173532939084, -0.6235288463326035, 0.0028959547542757773, -0.6869578828304359, -1.0712245282518569, 0.6859649171186716, -2.824516815119648, -1.7540212940847797, 0.139383047628313, -1.698606875094938, 1.0881475192396823, 0.38048849054282424, -0.5860866343161618, 0.5439997443717243, 0.10837652356583698, 1.1559658074686132, 0.17236508184660207, 1.124390087603844, -2.679468473947566, 0.8274226492535214, 0.4004173273913169, -0.3211527978685423, -0.6635554769420638, -0.1484106448930243, 1.052667583033211, -0.47414538885058666, 1.3715911584999594, -0.989209634204952, 1.4561023607490695, 0.7226473271749416, -2.4754133500836355, 0.7668552852559386, 0.09614130380461831, 0.49778503702616134, 1.1636439620013643, 0.9304375035385913, -0.10439307164618233, -1.0540984509064344, 0.17464313162905692, -0.7187201059016327, 0.6582797919749668, -0.1986333754347833, -0.6773153728377292, -0.7419373230716241], [-0.36246337219978, 1.4456025766336595, -0.9696119004548625, -1.6824152272226296, 1.523516701155976, 1.8723017448343906, 1.2518919757799836, -0.07785054418486374, 0.19198124161922742, 1.4317887986889002, 1.887998703570078, -1.0153579756905553, -0.5969873526803481, 0.254205108000501, 0.826505642483848, 0.12788188282426818, -0.39262943550725804, -0.1461401551729376, -0.8219438213769393, 1.0875036591763807, -1.4663575141592589, -0.530835047996295, -0.12274828406227967, -1.744867573693918, -0.39319211180201863, -0.5665103491444637, 0.8955068799927164, 0.006222229629159506, 0.125218328808069, -0.5982071081127044, -1.771048711161713, -0.17129240263803672, -0.7181487560422734, -0.13446913041695824, 0.1697068540857132, -1.8746759321143875, -0.3482209809739385, 1.057258067953227, -2.739806600435192, 0.3673067572917144, -0.3679862671767389, -0.9403574843490038, 0.13450773759864995, 0.2631745696050189, -0.10087738704621986, 1.0205941200675546, 0.5165030088065327, -0.5613505525190401, -0.13369051134692217, 1.3516765165240936, 1.7762412438958364, -1.318283415901031, 1.0553018587546183, -0.8564883460291142, 0.07408755647971091, -0.2272265168772749, -1.1511218996842643, 0.23002117097743394, 0.12931504307655045, -1.1208767017999455, -0.0132972442712539, -0.9303222432365494, 0.37571753598810353, -0.5235304892975845, -0.8701437433117575, -0.29468320871376547, 0.25188641317228494, -1.4681438397665842, -1.52624334898449, 0.6568186329360148, -1.282197735786089, -1.3915919542559103, -1.4374401063748932, -0.5370993118506103, -0.8704868455592868, 0.31416918747853967, -0.3772390145376205, -1.27127664258892, -0.9788104419886555, -0.015334745466350051, 0.9488913047945587, 0.12622041824002045, 0.1746697465153581, 1.8860014167848866, -0.5500941221037788, 1.812922182555848, -0.8710197983912423, 0.47323735101340086, 0.6559889155784532, 0.10031162703579137, 0.8028390360625055, -0.009000870328308914, -2.6026500002762925, 0.9535109527764801, -1.7297592286422685, -0.10364327477253331, 0.9879017700840914, -0.4208935902639639, -0.6782055717728185, 0.9412401409845462, 1.342045350275765, -0.9668107314999209, -2.326908475315384, 0.16498908855353314, -1.7666522590586928, -0.6767187145861142, 1.5070854849580444, 0.7361501397002378, 1.0999652186008242, 2.1592675924581104, 0.13826323398638585, 0.5260959677451016, -0.21278851300273643, 0.5763999584875293, 0.28167650971443103, 0.23376475641920805, -2.1265431377874315, 0.8203818157631583, -1.023509082272389, 0.2888112007097227, 0.23117056292572583, 1.5538452642829095, -0.41171142063861127, -1.3168211567639396, -3.580124409312161, -0.763688825002361, -0.17549843215687574, 0.5213315547645668, 0.3506960259931366, -2.008851689892593, 0.7428678540032784, -1.2050638493489712, -0.7749233082663731, -0.04905017727391424, 0.7571819325058267, -0.9264793441097563, -2.62579974645948, 2.225851545775247, 0.6689883620240813, 1.2577021886793853, -1.854995846081101, -2.0339745019513757, 0.17482348995118627, -1.028202820826461, 0.8826439251343835, -0.8424028705122448, -0.6450127090271656, -0.18220933427570613, -0.1580584027100295, -1.5495605320565267, -1.1907495762444478, 1.3244675406572437, -1.668612117752987, 0.5190869065794204, 1.1286938239124442, 1.1171520917211695, 0.8807850237025238, 2.2904663231764415, 1.273944241947066, 0.9522737901101624, -0.9949621228244186, 0.03681598159615975, 0.3580548278070781, -0.4585807004763065, -0.13697534287462718, -0.12311485616328514, -0.11060042450390627, -1.0180159260643393, -0.16835565653235818, -0.24105159594278452, 1.1608320280928115, 0.8555712321956942, 0.7743799954893067, -1.2148114412209159, -0.34792327610285323, 0.3230647377815981, -1.0588155325172945, -1.4713879446566773, 0.6959991027011403, -0.48186515105670347, -0.6281369771053432, 0.39306648320759763, -0.8595316689150911, -0.46157153742417995, 0.8278952661952776, -0.03552563863635329, 0.9596556581784408, 1.5633114512360229, 0.3258662852725374, 2.8731819310121036, 1.16075668985271, 0.49934221930863604, -0.7019452623767435, -1.946513840909186, -0.30092081502537854, 0.43676464853111296, -0.400979440793087, 0.41942503046561624, -1.060864557343074, -0.8706931405442256, -1.041846694650686, 0.37865179185153813, -0.28910820113152913, 1.1255529074727617, -1.619820569617891, 0.21185625509921363, -0.9104465759839607, -0.12207997462157875, 0.21083883742016782, 0.3422136745455473, -0.13972334723491409, 1.541071981053762, -1.7673950977125767, 1.012764784227699, 1.5415607836286624, 1.9175934570889204, -0.3493316014093842, -0.5823664964424141, -0.8261750940267786, 1.9626502632421572, -1.3859748050492777, -0.678146166809652, -0.1473086683183443, -2.962820534415774, -0.15578832676508672, -0.056104175721952296, 0.8582276807093951, -1.355578465079243, -1.0395905965771097, -0.23251798649257663, -0.9512673932301311, -0.46813504609964685, -0.5215725457887451, -0.18349522193019566, -0.2136141725458616, -0.5977133105218048, -1.4201647544714484, -0.4746103222396303, -1.33371019943104, -1.284684347909763, 1.4438258517008848, 1.0808801722132628, 1.4655577819030914, 0.8079491083948223, 0.6745177333149421, -0.13723732243564712, 1.7100216601973242, 0.7589156181395706, 0.03700241559387166, -0.8067668454274284, -0.19038793759581965, -1.6542352334924972, 2.279687892519096, 1.178701924638661, -0.3980302115942752, -0.7862984081707538, -0.10216073985936039, -0.024933658604192763, 0.08562604502395081, -1.759628783365586, -0.017937955169411775, 0.5684541723966436, 0.8466695442748204, -1.051451060711335, -0.38846373213671237, 1.2941581769838186, -0.558540491369705, -0.09741209256700607, -0.6267401224726445, 0.9138508946925865, -0.05854646337439839, 3.264918494710169, -0.4639205027111451, 1.392249392719707, -0.3909037544248484, 3.3140886325235366, -0.35080009986792393, -1.0743793110444118, -0.26756087276777135, -1.6338587080374811, 0.19692495857468384, 0.6383173806983522, 0.058503933250081575, -0.6477370331834582, 0.04043450620919981, 1.098163059165589, -0.8013331880861818, 1.168949550945191, -0.6122649639850516, -0.21345376562153745, -0.1690941226920348, 1.9202236675629556, 1.6900325032126768, -2.280576689418983, 0.25468740508722937, 0.7674936290719158, 1.2128043184843642, -0.9896301823619168, -0.9664762036362505, -0.21876130752453907, 3.2016622061338333, 0.855869661635609, 2.9775740381627736, 0.646759100012629, -0.3499124167759033, -0.3986505088017512, -0.12447634399875263, 0.004284499049193153, 0.0452546837120331, -0.7674923015192293, 0.2872967738781479, 1.1224792388900713, -0.22155765680775505, 0.8440432181482727, -0.742893845561349, -0.47649569535688413, 0.4264322020422282, 0.451002153557422, 0.3595165230497052, -0.11090809909608794, 0.16614337372123206, 1.3004950430267943, -0.4305708363877906, -0.09808055303524199, -1.8986550616622602, -1.6674187994803045, -1.739105129905052, -0.4218221030674905, 1.2985380160133198, 1.909503165638775, 1.3424059329632567, 0.9019897256942982, -2.1470369809546836, -1.313361573393932, -1.8889781186174301, -0.44299190793504695, -1.0722262250591832, -1.054599389542221, 0.6172644487453387, -0.41343916408120834, -0.8093367362948566, 0.025021588047854336, 0.9808565900500196, 0.8349126735400118, -0.47809397934696735, 0.6977420939767829, 1.4334831492169253, -0.3045132618364478, -2.2831468220407594, -0.5932079391995897, -1.3964568924827172, -1.2958288973748646, -2.072465164049942, -2.8090704259343817, 0.4759998178727287, 1.7502539060459985, -1.4047603650444858, 0.7688732106074225, 1.452568092063681, 0.029236802418826164, 0.06463660683875717, 0.5807583636011479, -0.9977838044500326, 1.7618411204428683, -0.16281587465982628, 0.9291647000146513, -0.17490626572732812, -0.12896633329461862, 1.8106545328876833, 0.08902588820484487, 2.0045085668821834, 2.4671985283470046, 0.4689246161077081, -0.02946507835118946, 2.6393438326286893, -0.05769817218124246, 0.9828259482639038, -0.7711958711306484, -1.370875326719915, -1.6309059889200863, -1.827645191432311, -2.2522091411716625, -0.8945848346315448, 0.41130418900784493, -0.23301446955348187, -0.8103786144039834, 0.8239200537341482, 0.8287078882469553, 0.9020733105255168, -0.7437122056565946, -0.3884775510947599, 0.2943407354304454, 0.2109033730672682, 1.0292077269273174, 0.1251917386385673, 1.184410476683619, 0.689217737479275, 2.1012380181423604, 0.8655570135539216, 0.017685516580820584, 1.1506443904089716, 1.2145212094769549, -0.22593591229824173, 0.30507433248245547, -0.17806578771711837, -0.6308594490253017, -1.1199706072496194, -2.511423785398754, -1.8209847413166487, -2.4313391164286338, 1.8045344493915718, -1.3019975391051561, 0.792458527138714, -0.38451562399977623, 0.05081245885362429, 0.12912598297322367, 1.0277548012083186, 2.0764111861519017, -0.5928226547853856, -0.8404965311456309, 0.3052846481712191, -0.32817559125495244, -0.5458578709626613, -0.9809504289311914, 0.031059209211136446, 3.126129303152923, -1.5845934259526775, 2.854655602201822, 1.4005127769785448, -0.6993089366393604, 1.4748660311464545, -1.240681319694543, 0.7307786532605649, -2.0882569830702074, -1.9753504366611288, -3.131905984205611, -0.024386343495054863, -2.1740445635648014, 0.08413452532824146, 0.4185551219426512, 0.20007027547817663, 0.5488432670349607, 0.6006431695314669, -0.18861552347152208, 0.9427795472176258, 0.5911259727685964, 1.2222522499055377, -0.3858279938267327, -0.0717433540785845, 0.174701338695132, 0.40990685609735567, -0.7903435312356022, -0.04359124737113047, 1.7989766261335722, 1.3323662461375236, 1.4957576425471955, 0.357937301361131, 0.9981337117777916, 0.7532006715196151, -1.038370695551795, -1.0025235467008364, -2.4640837442030112, -3.4067301839574897, -1.3758958774957224, -1.431581800467908, -0.6440875346970939, 0.22196985224753044, 0.8941082214548095, 2.465917389875543, -1.1486815514679758, -0.028307229162673395, 1.1255347490568726, -1.6816860935340299, 0.31091383393103567, -0.7641210043323492, 1.2374342089005368, -1.6789747408611098, -1.8120755498599115, -1.167774665454605, -0.14845644792604173, -0.11743931577233899, 0.5421988457162791, 0.04083482656339526, 1.2847864571603327, 1.3094479711214642, 1.63456276195168, 0.28117236821294256, -2.742345598025399, -1.7367560906341448, -1.4281261010711406, -2.9942700766857344, -1.4081714415475144, -0.835611917492799, -1.1661313210380708, -0.9558785351591099, -2.4789752877010076, 0.44953691521096145, -1.3519708249362634, -0.8355044856042455, 0.6987391908317707, -0.6229961091305686, -0.12265524425774554, -0.9804095384834738, -0.1217858340246949, -1.5230861010631045, -1.5750869315638993, -0.5370119576776263, -1.6882653914538837, 0.7906145210677498, -0.09770621762481506, 1.5798850898329853, 0.9524714569482624, 0.2169461386542135, 0.9834123321647171, -0.751344716416173, -1.9031865534607186, -0.6601735997441001, -1.5605034674075482, -0.8942438117063888, -0.5529946623005769, -0.19606857451252482, -0.9648140140034469, 0.6095765681840775, 1.1384659748034442, 0.8917869091691544, 0.5364763609363983, 0.6308270883608676, -0.3512955101491766, -1.4142553762960246, -0.6091844022843951, -0.36349405875146734, -1.709333573580675, -0.2569437615166274, 0.6690794768025863, 0.06560471898622652, -0.7362998749310897, 0.15977754552011694, 0.7738988415097692, -1.4881561526152296, 0.2558874655371197, 2.156247085115039, 0.35148152708144575, 0.017677438115808002, -1.5928365557908297, -1.0808930148705849, -2.231199918427267, -1.3153210442971512, -1.9756784070395585, -0.04272721679572256, -1.8214767034595425, -0.8639722901947482, -3.139325236252346, 0.5011569378018957, -1.1705880601254621, -0.4110617885141053, -0.0955434508448901, 0.49102612718354477, 1.244439063881723, -2.322933515212074, -1.365299700465012, -0.5489385313339143, 0.5938445043488391, 0.7646270234809222, -2.581401620847886, -1.239433001467194, 1.4292272152855066, 1.3638763027557506, 0.5556460905810452, 0.42119400013606717, 0.8067416297842115, 2.628645816993453, -0.5913692562046426, 0.39073103195098335, 0.3321587128563612, -1.1920510303116294, 0.2848093581748527, -0.7176243875237406, 0.35251372740584186, -0.7912703900629314, -3.505208225506861, 0.33431872237087307, -0.19832775154547957, -1.3138340587965285, -1.2992384552130445, -1.4158703991290735, -1.1281544547470812, 0.4491217275159599, 0.009650344834710467, 2.073525863622861, -0.8746330364823012, 0.7082295436477505, 0.7184553051997983, -0.22242364172556298, 1.417951292269734, -0.5405184508575464, -0.8928286780274399, -1.8653590588191802, 0.8183348365865277, 0.7892050445707768, -0.45995806357527513, 0.03978136755336069, -0.6788978322807327, -0.6952018088543565, -0.428834679671261, -0.19139656495560634, -1.218268666259232, 0.7610434270474321, -2.9405013106694176, 0.11261518561352948, -1.1034218083028295, -0.7406715752162497, 0.43793894641632425, 0.2768709891858934, 1.598906317670581, -1.0757193944805248, -1.5190494939467243, -0.48939108967691897, -0.7425655462244969, 0.38720418531213874, -0.4361366037581875, -0.5056721362345452, -0.9826292986059318, 0.8542534457130069, 1.457572571975974, 2.1520827510031806, 1.4001762199171968, -0.3841914042969315, -0.11152180894863369, -0.5355917276201605, -0.10348709710140623, 0.26142229758781943, -0.6294236190009048, 0.7704382027638773, -1.7060420548405852, -0.010582774846413998, -1.180922294243013, 0.6528800485522365, 0.14028856953938781, -0.7025573282420069, -0.7258811561533536, -0.40502200532799915, 0.31714951899065974, 0.6387416711024572, -0.5034904725439704, -0.621402195318263, -0.3468148290774725, 1.0026476998141414, 0.20502761802340055, 0.05686276113221518, 0.07833277833769625, 0.21173252319214342, -0.021360874287935257, -1.083065191292062, 0.9807539047960367, 0.8254686567132239, -0.7749452685270217, 1.384460002575755, 0.40495580148012733, -1.594575138770294, 0.4737714162002608, -1.4546167566226085, 1.2224792716791704, -1.9292607690989108, -0.1784007479434708, 1.4296688726150193, -1.8119618039089984, 1.3089543757443274, -1.6737646311373644, -1.1575257760584048, 0.11484440098959842, 1.236723496875673, 1.0199641632681573, 0.34303073119220534, 0.2576357064684444, 0.2948566293935984, -1.2985407430912985, 0.5354161459388193, 1.8445430144840147, 0.42281261592771496, -0.5870952238943475, 1.471795230306548, 1.1707586716837308, 0.18856584497419865, -2.282984866279193, 0.708055678601917, 0.8299776331380365, 0.21425488022758274, 0.9721018588745299, -0.7978596270595619, -1.0330335940459368, -1.8361595531517696, -2.1166207162941815, -0.9174270806783218, -2.0038983220303175, 0.16433704664067214, -1.4948039977871208, -0.6924513569702261, -0.9922904386015794, -0.08844112383566671, -1.5025417442899374, 0.13916531790834616, 1.0891235983054903, 0.264806814869587, 1.2117212528322103, 0.16808233037498402, 0.7091383238935416, -1.6767651036262339, 0.9103701018613635, 0.4793890238376604, -1.4785312960194983, 0.1849937722153421, -1.030405591806441, -0.05322593689335176, -0.8799561296239554, -1.0572909741900949, -1.8217615317336915, -0.9135407001541858, -1.6285807057325332, -0.881843468708315, -1.7824962011949617, 0.20661552432186026, -0.36783458901441063, 0.5059248069717284, -1.1440645106536185, 1.1958649417038125, -1.0283078206671952, 0.4036686884349162, 1.7224498571089628, -0.539021849184533, 0.8097171813925655, 0.7726821293231873, 1.5630496831051126, -0.8846816849749917, -0.02058570233130723, -0.06914166122629313, -1.2902032840160762, -1.7248423329300748, -0.9316432492062641, -1.551791940051679, -0.3441745979816676, -0.8564298857366385, -0.867665760325445, -1.1326739941881143, -1.9577119350852368, -2.0761897394468254, 1.5893559428369963, -0.6412658906746729, -0.4110307805840614, -2.4018499060439664, -1.24020683359957, 1.1821146555825164, -0.9217470110017856, -0.050683787963454095, 0.4032152380628252, 0.43732106021901124, -1.3515537232804866, -0.1624283572898482, -0.29112830491239655, -0.4826942890581319, 0.36840189746077284, 1.3028910633016064, 0.0415617254505907, 1.3225805191659292, -1.2300941084645989, -0.5932442060094443, -0.25342320432480414, 0.23370637567458036, 0.5368659261779343, -0.736578533401938, 0.6767753618925876, -0.00882742377341737, -1.7264915609951856, 0.18382872044383103, -0.23519367150484127, 0.1044736931115417, 0.37353181392276685, 1.60841063788595, -1.7138746254901867, 1.4170220525787662, 0.5438506915643023, 0.09505648442925138, -0.6578874091538797, -0.33189450983477126, 1.6464747178974433], [-1.5346368150263232, -0.9374101898491842, 0.5723995246050091, -1.1350947701635254, 0.5297955587138025, -0.2655039894198151, 0.905729919636051, 1.250955606138141, 1.2830934332137087, 0.16352648860481603, -0.34572171251093764, -0.783322606664436, 0.6761188954858859, -0.4765278196612537, 0.9667538750593593, -0.6465476786388387, -0.6295451023662761, 1.277180758640677, -0.8010602496464362, -0.1267042162120878, -0.20949942866016588, 1.6912216274978042, -1.053605990492072, 0.3459937904397055, -0.8836794036352862, 0.9225481759077045, 0.1245060993307606, -1.6985801811877244, -2.1404728509299646, 0.7923392402349602, -0.6117587546569989, 0.08743883886233313, 0.9427050028289117, -0.2350362668794296, -0.8637819799573426, -0.20000124888761064, 1.4897356615915491, 0.44132341821489707, 0.051499350874891305, 0.10435456008106281, 0.6909094486355709, 0.6593205254411729, 1.339907492095903, 1.6375338784933164, 1.2270725404925182, 0.9241027965526804, 0.2540437925435275, -0.3021892461239364, -1.4948847889066037, 0.6160229326303355, 0.8022809716188726, 0.457140900853691, -0.22244357055937813, -0.47982220634193024, -0.9582883983614541, 0.20893633413459714, -2.3678712957548056, 0.7823931986041355, 0.9443705675637201, 0.13525803034979544, 0.8915063169218364, 2.32016203178705, 0.09099980134570694, 0.7575318513282044, -0.3353041653433543, 1.0896906727354072, 2.5295122624377413, 1.6365107681829487, 1.190651259901172, 2.8290176377192755, 2.119362604823831, -0.841866047087062, -1.206429262535638, 0.104641178025145, 1.2436822211953151, -1.8688895522162254, 0.17826711801154974, 1.0620954705766514, 0.524978976629779, -0.46995897635170997, -0.7547703038933014, 0.2932997657480031, 0.23155244673437658, 0.4121485789911181, -0.19864392851315585, 2.526730435042176, 1.376276063800862, -1.3764027137680375, -0.0677203573770205, 0.00831964711137351, 0.6497508512664288, 2.911851578011116, 2.0917534332885332, 1.6080660152367727, 2.9469961687835724, 2.0742742133513516, 1.5532320371031885, 2.7890410396506082, 2.136415246005134, 3.8123430006908676, 1.8351695090678515, 0.26401492375928376, 0.36695785910011663, 1.6630900514336804, 1.661114087766325, 1.2167694739469506, 0.4170662758951788, -1.4229774072343206, 0.5827475303209829, -0.9421831702010468, -1.0838573743702393, -0.6289121422325025, -0.12257403874329328, 0.09304056639986087, 1.0015489758062097, 2.914974011558337, 2.474898264676383, 0.8157606763947922, -0.14518256904652396, 2.735205677166907, 0.6147969148061085, 1.4671169240796376, -0.2449042951184808, 3.18209638027573, 2.4379201839180675, 2.1948914992010824, 2.64963034994458, 2.247628120732028, 2.605160466590418, 2.911537837838754, 2.1805650251759463, -0.5880060492452215, 1.2200036000066756, -0.719482035357453, -0.46124029570186803, 0.9295886905158591, 0.37533135284718844, 0.26086863247804293, -0.4336206559227161, -0.8805002474404996, -2.1431587955923366, -1.2170823688580745, -0.30305144325122785, 0.10685206512181976, -1.5279866063360088, 0.7886070592941823, 1.4828575198435785, 2.8990566019761483, 1.4756325844853202, 0.4983976107219911, 0.30316015748880804, -0.2638246793572199, 1.3982843770928395, 0.28279721290170445, 2.4914669306930195, 0.4901832684829231, 0.9368607151659614, 0.9286429741122841, 2.1869730182152822, 0.34936390301157816, -0.4681677423161233, 0.4591329499641011, -0.862085111770036, -0.40465475359977643, -1.9100709078204103, 0.8458483489228196, 0.479770608856729, 0.5601585555247168, 0.7364930911874368, -1.5174140746403184, -0.36078627372509076, 1.1962441607762313, -0.28971421394376107, -1.4133103933344335, -0.021130208847231526, 0.06585588152798608, 0.4643989277268493, -0.37665562319017076, 0.6999504775952712, -0.25155393917026936, 0.5518564302096385, 0.08890283063423243, -0.9267574658413407, 0.04909691386856746, 0.8010805967036256, -0.8252161958487985, 0.7195812644251776, -0.7546140654176647, 0.1339095849836297, -0.5510573640348057, -0.6423593955653334, -1.7085148224658409, 1.6226259653532003, -1.9773517057412704, -0.34265307673027207, 0.7862058366890459, 0.2287224726897386, -0.9195284075922218, 0.35110969712325807, 0.8082911769403721, 0.07231339303163292, -0.4512485040964749, 0.36821844006863685, -0.9366469044943452, 0.3070741393830393, -0.08131792785148403, -0.09189801599324786, 0.1330932226962403, 0.10256567647525774, -1.8137702648527751, -0.2610857488688796, 0.4540130591242436, -1.0974768794052099, -1.2860471586055684, -0.7992514215925587, 1.9631037269752936, -1.3810828328878297, -0.6869201543210364, -0.08074112437028316, 1.071707651578468, -1.122224300844358, -1.8344781267540393, -1.0287867535711748, 0.2301057948471736, -0.9869031136045042, 0.806798256594352, -0.4899169166224089, 0.6908039472539885, -0.43439170741516026, -1.6210583709461917, 1.2506128157616916, 0.4033138763062994, -0.39335192137175357, 0.8139052862251375, 0.029198926161568887, -1.220435123667074, -0.19474098159315395, 0.08124838196103294, 0.40318262414973166, -0.37445487050350074, 1.3161882915634497, -0.36072257022710924, 0.47662385839952953, 0.5050793233826855, 1.2557746643764778, -0.13364067818432135, -0.14736789436423392, -0.11690454050948612, 0.21517949250107488, 0.6774045744445019, -0.3835478380111774, 0.3123048824849795, -0.5942136773779828, -0.7088465140398248, 0.0963392934000352, 0.25006017985334283, 0.7076209131987103, -1.5453960149585757, 1.625564500133017, 0.1421374128868591, -1.0285499842743837, -0.3416693638246953, -0.07789555161314958, 0.4997695340607555, -0.42142775310714814, -0.2610947784286722, 0.4190766095790408, -0.3929209475554093, -1.3341238623865235, -0.5270733663568051, -0.5773290893664188, -3.029254594550815, -0.4015700516292581, -0.05458787946460066, -0.7845957717517662, 0.5210590154861645, 1.2032849944801536, -0.23918329697429774, 0.5622289558749721, -0.8411300719011219, 1.2173494460648056, -1.818416562515628, 0.643036063357653, -1.261179698510874, -1.0750759627847937, -0.5898067226063384, 0.06352612119943218, -0.4231291559432391, 0.7707896086254789, -2.0816734972574213, -1.242558464860559, -0.6643259318783187, -3.156465871147614, 0.286877334249878, 0.47390445449260793, -0.18255072396934832, 0.6552301054080365, -0.7445268139591436, 0.042861292634633806, 0.13857738987927679, 1.0923644345621264, -0.8158336938061362, 0.014365297433677687, 0.8773517035476002, -0.24363157923780757, -1.0994430470017102, -1.3518299579665694, -0.45767726006480514, 0.28422956494301616, -1.2601824965702437, -1.5426527374830568, -0.21055783718107612, 0.9876157304715439, 0.5762914136896096, 1.1577034317433335, 0.9038946276028368, -2.060169127623957, 0.3882366002068686, -0.34721307422500963, -1.916099926508773, -0.5588091674277298, -0.7521282142955308, 0.9772544420364203, -2.7505377560241544, -0.4007145562371219, -2.043336048339102, -0.3334931479007096, 1.1883923581897304, -2.0388456299833075, -0.9489322351560351, 0.11469852262300179, -0.33323855818363535, 1.9894605655054944, -0.07214322145273838, 0.40466994585988775, -0.9309810368967211, 0.6119432579074293, -1.6089156612217808, 1.002624226589187, 1.00126986795652, 0.37584774450688124, 0.1820740086547042, 0.19582469145064899, -1.0049122755513928, -1.5415344869706533, -0.25808367149912514, 0.12253269015227257, -1.4283289813097915, -0.22131565436037978, 0.03660895809770085, 0.6922387353850941, -1.5542381467686561, -0.8039812850341305, -1.414988042899912, -0.6860012836071194, 1.6406994844394032, -1.0192666458047996, -0.4910865838074482, 0.27047192953657245, -0.45194534830788274, 2.468894005804621, 1.1181009426761144, -0.21057348213799332, 0.03102894888653936, -0.9921735886978756, -0.514241495195539, 1.6472306762405753, -0.4017468017975257, 0.08085458542829972, -1.4008516188788858, 0.17651921906582216, -0.9382160836592857, 0.4817559303176152, -2.1404076044857114, -0.3531522896172387, -1.9798349689390373, -0.341921688511211, -1.5046415387753387, -0.7718938416701792, -1.1022575626478923, 0.6423525024788452, -2.045480548898861, -0.6128589438406542, -0.2001506847813724, 1.2320894724957976, 0.8735219615935071, 1.259670333923286, 2.283680506534146, 0.30134897208898526, -0.6457910556904991, -2.2562424655461832, 0.4998202518634734, 0.6878696821389887, -1.8039447324622335, 0.5297496796389416, -0.5506434884255291, -0.7208264084978347, -0.049746313681564285, 0.17525335674843487, -1.456584501847467, -1.4221385071482888, -1.6736355660935234, -0.8470690095335361, 0.7254108946539328, -2.4288154632669237, 0.8567134957461353, 2.2209636101963444, -0.56024001607517, -2.1609448542691734, -1.3689224730367358, -0.6286341554258018, -1.2702800413414, -1.2032164363193951, -0.7523139476202921, -0.6763934740020301, 1.6062207342694024, 0.09823018267528695, -0.27067036187151133, -0.46467954275541723, 1.5614179498882188, 1.3052828010160396, -1.577591530794888, 0.11011283567543818, 0.24512890854483863, -1.2067366889575033, -3.181452620658562, -3.4425468905171384, -1.550025480384861, -1.0963762736985716, -1.0558262731060524, -1.9060836766407632, -1.5645407063349153, -0.03776199288405157, -0.4055715515981824, -0.3206119983974756, 0.4394512273173141, -0.8917624735875446, -2.2746634766325236, 0.4655705961349819, -0.8833455467468068, 1.2808836333989113, 0.19962795056124547, -0.8185346899208651, 2.1935072113425567, 1.0032735510759987, 0.5279370785754383, 0.9951691838462183, -1.0748732486117507, 0.1682857094555729, -0.6967379725463455, -0.6707999007065109, -1.0478723156351584, -1.3113180871910965, -2.3409579105823175, -1.0630932616811777, -2.8373057361635516, -1.0620725785476335, -0.023573439064416668, 0.2774663451556803, 0.37548031085863354, -0.3810903563590809, 2.08837806281681, -0.4921883225659117, -0.2597918578404212, -0.34671717862877877, -2.502226616475732, -2.8436753899263154, -0.37126864232018353, 0.3988953256079188, -1.1069789552783376, -0.8601167730318064, -1.2758439882145598, 0.34728274457560393, -1.1583091036508582, 1.9723088067191576, -1.3697120854627534, 0.8311520260793528, 0.37000539563262874, -0.10403554371148489, 0.29543733448595744, -0.557849113240657, -1.4698032537377856, -0.346783490972872, 0.38412277755141594, -2.8888082554035717, -0.47315801795205165, -0.562350650469343, 0.31822991891869146, 0.9840276497701452, -1.1690027699207597, 0.4260257347933342, -2.8503715641740195, 0.45500250087965083, 0.05969492115600406, 0.22871891013290116, -0.5542292877694793, 1.1678669588901447, -1.024147236869908, 0.03671874792616171, -0.11802437441200352, -0.48642422535905205, 0.028567603334289694, 0.8332313282882291, -0.6484117407843331, 0.14318418575799696, 0.9196525781274335, -0.2141702503686818, 1.279066313821137, 1.0537588071888004, 0.1959601889470474, -0.19146010319258236, 0.34678915989563236, 0.1319454864307489, 0.7110948482154612, 0.453270288950131, -0.05143578967560316, 1.0270181362667272, 0.19045104683639263, -2.1217998490454466, 0.9143031335975489, -0.10965613678444885, 1.1939268307172024, 1.0261959432785424, -0.4842221200005777, -1.2673441331422883, 2.145688499435077, -0.10917627682950751, 1.1213439221760968, 3.1848488098977232, 0.9096604554705232, -1.4270962191223782, -1.2644524322968413, 1.010382908801099, 0.8252848685382315, 1.262333202570163, 0.5219165345843457, -0.0017346444148157196, 1.15870384567121, 1.391112299190756, 3.244171351265884, 3.0752449818459313, 2.8701324044987793, 2.4163730453886236, 1.5373127130474646, 2.832730890640994, 4.595404468318695, 3.227036079932266, 3.017741800413148, 0.636825643178092, 1.1573881067767608, 0.2559927241707202, 2.554506334904011, 2.1870404111797637, 0.6815134820193077, 1.6201036887857743, 0.5820628247323693, 0.6685936040828073, -1.1122505672927248, -0.6558410188609204, -1.0098104142229987, 0.33203824449863417, 1.6674826383856571, 1.0990681125452904, 1.3401863039697313, 0.3327433023937183, 5.633811779446079, 4.401975741856693, 4.756000475276348, 4.6011034939157085, 5.320636850068031, 5.33050296522506, 3.1920391485282047, 5.502636127994937, 1.4500966853066235, 2.0031656566891614, 2.2493686161819424, 1.2001651753353217, 1.48251527614872, 2.323670958283584, 2.017413649978689, 1.7909365551746466, -0.2356627744717984, 2.760884732388624, 0.6927418473894535, -0.04206847241192881, -1.4129532516296532, 0.8310832465756357, -0.5722432871328542, 0.6951883452116787, 0.3203067058325054, -0.23312687929403672, -0.060933325243857264, 1.4201721054506489, 3.2906975637677, 4.113216351041701, 4.845835620522574, 3.8742388927474143, -0.08714755045936345, 2.2131475923979544, 1.7402048393305254, 0.4846965033409146, 2.1070726219896017, 2.823571914629271, 0.8171700507030843, 0.5687267370936019, 3.2646421653208018, 0.9706492832483262, -1.1502211861911744, 2.3878565778299548, 0.5683416799605503, 0.5075989322812828, -0.5046014007964109, -0.958062297005965, -0.0037215517044105056, -0.3718493130825298, -0.10322658156739137, -0.5642371793840028, -0.027903945666487132, -1.5877911006176366, -0.07465224641804172, 0.8210947391076339, 2.013350825041538, 2.75282646117134, 1.385057725768341, -0.5696394622043869, 0.28237271571553374, -0.5456984385148828, -0.7408820295919383, 0.3645825418151599, 0.3755989698358787, 2.3503989107305547, 0.5659207603257406, 1.1324706518510828, 1.80008352893512, 2.870427062057437, 1.5045523956250746, 1.5675783494618984, -0.038425019004390715, 1.9591832616534297, 1.1381782987170608, 1.9994251014288769, -0.49234562916343605, -0.22572169855311944, 1.4668905536654406, 0.19277034644366856, -0.0009627625242868711, -1.1929706593942118, 1.0580673160790424, 0.6453636640287465, -0.3139573906313621, -2.294978001568451, -0.524432779100718, 0.3779516813087282, -0.1251060425796211, 0.6137093613819469, 0.4858064773789168, 2.0115237252421703, 1.6466876028217974, -0.1747039985078796, 0.916185975631555, 1.7737384000899301, -0.11872793724270074, 1.4608379019468438, 0.2558048648459932, 0.7049485527024157, 0.8078474920159813, -1.577884616721781, 0.006636616579894613, 0.12705976117651488, -0.8547325038742906, -0.9461690033412017, -1.0463989167185483, 0.6707824494180804, -1.574765465893638, -1.0157478221212282, -0.0020364933984781427, -1.7311930880629023, 0.9321927012658794, -1.1153643637379314, -1.3670944270842231, 0.35609816338354977, -0.704629144935342, 0.4014348321287738, -0.3805999722192203, 1.913807038585171, 0.9488011688560746, 0.14849202514631568, 2.3430301176718826, 1.041436979643253, 1.350398629346183, 0.5152902758852625, 1.9296311948902203, 0.7915061676449344, 0.6592282187953769, -1.8758447552534365, -2.8207987719736125, 0.36382190228659655, -1.2180103139261378, -0.38445389485431575, 1.1082034564145247, -0.7464433919693229, 0.7000771361010673, -0.17459073637064235, -0.3738638509734136, -0.8249573651174942, -2.6307193640951647, -1.9994419339607707, -1.5887788028395966, -0.5285286313427813, 0.7380946726744837, 0.5141880813151588, -0.2653944358031988, -1.0982468605411715, 2.4656264745033267, 1.0100426363943804, 1.629801538971433, -0.4847782742251725, 0.11098412241487793, 0.5186395112910234, 1.620537900074354, -2.448877808034424, -0.7367784287116057, -1.5363361461740042, -2.548289437803093, 1.0533903262994104, 0.5313430778360159, 0.4090143343342591, 0.3666269657801634, 1.9075764794922638, 0.4335774055448834, 1.434519461269567, 0.5882363198875435, 0.1314875793002404, -1.2886457907003368, 0.5432176271106488, 0.17214379210913403, -1.544478883733194, 0.9971929080923281, 2.375773271457282, 2.648487226387423, 0.016923344684274835, -0.8115937722957491, 0.5046331511193738, -0.3179542553844687, -1.6474977320764173, -1.2733732913154232, -2.5826292056013376, 0.43121924160532593, -0.5552097134756072, -1.1429270539548264, 1.545730832779399, -0.5483259686786445, -0.46426169361021474, 0.4226167594736677, -0.17045492413199284, 0.8407430311638591, 0.3941256900505149, 1.0293462529527935, 1.8171623048162633, -1.1602360677992178, -0.5976037044008382, -1.169659005991317, -1.1152288706617481, 0.3699053590416468, -1.4135537496765933, 2.0245605213330475, -0.3673787362688541, -0.21917555948936765, -0.6664633765515627, 2.425453676106393, 0.09818752842413525, -0.7404288114514934, -0.5725914900650236, -0.7553292739760477, -0.09072446261566983, 0.2589205647006251, -0.3089851698886323, -1.27374332017756, 0.1285857353054039, 0.7790564725219172, 1.62752360995397, -0.2119705486899383, -0.5426601309548975, -1.0784967366327505], [1.0509493318443082, -1.6398061717123937, -0.6158627561646243, 0.4372719539331571, -1.1921081895236538, -0.9414448307065066, -1.1585740546271421, -0.5373261920195912, 0.9474871542606267, -0.13072445720386552, -0.6677634344315847, -1.1202965548392236, -0.10585699296994695, 0.9971997412745524, -0.4655824486482306, -0.40588335661729086, -0.647647986083672, 1.6551676449207406, -1.541893680682099, -0.7308227725246979, 0.1724818644237123, 1.0945510449607252, -1.9129726629272048, 0.8805692447660257, -0.5143599438026245, 0.29881412734801577, -0.07424278345602632, 2.438577708749359, -0.28022057187356425, 0.6355416764272844, 0.24741915095294237, 0.4164303718667879, -2.063689062162258, -0.6160861017221048, -0.7588202407578415, 0.08818599661643323, 0.40490764304585875, 0.36064582391754296, 0.37729207265666886, 0.5594961431306792, 0.02410431280272071, 0.16744418875283268, -0.4370114967976819, -0.10830777243799983, -0.6281298063798771, 0.17914323925932427, 1.0680836820086501, 1.2647227332266788, 0.37874632747666254, -0.2964227423318638, 0.5822026237422856, 0.1324940559924034, 0.9003262517947511, 0.36270317674016156, -2.178536166482938, 1.766091674176421, 1.2326944303277498, 0.48035951395842125, -0.6208592054444982, 0.32100280044878654, -0.13209983936947117, 0.9299124415756285, 0.13134654894221875, 1.935412082541067, 0.6721688160938171, 0.28925580051431476, 0.250219777893855, 0.5768640735604006, -0.9162983615127017, 0.018014209185303384, 0.22402403249783454, 0.7330429634851504, -0.47171070149599353, 0.8375777911320851, -0.322693678227654, -2.5052007045528284, -0.8206406848594493, 0.10298827350817504, -1.0500092290998715, -1.4341876552408392, -0.9771630995341202, 1.5045057471379888, 1.7921520626169054, 0.6290768355764872, 0.9774462935459486, 0.9549662694440058, 0.34516243765510307, -0.3336420278031171, -0.050030785511431794, -0.08260175132632493, 0.25039524290199455, 0.17315532713321455, -0.6173379578173718, 1.0280143865449556, 0.3569692129008423, 0.862448002770579, 0.8557523125887505, 1.3878071868122905, 0.9356299752777547, 1.0609233881106974, 1.1876333000346861, -0.16790178007782985, -0.10441038581672246, -0.05315467538570664, -2.137683171285159, -0.1186404086267672, -1.0120510045869844, -1.1448117019096298, 0.3139554371439869, 1.2014923200785201, -0.18828700401200785, 0.29407762895816975, 1.714461652621882, -0.6309816452072684, 0.003415152194356787, -0.45672586781534247, 0.19213544010903044, 1.9061591396246702, -0.2403995487204886, 1.010137378306187, -0.06922833930842787, 1.1329148040372439, 2.0922199842562024, 1.0794967026860507, -0.04474751357767773, 0.6992385732256768, 1.131667133607587, 0.04825601107015032, 0.3066406840614168, -0.03159216811121611, 1.8193636800927202, 0.3775677936692446, 0.8342077010470969, -0.34615722492413287, -1.247850613991169, -1.2306700083968094, -2.472896187003764, 1.2265940267824518, -0.9527324589925901, -1.4467481434725542, -0.6894841026356143, 0.766491713724391, -0.41616500137401474, 0.9806649651809457, 0.2094606791941707, 0.5369487074923924, -0.6270804197227386, 0.8413782368324172, 0.25941794504251015, 0.13674175167165753, 1.444142210693306, -0.7015196044173984, 1.3198021603005345, -1.0017914576223148, -0.568627154643459, 0.8897117213101875, 0.7978824397042895, -0.1488872159652969, -0.0494812046065551, -0.24631220271185253, -1.618329454485128, -1.5005929064951178, -0.5269425863473365, -1.5229072247129178, -0.8096441315304226, -1.4391623415080856, 0.6825334076623867, 0.597132810945827, -0.23700035578776557, -0.4167594777521073, -1.0783259764645727, 2.1937144098769785, 0.855390118111134, 1.3101444262246826, 1.562707820097606, 0.42890365191078117, 0.6623515558982479, 1.4922435067885111, 1.4043713972300103, 1.6514076099053365, 1.8101032206457357, 1.983749801595685, 0.5475551469854701, 0.45572126555785164, 0.42004535751508215, -0.3058581690774559, 0.17129982004875394, -1.410517479416296, 0.6602860870829372, -0.5331687496802958, -0.5622848463120697, -1.9053328661032172, -0.9766456093969601, 0.7144598809565754, -0.671649158925609, -1.2432983714912638, -0.8723254839697983, -0.18581111289459742, 0.5603700256723643, 2.0532947812702447, 0.9772598001489587, 2.59451157636664, 2.6253214895961148, 1.8470760012849916, 0.528007512733267, 1.1484592841197403, 0.2352511552550048, -0.12011395545367586, 0.5925433483480896, 1.3971144976077896, -0.20491594920608036, -0.451675192612973, -0.031803082705638176, 0.0045644359534352695, -0.43099109897339166, 1.0746989019204274, -0.023934350187614, 0.3260071041405709, 0.1307356702906163, -2.406612798971023, -0.8610186876081113, 0.17904748429866577, -1.9861775241557147, -1.429048713024172, -1.5436175067606153, 0.31267464073378975, 1.5151774071214914, 2.0327417124548517, 2.156633444934013, 1.9268797593005593, 2.1565762214805253, -0.09195359726547685, 1.549282108932894, -0.08321653055951783, 3.074194985337948, 1.2496589987922107, 0.7465969916422301, 1.5823763866894738, 1.0471418668323875, 1.7188524323490646, -0.5208645209781337, -0.9409429714620772, 1.5130050311502072, -0.4109335631832694, 1.4254800253359707, 0.6406821423320507, -0.6286070629244739, -0.5922387420514572, -3.3246537344880225, 0.6268202630825084, -1.7014457343974492, 0.4588566332350422, -0.4430118813781352, -1.3751628100237678, -0.31996025081871965, -0.5641477328263217, 1.626814139922342, 0.6230867557782251, 0.45199162386674296, 1.60946055455889, 1.119685352338281, 3.392836094984619, 1.895888670550085, -1.0254675295284463, -0.029343666726203043, -2.490631843881628, -0.21730677864862233, 0.4144295995009826, 0.1836822683813145, 0.6822466920315291, 1.2525816530371585, -1.0350914942114502, 1.079595024253357, -1.2245805135919117, 0.5200781231212103, -2.804179003850483, -1.3155292151868316, 0.33994181335587903, -1.3825171137477077, 1.262990585547379, 0.8550469740571125, 1.4181862825325813, -0.814138699246468, -1.7147315694739675, -0.6389753691482026, -0.620746358723708, -1.6711814017385884, -3.471232379175893, -2.9338943955064156, -4.365722473514238, -7.146968150428453, -6.896102464810782, -5.0084040816484645, -2.602639080778276, -1.6264677007026964, -1.3711174282863468, 1.3684838104639017, 0.40874793654325386, 0.19092892844243475, -0.6722537301850166, -0.3276841256440338, 1.292488796588587, 1.235177936401241, -0.6819465579411981, -0.5376027538355406, 1.017097379697631, 0.4263916605486726, -0.0951531709720514, 1.098345815336297, 0.07819750920010951, -0.41144926398083104, -1.393403746495971, -2.558129348480431, -4.158605797989635, -5.997097066188823, -6.9313429243036815, -8.934935801477442, -9.909890300954359, -5.287256180483536, -2.5315949578864267, -0.33990432816512056, -1.6678817713229064, -0.9354810136493922, 0.31811745425466903, 0.2088644069569349, 0.6341386777648905, 0.6113006155863873, 0.7013991553239836, -0.5409709773161979, 0.44294894237612176, -1.8683921198991316, -1.2716035064968523, 0.4919388628932031, 0.5697843496978788, -0.5640881658778504, 0.5776400479497835, -0.6192036323046821, -1.6102100674487803, 0.02431118330774767, -1.6682538376579976, -4.493315258111275, -4.187501113161514, -7.791828710090031, -4.254364831562671, -3.37898875370521, -1.8914512580787446, 0.7413321137151736, 0.644569097260073, -0.6936495736032726, -0.04222839674793646, -0.23945212872156105, -0.8989318107637715, -0.040414506841453424, -0.7640261074264724, 0.2080358133443679, 0.012824853663733253, 0.3012555295005424, -2.323357956267397, -1.1792414841380414, -1.1471898016628312, 0.06092149157828371, 1.3145741578199126, 2.4920242974403797, -1.2852659356014469, -0.28926127363458337, -0.13841602254188598, 0.6998766544279608, 0.22528326712578337, -1.1841110157244485, -3.9153249256579405, -2.109516866942468, 0.32272297373229547, 0.44171297503430157, 1.122934071903691, 0.5315915121515148, 0.31938677788193565, -0.4431157499662655, 1.2170427776849608, 0.7405093937886124, -0.9364856329770581, 0.3895117623003101, 0.06853509760085914, -0.6368568908369343, -0.06832127364336825, 0.03987164855628744, 2.003779008207427, -2.6956024647933385, -0.436570655373821, 0.9126596906438436, 1.3368291652331707, -0.6794517984001752, -0.9160545680113872, -0.002410442150132425, -1.5366884755071804, 1.5889574533258959, 0.7911997950531936, -0.16617855036973464, 0.041663723683401724, 0.35809026065151406, -1.6656845925310582, 1.1547798401116924, 0.6399066423339714, 0.514623656017988, 0.6422009068544349, 0.40705030818229143, -0.12626952868808491, 0.315998470900466, -1.968476622610123, 0.2544953072770751, -0.6976548436877699, 0.3579442747701774, -0.2627298214177387, 0.8249226605399851, 0.0562499166331544, -0.27963026780323985, -0.07771186571833048, 2.5159439151642977, 2.1715718620564757, -1.1802380045050704, 0.14322240943430864, 0.3174386336458307, 0.059198454558259735, 2.526676406978081, 0.5845879012872245, 1.3141334194155523, 0.31313092160471895, 2.260043979766261, 0.7589165321185324, 0.31543974093260074, -0.3735416790751519, -0.4201110877203793, 0.7289099709711983, -1.3328720720318477, 1.1671190726024638, -0.22624717866303273, 1.1878946883870394, 0.2727182020662506, 0.3901106862461522, -1.0442957906542214, 0.30212844251954857, -0.17240974154064284, -0.028304289858405763, -2.4346828436814554, 1.3086769347901166, 1.5207092190198386, 0.8563224587324523, -0.35568258833272615, 2.0435747403924607, 0.31768831859267477, 0.13475473348360692, -0.5764919288622743, 2.5995184963834324, 0.26511924764327605, -0.5847014417273342, 1.235661798985264, -1.0753287920566357, -1.0630723245706957, -0.2097110229192366, -0.1804479570148907, 0.2733959026734315, 0.12074276327402214, -0.004995777828227126, 0.1065453606344452, 0.05787976854648255, -0.511376670370993, 0.9749357702645661, 0.07435796585508489, 1.8513326233036562, 1.2267697024994098, 1.8587876646969692, -0.11098185342572357, 1.7898504623366494, 1.4687772704131006, 1.0600443175976602, 1.7449152040521985, -0.38365349153614225, 0.6891433632327493, -0.05365166745422235, -0.5313625922127394, -0.21986578911950166, 1.5982424014004313, -0.13109240737982786, 1.0987523570597066, 0.5504109243946523, -0.786763121407951, -2.0119627110195615, -1.505386776642372, -1.00323545006982, -0.21319873997454414, 0.9504410331021831, 0.009391222781394197, 0.756678820396692, 0.4540287476215801, 0.22577185237953, 0.8373972284253718, -0.7833312448691535, -0.9723020470735482, -1.184791317742476, 0.37887430459698634, -0.8970338452645946, 1.3047856222521124, 1.6899389464328727, 0.6601390159564648, -0.8816509154151049, -0.5807505324892934, 0.029049730921129384, 0.5374028354750133, 0.8881796423852191, 1.6855337533474146, 0.9364983230896784, -0.27317406043868775, 0.1391846667535859, -0.32447111993277966, 0.22956448838670052, 0.042137860205351416, -1.663338385537861, -2.3042194647537038, 0.7212789159330202, -0.09978159897942837, 0.8486020154537933, 0.535953710451599, 1.3712884531747862, 0.5712738516316698, 0.9083355486843535, 0.20275960146886457, -0.18953275519009075, 0.2117560418653667, 1.0905450962017647, 0.2220444710789192, 0.2445400200287675, -0.8386294412315908, 2.010641837740085, 1.0966226687925114, -1.5434199883128856, 1.3152316550839578, 1.8781187188784347, 1.2096714495899568, -0.14291399486902834, 0.3886614271969495, 0.6822400170983157, -0.64750591310338, -0.3205079696442548, 0.5472321875912604, 0.8142925185352786, -0.9749585183127807, 0.2337833324397462, -0.2741821657888659, 0.4653754239023775, 0.4966581543383825, 1.1115274245806226, 0.2763539191570091, 1.9331271813303956, 1.0704748763605947, 1.0147182261225582, 2.0718293261800267, 1.4529967685671905, 2.459919652571485, 2.3581481991250204, 1.6215666497459196, -0.3597088565920391, -2.1088233071466314, -0.20798790090204747, 0.13182257944302522, 1.6367413218628013, -0.7688122109389245, 0.40893125970599364, 0.4587706005290297, -0.15312376493069593, -1.1382500554650634, 1.1197420252088583, -0.8326403224306745, 0.9723839087220063, 0.4939126351134735, -1.2906066756216108, -0.039540973231603826, 0.5490080243557335, 0.0065633159996732835, 0.5127454302086708, -0.19503739360065211, -1.1177804687787907, 1.5302701550691358, 0.3370488836079753, 0.9309230087066388, -1.563305055627735, 1.3553200948838209, 0.5924168704592242, -0.41270672952351267, -0.5093835638390407, 1.2606804322819716, 0.7550997883077978, 0.7072309007313153, 1.7456987997155449, 3.4046075791686397, -0.1460238387066074, -0.6673554653766081, 0.9529920189032991, 1.0713527867750654, -1.5969011086400586, -0.3333258042879521, -0.17639999617013077, -0.005419079475630372, 0.5905761078153029, -0.8796090369498432, -1.6746369466792739, -0.6419508257553159, -1.4221871655926115, 1.0526285006294933, 0.9932577984777606, -0.9006911912936514, -0.36450398526353234, 1.501037748291316, -0.16646758041445847, 0.43969968593881054, 0.5932381639782951, 0.7922933197955528, -0.578103503175458, 0.841192940960148, -0.48970099609161744, -0.8993635192686275, 0.5188182827121857, 0.13865852113530885, 0.2798986740414424, -0.05490697849359408, 0.3566124335302457, 1.1211192251890705, -0.357586840086434, 0.1643313023509385, -0.006570909281772119, -1.3894647766115669, 0.4150037668769862, -0.20170985002901054, 0.17515892110250414, 0.2170501934277182, 0.42958157223895826, -0.1534977892088292, 0.7800912660378387, 0.5255641223502615, 0.8247236407460152, 0.12250751120685822, -1.1862357792276144, 0.844491800838838, 0.17740829951631598, 1.3843011517843233, -0.11333961227030709, 0.5167148762555682, 1.1794484829537422, 1.550027198332332, 0.31761011202527234, 1.4156213512064035, 0.5442060941322038, 0.48620207580680863, 0.8165096995696601, -1.0240198597953531, -1.2847716230254789, -0.19588319786811242, 1.2657819351120922, -1.525094221380367, -0.08831824522696172, 0.52222910193024, 1.0771425995974009, -2.1687332730642375, -0.6599204314068476, 0.1808656014582298, -0.18847162316552846, -0.1697197593216795, 1.1203306594552584, 0.144214154873521, 0.08144555804069595, -0.24987896898392908, 0.9091837054859552, -1.0234152614826062, -0.9588320609271439, -0.11473149692596879, -0.6601951337617605, -0.1621472509960492, 1.383277966405812, 0.21097339939230234, 0.9362200926891618, 0.9741612622447214, 0.4968678249271546, 0.4979424561034724, 0.38141821261053105, 0.6889737328717284, -0.1558203619364558, -0.22381526293193588, -0.6457668360581126, 0.10351542834471236, 0.29628581707384144, -0.979830360116535, -0.06536939592052514, -0.42989450751581343, -2.6639047535618388, -0.24141588719088847, -1.1606142363384342, -0.8403075590948532, -0.3400352594045605, 0.27346191910841877, 0.015334337711946212, 0.8681744412339865, -0.2532297335275897, -0.6382003877215524, 1.8432589138543536, 1.6304859369441573, 0.9676036000541952, 0.5992738542328675, 2.514407490337572, -0.217123932778498, 2.413065988254286, 1.8847855019117166, 0.5817261511061952, 1.5780518514571003, 0.1552448956498462, 1.4728829105332764, 2.5120398440838487, 0.9972945377523256, -0.006820240441906755, -0.5696463334304503, 0.6189534350606719, -0.14011889901574903, -0.24595315242737475, 0.543141906751001, -1.4361428030018886, -0.9579850141616223, 0.10314754539274458, 1.0818564562857773, -1.2833222511450946, 0.14553807416571565, 0.3518052931253055, 0.2596415023622973, -0.6626059548516664, 0.14652249054318978, -0.09293874903772839, -2.3961076825987027, 0.4419597351315688, -1.6955524938666704, -0.7690606249794927, 0.18894382027699497, 0.7105256011398802, 0.24596384728001972, -0.18572306838401315, -0.8003549896128068, -2.0173306910712063, 1.743271006315356, -0.3262866327327683, -0.40553341227725476, -0.18014235116948332, -1.2059603878928178, -0.3625687215104389, 0.784225395376753, -0.800733949580161, 0.07684686653255048, 0.03288047475197746, 0.3912440465190951, 0.7903775675333387, -1.037861634777681, 0.3515078651279902, -0.5219644679957756, -0.07128173768404322, -0.38272039759421506, -0.755534880582022, -1.823146446904799, -0.39706621894809746, -0.7136285833847301, 2.215372781484639, -0.5221049077302825, 0.8061707463810164, -0.2214769031706833, -0.9575685728956465, 0.5695030099353648, -1.558827485748534, 1.4773218522281362, -0.758968579779894, -0.8105665825444027, -0.4229442627966208, -0.32490881302825164, -0.9353448787913581, -1.2795534718589583, 0.8351656271149825, 0.6486944639065378, -0.5201196408020513, -0.13844421015498246, 0.47107350842041545, 1.0678862072100366, -0.12026452407976612], [0.8035903210287569, -1.6279300803925425, -0.12066849640727192, -1.2992668756324202, -0.28542359361251296, 0.4496780193745661, 0.5736567823782384, -0.6680597563380481, 0.3169883763338767, -0.6875093842631127, 0.311632590106843, -0.7960447729061735, 0.08559275666570158, 2.396248196490027, -0.48676142931286376, 0.3670488521046674, 0.12311060494756934, 0.11356885809649428, 0.21720267455007228, 0.5421169766187405, -0.5016321290181699, 1.2419658341714332, -1.027255769440676, 0.015547728540519381, -1.5675910704844753, 0.6227766700576551, 0.7018273158551245, 0.036493395731927614, 1.318513196945219, -1.3737669144649567, 0.7042318529200168, 1.7221914227016621, 0.5728018321371978, 0.9328274078474561, -1.0060854348804982, 1.731120009301859, -0.19834759941023491, 1.0483196464487337, -1.0559034815584, 0.7431018998063845, 1.2245368510862626, 0.4810476254074518, -0.4896735156519869, -0.8486741174957082, -0.1483067924720605, -1.4262330776489838, -0.21017609373104312, -0.055930882711720295, 1.074694522619891, 0.5372508900724986, 0.21422311926720336, -0.11723240786578497, 1.4493869788274218, 0.7049772250666547, 0.23738671940088965, 0.18070060566278853, -0.007702742795565961, 0.658537227813247, -1.93072715260381, 1.4189823726722512, -1.1143592820019166, 0.13190279214482917, 0.8910830228349808, -0.45884751712242955, 0.9881701340167994, 2.2148123271678073, 0.6610087667905973, 0.059133523949211, 0.36155165645967363, -0.7250974495132906, -1.0371748934085607, -0.6185510253481276, 0.46638144413113686, -1.6742864913882467, 0.7332858473572625, -0.6601788186505383, -1.0582382601979197, 0.25495380316379196, -0.6867075105275399, -0.9146423979321884, 0.3466871346832479, 1.1772523690354597, 0.2597839926313542, 1.3392039566027119, 0.5129182675211515, 0.6396663202917754, 1.3286082151684404, 0.478948221914217, 1.955507410333438, 0.9390390823517233, -0.5500977526099419, -0.9100483142408411, 0.6885539303517924, 1.0862879904186669, 1.1067571904223281, -0.401209777774259, -0.8529962434479995, -2.0013200432800007, -1.4332135881177204, -0.8884612366271867, -0.6785425221631607, -0.13300333066801415, -0.19558368520280087, -0.8073115407179295, 0.6052281091345533, 2.020939919341854, -0.4112993282439522, -1.0902290052531212, 