{"sizes": [784, 100, 10], "act_funcs": ["sigmoid", "sigmoid"], "cost_func": "cross_entropy", "performance": "96.89", "biases": [[[0.9109880351712749], [0.7211303761137735], [-0.15890688509843126], [-0.5905250560522102], [-2.227750596787234], [-1.3784882210659937], [-2.551846219608933], [-0.005539894972213775], [1.7341152969099436], [-0.25204516482728906], [0.18118276513518106], [-1.7571048879404572], [0.021878440810876223], [-1.9867030354793576], [-1.1354456866863643], [-3.6356523053238123], [-2.636333883940801], [-0.5244465026728051], [2.023976074413116], [1.8695640126281465], [0.7353768270024267], [-1.9127805323096756], [-0.5487864017670335], [0.6883274905649959], [-1.6012852303518825], [0.7037534551477308], [-2.2855535165772856], [-0.3603383694222918], [-2.727263123147139], [1.805174283526759], [-0.9452531302536162], [2.397697518924723], [0.5188290513728373], [-2.867068031886948], [-1.5705475844933863], [2.430990704561461], [0.18095492342519853], [2.0632834453398714], [-2.623268602043501], [1.9957658829164637], [0.20947988392530972], [-2.0471051131957587], [-1.1319558655099327], [0.9424511607660079], [4.963720743016899], [0.006016599224262951], [0.18824534567973653], [-0.7794387874797372], [-0.6839604260766572], [-1.0698723984502094], [-1.9057177555132667], [-1.0535088569293463], [-0.6138772627439855], [-0.272189292966528], [0.8432303627870844], [-2.914603856576566], [-0.11959181768602813], [-2.4959231262317996], [2.1581907949230605], [-1.1762801210912264], [-0.8474259127583442], [0.4299521318217633], [-1.1549116109277393], [-1.1397249175125013], [-2.412805630751474], [0.9351989699957816], [-0.4274097625163008], [-1.7076161375304402], [-0.9473671102612942], [-0.6395933055362601], [0.8228445740516941], [1.2639845302953419], [-0.674048637635848], [-0.8636322543761249], [-0.22231852371535094], [-3.550878400132905], [-1.66870628518044], [-1.1123385707765217], [0.37676624393645103], [-0.2542069823759455], [-0.3880213081877391], [0.6381386303175265], [2.3540218104493196], [-0.9897050216672076], [0.35867882848753635], [1.7638941344646648], [-2.082316200088325], [-0.04326473930244552], [-1.7720848608739783], [-0.2088396075432618], [-0.9758641323916404], [-1.4604757571640965], [0.906735347537868], [1.662911454300562], [-0.8424890681631914], [0.6085755292943633], [-2.176975189430213], [-0.1879050794409404], [-2.5535170307649775], [1.732507022788727]], [[-2.1468402503838067], [-1.4012004183877502], [0.15204236182654807], [-3.141505769252654], [-1.4128027089272186], [0.14384627570319838], [-2.1522856171121987], [1.197736782482556], [-4.152403598636483], [-0.9574921409253945]]], "weights": [[[-0.15558351720831892, 2.4132125599528913, 0.36255355399579636, 0.42650858948879306, -0.831368415734528, -1.1811679123242134, 0.07892167355811529, 0.7553962797976368, -1.6971667740908212, 0.7307585858802638, -0.5644255786501365, -0.8552784872215798, -2.151635679591156, -2.7064413440211688, 0.1118192204401389, -0.0750342249693379, 1.3340405751305564, 0.9917355681428566, -1.4361869237985294, 1.128378420444474, -0.8915075495318409, 0.2550465041132739, -0.20422681476081844, 1.0424125414260994, 1.4185138959407555, 0.8906264995785131, 0.2786911685071799, -1.4355564090740935, -1.2571006712897812, -0.2928280132112801, 1.0320877865179334, 0.9128024029485412, -0.7832492976980465, -0.842286917099748, -0.7198606232020119, -0.749774224432835, 0.38506755441675494, -0.590420323651121, -0.3191253260669869, -1.7520977647048337, -0.8075783182194486, 1.5866105216798214, 0.793616680214733, -0.5560672923252584, -1.0363946808388562, 0.23820210814341433, 0.4650122283709415, 1.316918142496993, 0.6920154139499854, 1.1165998895160911, 0.0817308042788564, -0.04481465681930489, 2.4114170334016083, -0.7877093031485722, 0.3409841796130823, 1.7560517647277085, 0.04404000076397021, 0.047398364486478196, 0.010651219579297775, -0.5435419778696686, 0.42681998674200367, -2.056028579255929, -0.20580503479190415, -1.1512516228783776, -0.5971293590384119, 1.0779070103551114, 0.05075681353996362, 0.8471860023303449, -0.30922688673134885, -0.22183360087441173, -0.2317296318273949, 0.5863327706496811, 0.9572255218927965, -0.2893401114250138, -0.7676946332180746, -0.0733944530757801, 0.8450728912414561, -0.676750157128615, -0.4840178117587415, -0.819602074465504, 0.015841579001697356, -1.6075125075092853, 1.081221896864394, 0.19474189708052297, 1.5380862501864832, 0.281371995012607, 1.0023552445784265, 1.3305316570286163, 1.081570047235007, -0.8750458221109826, -1.1383155393595736, 1.313326462174919, 1.2260802731235714, -0.03516776476259092, -0.5537359621757288, -0.49027368953933753, -2.1816166653595093, 1.2774480518127347, 0.5758933808087973, -0.058026408787145996, -0.725348169169791, -1.2079571350582743, 0.7666388628111346, 0.5271450898663063, -1.2936959894591715, 0.6450764614427417, -1.620286087554336, -0.09237657084113625, 0.8368847211157667, -1.9337662507462603, -0.40819586419323567, -0.14200586946795415, -0.21448765063713443, 0.6654542946281169, -1.8597812584603917, 1.0386714401165749, -0.3312469404846453, 1.2958367685044114, 1.8783278251600006, -2.5883537951975897, 0.3233991051525166, -0.8832861093968624, 0.5363527537069465, -1.015653629894977, 1.0987095592307967, 1.7132516745906632, 0.7654717890298854, 0.16829529693955628, -0.6173543548500466, -0.786341241200395, -0.1114695207063394, -1.2490494027838743, -0.07508489032829274, 0.8373928094717501, -0.41604524533285525, -0.9501023697816443, -0.0317729898427269, 0.9751180092755498, -1.9796074228550091, 0.22562174668006324, 1.1701667432639715, -0.9194693932231359, -1.6052269228835914, 2.7001140696300725, 0.07675640253630206, 0.7151352110036167, 1.5617104304489398, 0.5220919329335075, -0.3017445859037098, -2.194278159797231, -0.12946042524474402, 1.130058489434671, 0.01915143165914372, -0.9783645083683734, -0.436667328878192, -0.01195961850504809, 0.52811336399159, -0.8858059154568956, -0.15502765133896826, -0.16779483708976278, -0.26955778140011594, 0.8718552555736715, -1.304363214908697, -0.22531746127921806, -0.8063083543508645, -0.008739126074688726, -0.7875850426079767, 0.1704637933891592, 0.7839942606416036, 0.5477922350072004, -0.6421585939580811, 0.427087792722242, -0.12637158792044115, -1.5345556060803507, -0.39253935369260246, -0.9937546930266014, 0.3085632904696411, -0.7193756433121454, -1.3806497082133844, 0.2758298813514952, -0.7571209123868365, 0.04582062952222299, 0.26988113982049994, 0.9914051613130582, 0.04938678134223444, -0.18749731113292675, -1.4167309350369197, -1.4560591687414244, -0.27575225345045706, 0.06254766226059637, 0.26647071371530323, 0.6757081147530014, 1.6357360304381328, 0.9511838530399069, -1.6565102413264992, -1.7459184652503934, -0.20697111835087173, -0.5460192720807034, 0.43983271864565837, -0.29876511176832815, -0.8893822748365239, 0.8665075596744037, -1.0229145438569032, -0.7345597074067036, 0.38048798044520216, -0.9470715119094921, -0.44893192850203656, 1.5866028744737375, 1.8211920242455344, -1.1294229582394588, 0.19275407391134206, 0.6414027073946197, -1.2598437431195975, -2.6124904341573765, -1.4732396213070795, -1.0421644925748856, 2.718375531511176, -0.9480262916591969, 1.0682057448565854, 0.5601969603837854, 0.2401766945372899, 1.0409658186978683, 0.383047466507123, 1.4389191434443196, -0.5056198926919523, -0.3583356163268514, -0.11821702846186974, -1.5097641431533806, 1.1793432400286774, -1.8503774825975008, -0.5073940879119242, 2.468350404644536, 1.1827873054121123, -0.03031033959772235, -0.5173138626139219, 0.28455333122872645, 1.9383994237248274, 0.3900003714935381, 0.17425989299199568, -0.42135190085936614, 0.6583577676420029, -1.1297913269650997, -1.9146785701372238, -0.38286866696702027, 0.6689336558037853, 1.2833979499090995, 1.2756048379189198, -0.22631124797111846, -2.1407580867168887, -1.1444449748730336, 0.1767745196891578, 0.3183052756362567, 0.16240719849325017, 2.0011802887413066, -0.84053230643435, 0.6563486854585823, -0.7569031406430746, -0.2846945547747588, 1.3670448379157925, -1.0088439421426159, -0.1508206301361371, 0.8503029135727356, -1.6023216300355856, 1.574317589800161, -1.4443267962700803, -0.19681752674567285, 0.5632714905252125, 1.4412875556517022, -1.474601266877302, -2.2744336177911038, 0.1293830140488369, 0.05931763430652959, -0.21277859188291723, -0.658884647464104, -0.8796944758631173, 0.6061900482843541, -0.3450565615827865, 0.1488053001051427, 2.330012743598815, -2.117567005784791, 1.4020734427017174, 0.5935596659428602, -1.47006107743272, -0.35011610372105445, -0.5824779170494988, 1.616047967281184, -0.7001473166662648, -0.40373916047350805, -0.24970202596785224, -2.732903864719272, -0.4508810787315871, -0.026243744673471993, -0.03816843460187985, 0.5894507958123633, -0.27832135635585414, -1.2084646782384618, 0.5817409854990833, 0.7043396182738714, -0.9713586694578116, 2.4606028735080336, 0.5909084555773285, 0.0445111151114493, 0.7442366475138892, -1.5829641418063773, -0.3439243973336913, -0.3756563114688449, 1.5534998010971566, 0.40750094358092503, 0.6972539001838578, 0.11846953997897917, -1.277088301753474, 0.4364171142054802, 0.14530873156182933, 1.7573831629550662, -0.12496669635781396, -1.5319605859053032, -0.3350352887020161, -1.8364542713008258, -0.631657691996273, -1.4456722737273384, 0.542440081728837, -0.4402293908254738, 0.7389052162843723, -1.6223580336080203, -1.87462573206224, 0.6792131563166216, 0.7701419297596042, -1.1036133150795207, -0.17673131056073077, 0.2060824038154638, -0.36834821110303356, 1.0165224601441447, 0.28850021364891065, -0.7630816342797428, -1.4427686994146103, 1.5461750661675688, -1.5386307690391097, -0.6899552298420605, 0.9143845542318407, 0.3132495392245243, 1.6042246478296922, 1.5380024479260084, 0.2521668086757611, -0.29552321248764934, -0.5222587523697598, 0.3566152645723961, 0.48468351743871074, -1.9626271659368175, -0.047795923148014195, -0.5615835851361384, 1.2710540823936745, -1.8007205933948232, 1.7606327782274547, -0.7961584188200064, -0.23260906923374736, -0.7303135579517696, -1.0135175153200202, 1.531622579713858, 0.08014821086991854, 0.5265401048581105, 0.003326301513070643, -0.04606395273896722, 0.35359833750717823, -1.0974916800992176, -0.7008111647716433, 1.0859606291395674, 0.09588107424754072, -1.0485070231247067, -0.33154060376860006, 0.4898229071315613, -0.3500690989797661, -0.60079355561357, -1.2133824788099794, -0.12725423232842487, -0.6023641322730019, -1.9707436177333784, -0.7049990652658424, 0.4639168873807519, 0.1388094173915691, 0.49277015247702266, 1.4496293637952125, -1.3354179387140581, 0.277327440344251, 0.33953173319113933, -0.22135600808134884, -0.17796023805750127, -1.7131747795632217, -1.03762884898783, -1.0543825855078504, -0.5009522019274851, -1.1805893170236321, 0.6509384702137038, 0.5986172822179072, 0.7147409637919733, -0.4056206630208133, -0.1568146726257091, 0.8502154382098267, 0.871492559820426, 0.030120705887273475, -0.4706585528551738, -0.6270792501295056, -1.9390983697137922, -1.8126135381102932, -2.197977859150372, 1.045841872993076, -1.1399542884210192, -0.801244409997325, -0.4718365013411546, 0.03825610174491719, -0.3587625646963058, -0.7183399210618071, -0.4824639299846989, -1.275986090219194, -1.004235884765968, 0.2180669996974272, 0.08525644046197478, -0.6231548882870507, -0.9625710116513306, 2.2790105944782697, -0.42754166578135316, -0.31944254823551316, 0.9728731997397904, 0.17593500549351374, -1.4049726572993015, -0.28566258717802734, -0.21588399882885828, -0.1502848389300086, 0.5678490887413806, 0.8515003873206877, 1.0595321587248583, -1.0741288044778858, -0.17381827137988318, 2.3953571734656762, -0.792850633035679, 1.204312617381903, 1.0115629508905213, 0.33465016566761235, -0.44580260903674945, -2.078704555769941, 0.630694525663684, 1.0065058927374557, 0.140289857279997, -0.4443529662182293, -0.9064547676559052, 0.46061620872319503, -0.8972125686156672, -0.31413705271095443, -1.6243325374110766, 1.8609997532022435, -1.1607467504683409, -0.828427456125908, 1.0717291190629021, -0.16326315388966, -1.0317146458886666, -0.608118842738802, -0.9567888616105434, -1.474319567739319, -0.028338562312300107, 0.46923485895736183, 0.7257640896779427, -1.0341873320326496, -0.37153113934573523, 1.652211974186615, -0.7581061883861148, -0.4898396373262136, -0.1754964237323507, 0.1958288059150361, -1.231684314863021, 0.6419235719481905, 0.003408779260634252, -0.31950268830916184, -0.24175564195874966, 1.328611487481068, 0.7526658886422682, 1.471021894772911, -0.6429174231410753, 0.14137516475199088, 1.4921659459420318, 0.050478413529791454, 0.2497275898735389, -0.35690236709013967, 2.296427745368138, -0.7955115241325483, -1.2798018478065571, 2.0597885700185925, -0.6342924691134517, 1.4620566883268966, -0.46980808765807774, -1.656836992504869, -0.7472327452224602, -1.405271561914466, 1.5037230320029666, 1.618830291743933, -0.7610740442729982, 0.47179073175686786, 1.6275510572580516, 0.1247564321321541, -0.2557260691048671, -0.004911088461243267, -0.3026402027012452, 1.1942645165448942, 0.17857669879302654, -0.07174910603364264, 0.27377445129048805, -0.6778697416178606, -0.9114489106144199, 0.7071725898552746, 1.4717109191593725, 1.5199045810124325, -0.023927299727272745, -1.4396937092399964, -0.7338372323936505, -2.5070181967413068, -0.7562127760116277, 1.9543379420869904, -1.0572466813686257, -1.2339282521094965, 0.2643029387416726, -1.1817994111190693, -0.6121191294853587, -2.3654810983797234, -1.4686567895600788, -2.040429154687845, 1.2854695377403742, -0.5907580402285875, 0.8448860911195919, -1.3317532135836467, 0.31884894588262064, 1.848726809112004, 0.0715912037524074, 0.3963835253287421, -1.8553637448615226, -0.713290278280831, -1.2727100580893929, -0.1485092872230607, -0.5930695923328133, 0.8880850916447729, 0.8880641375455329, -1.038491285870822, 2.4230063694913997, -0.4568032538544177, -0.34159599953917275, 0.7720921695959602, -0.22969480088885955, 0.9362041024887587, 0.5212598979154568, -0.738388580627224, 0.2427112901877764, -0.3587101420542553, 1.5240323036572088, -1.008103589056123, 1.7447538014371853, -0.8642072498343762, 1.085910915777413, -0.278679706373725, 1.954189891484989, 0.550924736986356, -1.2227809622898058, -1.2128549234546087, 1.0001025557687049, -0.9859118080175774, 0.2203080161434146, -0.07040049937490896, -0.23714623659253808, 1.0183362764390325, 1.0557122275221564, -1.7752161262461414, 0.702614429673816, 0.190472320708683, -0.8108488624839071, 1.035238193035614, -0.16985863273771268, -1.6096020009672227, -0.9438354488068564, 0.02292776525820447, 1.7289240976906177, 0.5734024513798766, -1.063380407420672, 0.14286375285146416, -0.8157247157431045, 0.28323339893174826, 0.1672315084642723, -0.946840366095929, 1.0426696631787422, -0.7236389754708201, -0.36264287564544145, 0.4178640045281184, -0.6442600645272866, 0.3857953023287301, 1.099721439620818, -1.2193846959139503, -1.2741153777407517, 0.3208626266654424, -1.1269271649552906, 0.11058599655386606, 1.1109760974579088, 2.4234930121554368, 0.3951417222119783, -0.5247635188643045, 1.6683059320114066, 0.4009969850297632, 0.32881087498827005, -1.0536796594365139, 0.6746168331328213, -0.24373864310900492, 0.5748236781065257, -0.3955582434683924, -0.2142855577919961, 0.88168648887884, 0.8714349644274931, 0.3009670598850655, 1.5854058668926412, 0.30928448255565916, -0.4110173001120244, 0.13107463545528275, 0.2648749078574795, -2.1744890680809674, 1.2709328688977017, 0.18580996221671275, -1.2439681501133935, -0.9766749362300943, -0.04188744668903523, -1.1454247138396594, 0.3725420746130791, -0.5420014002084892, -0.6917917235702679, -0.30908233137561947, -1.444038926221176, -0.9031727001505895, -1.83082181703361, -0.30605357381463716, -0.8733158613413108, -1.6858403552841088, -0.6806142232648014, 1.1461066775466044, -0.43281181658070916, -1.6797541169153725, -0.599015584755314, -0.587437282818907, 0.6956733655715432, 1.008779430244587, 0.6965710311462604, -0.15259180256985494, 0.4521640864764058, -0.7888622323379415, -0.3516809384704884, -0.6421969399427953, 0.6854474040608135, -1.6416626965993892, -1.0375204942925442, -0.5234650271573599, 0.4183533245010062, -1.1804340719429522, -0.5109561418631615, -0.521097966611985, 0.9017246202898589, -0.9634360901908737, -0.9068776769023355, 1.5541267461632913, -0.1211451777919825, -1.1086948353009622, 1.4408333482689555, -1.4210866637871165, -1.2104343756521787, 0.39785649163456643, -1.0911633330476198, 1.210621795023509, 0.1933461026710016, -0.8026104584092016, 0.9840482446796625, 0.2773342717524418, 0.834385790519195, -1.528206442653692, -1.7480340697646493, 0.7293368806261628, -0.9734642545271059, -0.6468893509816966, 0.9006348693177813, 0.39995730727662, -0.4719516436048316, 0.5674336934882588, 0.1703622809891351, -0.696339576150343, 0.012955062816721478, 0.2927662289895826, 1.7217004912286007, 0.7765913544872523, 1.0417392578842208, -0.8898532529537088, -1.1454392624576153, -0.06393394253971693, -2.3177193114992023, -1.5563113778811049, -1.9425947775473216, 1.6819224464370557, 1.349616355228467, 0.03501742140717895, 1.9468432709000252, -1.030708911240466, 0.2618376722873431, 0.8649975066304765, 0.1762669075740597, -1.0081174444396237, -0.6043108675104693, -0.012709364943083968, 0.08029359488449202, -1.1094268228658424, -1.4245522712526943, -0.977630159262119, 1.0921305764222886, -0.7690347298656626, 1.9936532504984301, 1.9244421204909876, -0.3554486717401506, -1.591120172521655, -1.4397692930525734, -2.1117735785941583, -0.03189997766071483, -1.2902066968957198, -1.6820533971009881, 1.147955468220308, -0.6690537091197711, 2.5518695711786132, -0.9551487017000209, 0.5353356852278401, 1.686373639676318, -0.6034176239953372, 0.5891485378355408, -1.34060522224964, -0.8694464699667648, 1.5375264173983594, 0.43987279957138453, -0.2555266933791969, 0.31733163240636963, -1.9129385574552202, -2.726579798242415, 0.9964504169941022, 1.852565319341873, -0.3667194234391657, -1.3600848397344356, -1.6605483575745636, -1.687729731770126, -1.2011310537171807, 0.5547891582232005, -0.7415965552325721, 0.7079180396500296, 1.5103539097095269, -1.8079588132093607, -1.525088327674485, 0.7397690246972937, -0.44550074405797235, -0.44696705722621427, 1.104672211256843, -1.227654704644281, -0.06333797515214783, -1.1842598394604222, -0.3997762116569386, -0.6473318585432049, 0.46581119750177075, 0.47760800754529537, 1.3984504799490696, 0.720977590884187, 0.9913652165121354, 0.4371480905792339, 0.41360467525249245, 0.7020692892035336, -1.2089686512944675, 0.2821151174769513, -0.3404921374999664, -0.5349376342739918, 0.6369416521933625, -1.2380593241229452, 0.6286459252565036, -0.617665694543303, -0.5020593127044443, -0.90646106678733, 0.46916371413453345, -0.42661386868228013, 0.7030288426134365, 0.7151327575684976, -0.5142035931714876, -0.2662640470155327, -1.7032483906625298, -0.9476352942387374], [-0.586173841277123, 0.8171273695860478, 0.34478729466658004, -1.125120960706172, 0.13526503598884637, 0.2163457660785121, 0.1340122035655697, 0.3197718415156221, -0.6901881141133825, -0.8168166969283318, -0.8164900779491667, -0.055072324553718736, -1.2244660748508316, 1.19313794813725, -0.4805666667713857, 0.6012488849511772, -0.358356560681371, -0.27442297851244885, 0.3217385836384445, 0.5641196572626818, 0.12372441756538949, -0.3369236265446184, -1.7758816681828746, -0.10314948425880364, -0.24093270889294893, -0.8706580733891719, -1.0827646202987777, 1.196740961925534, -1.4741489752731864, -0.45195006066309745, -0.4931372526618261, -0.7906935163051181, 0.5930810252045536, 0.059343271468007816, 0.7375797476823833, 0.16382211631740426, -0.3036887358955181, 0.5563224992876877, -0.08447326456068968, -0.10751267543808472, 0.24859188190743725, 2.6089933529991454, -0.24000553935183389, 1.3677891799311173, -0.7687596387290959, 0.4787340323406707, -0.5452939428349323, -1.6688048295106785, 0.17427167043419275, 0.08810792644421203, -0.5109845157804216, 0.22795999000068615, 0.32913432662315917, -0.022949998841783174, 0.07472815229726834, -0.44645760577579136, 0.26767565841514723, 0.07986910598222488, -0.8392688337578141, -1.3632900611757885, -1.4684221306439988, 0.7381259968014835, 0.3504971420382603, 1.8163229873529316, -0.5961381813787265, -0.04567132951510454, -1.4033066743810156, -1.1599183741865084, 0.4066544866976155, 1.3824794319221605, 0.03995919786151579, 1.121897282523136, -0.8132719905070173, -0.704610074245856, 1.851423456884459, 0.0715477937930142, -1.0086109143979096, 0.21383531471482833, -0.36519366131571307, 0.6561710611585372, -0.7257438384502195, -0.9267488349414574, 0.4789241040040461, -1.1068519388891567, -0.658257399246679, -1.177204594055011, 1.3198419454629478, -1.007156775069905, -0.33343891433400613, 1.5983706273143168, -1.1777931306837153, 0.458973165254005, -0.2211108272904309, -1.0891247499950785, -1.3013458640814177, -0.1522456608354147, -0.6744725570781652, 0.40291399297882446, -1.803439567378378, 0.26172635681639544, -0.25687965373901783, -0.5615016944383745, -0.7270527101894325, -0.14616219581487608, -1.139626025791967, 0.07977809533630097, -0.057372295953160374, 1.0459208913675517, -0.7551228186575206, 1.2015288982258825, 0.12465406894823208, -1.001410386473769, -0.5204067174176096, -1.5368572228527289, -0.3122300936024448, -1.1104518308232048, 0.7221196026528361, 1.441537897221275, -1.2770444179227443, 0.4498726121210492, 1.4356385404852086, -0.41583800835237333, 0.9444659732807399, 0.716454691458425, -0.9012108018688579, 1.7322459400894168, -0.4752030842723449, 0.19392225228312962, 0.40359058106052154, -0.9799054195356021, -0.7829051726846622, -0.8803594679264494, -1.0218858951315724, -1.5838897015441804, 0.31648827345396796, -0.4730992263527694, -1.7012269716714763, 0.2806959990719132, 1.3143993021506892, -0.3841588144561379, 0.6179151055288515, 0.15045681831924837, -1.3071729907312353, -0.07901278019755432, -0.87502008567314, 0.2816636293306352, 0.2776821679523054, -0.8279616909431124, -0.1064372774523255, -1.768781594122823, 0.4555436454416391, -0.656451494898097, -0.7873205022131953, -0.1195534394981301, 0.6865013414009576, -0.1534324073940071, 0.11918133123499043, -0.9638615905634451, -0.5335866403331272, -0.8329757194739609, -1.6809585486362615, -1.0842294570348454, -1.5652954129635785, -1.4152960285702516, -1.8154945216783112, -3.501413254832139, 0.6936711504276483, 0.3393331188441236, 1.073585498109564, -0.6002319950792558, 0.8502937425783811, -0.24488011952517488, -0.42846207897169475, 1.4809375351704068, -1.9173182485500246, -0.17210961428143043, -0.9937553354192602, 0.6822176259174801, -1.4137681491927347, 0.27930039585890193, -0.10703178239771718, -0.403794856753929, 0.790864996351425, 0.18972812585649854, -1.630450654037292, -0.8182286297112181, -1.8479976153222177, -1.279158072902729, 0.36772354448968864, -0.31097415498838743, -0.25034862855913287, 0.7615619567487939, 0.8607491602580987, 1.695230932946149, 0.513248793476906, -1.5347328303380656, -0.127717260191225, 0.3220253668863157, 1.1573936126800985, -2.863954454803948, 1.465058567781836, 0.7146243537885456, 2.1864546987815148, 1.0606699367859032, 0.6523720221149907, 0.6495865702703869, 0.3983249324584664, -1.020551641929384, 0.05422579850801512, 0.5901296684921782, 0.15894931562271541, 0.1964866827385995, -0.16662772733245157, -2.266785432709082, -1.626069263391698, -1.1747807356518591, 1.8451169488410044, 0.4159241585405141, 1.5144141577952988, 1.0367988490581581, -0.35684397585666533, -0.17792626016620314, -1.1283515033944935, -0.7578074749683819, -0.15524346635720873, 0.21511326097879452, 1.1389204758944078, 0.0017761465257588927, -0.8260146549119385, -1.0168513058412343, 0.7287574096297195, -0.2952289568041332, 0.7588680865917864, -1.9846309177320098, -0.30115805227743275, -1.799954952190756, 0.07812610136306146, 1.583131039690569, 2.9795987496970384, 0.615529013920584, 1.250972353167599, 2.366045336532758, 2.1081695073949405, 3.352021798076152, 1.3636090181715894, 1.0056000092651876, 1.1142975940932476, 0.8378835736814724, 0.6702346829899725, 0.5044642711259969, -0.06684803049815614, 0.648814863501164, 0.6419658466134877, 0.8335552802498558, -2.5370699785717625, 0.5797787578120059, -1.530933287702357, 0.4898581169436245, -0.42203442156023213, -0.34118217851643773, 0.3396924002043941, 1.4493995403665847, -0.5790519994757738, -1.7374494709757418, -0.8732694759393231, 0.5403021128011232, 2.3953095332685894, 2.794267448952672, 2.4929526801286244, 2.8743765455379227, 4.179606226040461, 2.5665323005251026, 0.6754076414741115, 1.8553459170611126, 2.130118221316736, -1.1591082348744592, 1.8743295945061456, -1.3314672968573007, -0.5351369333502188, -1.7307193398527172, -0.8868437312560251, 0.3040844860424124, 0.06420873665950957, 0.6360382985310662, 0.34382338403794593, -1.514688589540986, 0.5950736380881884, -1.9692114461391246, 0.058419839707623517, -2.0483885181276706, 0.8394358706711987, 1.0824513066924584, 0.29912346000722867, -0.26145407271879023, 1.7306161975776047, -1.1813609849148574, 1.414502336235792, -0.45798890485399774, 3.3252643965108906, 1.6281292808201253, 1.9811028890480877, 2.2851254421058957, 0.9754354152351251, -0.7083779954064795, 1.25057116412322, 0.834308333049084, -0.38094983182494113, 0.053918364874041454, -2.1182651136597874, 0.2821659341528717, -0.47536999104182925, 0.011392630199279774, 0.11178389594163869, 3.074608190713895, -1.026051050430372, 0.22797302935604263, 0.513950200463112, 0.46773014601960033, -1.6111260505094265, 0.7657200983794284, -1.0746682873102957, 1.4425560148088379, 0.6232313230285709, -0.3646099488090499, -0.22918188680762874, -0.016697175015254737, -1.0757609385567826, -0.8872522322210916, 1.684975465224021, 1.352885832388182, 2.528386037159049, 2.281981446221714, -1.1483195830046609, 0.08314156637815939, -1.5628885180538512, 0.4850871245532122, 0.6444784680327329, -0.743266512848553, -0.9756485498508878, 2.371718002099773, -0.2785093669880456, -2.305369841114255, -0.7540113295877232, 1.051068747154557, 0.3526536509233004, 1.4382139100282176, -0.3091441206142551, -0.16140346013328744, -0.7654865375099669, 1.108962470596768, 0.883827052842992, 0.09087460149489407, 1.131060659644848, -1.6122420191381115, -0.05474444423895442, -0.028624567687395873, -0.3634547338200142, 0.0703261870287986, 0.2500606590597814, 2.1127614926837466, 1.8078119806023372, -0.7182889922820687, -4.130920857965593, 0.5915121208708135, -1.8682376727549013, -0.7433983555632183, -1.0366235530482397, 1.5033552791512155, 1.950677389270232, 0.6638912446112141, 0.23259592248184982, -1.3683635828961171, -0.5122214391326525, -0.2072924193331931, -0.6263823313585524, 0.16069720821334285, -0.5268664963350849, 1.4051858660033043, -0.11422693874459035, 1.3334473563267892, -1.1162707261637734, 0.2917406914771446, 1.5351334453663736, 0.37157882379540735, -1.5814137207698302, 1.145692060965602, -0.12040837179025572, -0.20117546818919957, 2.4810983472077557, 0.3774073603833012, 1.0850065605550054, -0.10306238618507949, 0.17695850555235945, -0.20161068482364025, 0.29111647826909065, 0.6519012862894183, -1.9162460300445041, 0.2112708239488153, -0.40479148124175046, -1.294526897390227, 1.306265394995891, 1.578941707146869, -1.090283786924492, 0.35559942942208406, 0.8093237544281642, 1.8396747609598, 0.4838238581952466, -0.26266769592658396, 0.7524408034256438, 0.29017569735866955, 0.9513570701061075, 0.4171971278663297, -0.7757450377618281, -0.43685005067459, -0.3601427702057815, 3.077248085673129, -0.9367032923930718, 0.7165604520738732, 1.7161299618967527, -0.5983531579725209, -0.9980024636294765, 0.22672512850619492, -0.24319425488299978, 0.7715135276719088, -0.9718605462984647, -1.828520466221992, -0.30192426268145156, -0.2807373156468187, 1.5622385828407666, -0.5168289172838845, -0.6773646708989142, 1.461207881862196, 0.6412925494673735, -0.28209150187646737, 0.1163500034641108, 1.4605731425128732, 0.6709358732369268, 0.5758850449778031, -1.550527975719456, 0.6997903332540988, -0.030164538268700587, -0.8809877419930828, 0.12282028494751232, -0.37451870095556017, -0.6914814353903506, -0.6564695404764398, 0.13251970699824175, 1.5597702185690103, 0.5993892834538876, -0.46695036582033905, 0.42390635149837314, 1.1926901569411714, 0.8370051848344208, -1.1162593564117684, 1.2505739624676728, 2.0859604225028208, -0.029114918397242933, 2.555704459623069, 0.3694148715593482, 1.1175876966216634, -0.30967828203242387, -0.7239841015928853, -0.04600881781239767, 0.17680864333759955, -0.5030197850813162, 1.5439016139930823, 0.32092902073325436, 0.2663385361715619, -0.8252686671611682, 0.03700369313772588, 1.2662551758575185, 0.6935569000121392, -0.3234371410251204, -0.5433223999029341, -0.3361578602825144, 1.8359899972308917, 0.7021981660650989, 1.8005697756829702, -1.1912095699713063, 0.34963005190345586, -0.9960429473110639, 0.887293551390145, 0.3458629551006152, 1.536663083980808, 0.891921588505569, 1.734342489137273, 1.1304984767623691, 1.897841512462686, -1.6854931249122869, 2.131510398775111, -0.06273647098610097, 2.0495853970560254, 2.084173960651245, 0.8490019737811452, -0.9962217736208681, 0.4493094742437222, -0.2231275650748327, 0.47180564231211725, 1.2002952664312063, -0.44693750531314486, 0.3291329692135387, -3.2301495800655475, 0.3831685518430354, 2.112745271056921, -0.7098092755245914, 0.8124501033026476, 0.7128873640186079, 0.6996414995408218, 1.5520180713000535, -0.07087108685852718, -0.06932305780563165, 0.3599559922278011, 0.9778774740588301, 0.8136597056074644, 0.3968463978109037, 0.15622603205834773, 2.2760242172536955, 1.995760875770272, 2.206195181541013, -0.2823161883408238, -0.1337195145179471, -0.06785419693151692, -0.03848314717702793, -0.5993426189648992, -0.80088851558463, 0.039602933791549215, 1.0652531462411452, -0.4705764005091951, -1.6890504369567243, -1.5118077470252684, 1.5295486627097454, -1.338457432268713, 0.925728434878134, 0.5993937943658639, -2.180231317782147, 0.0841558165133217, -1.0919083044404003, 1.1187037155309787, -0.6379709000642095, 0.2953612521444196, 0.8686765079893887, 2.214366598409852, -0.05100455422057417, 0.8108048137662652, 0.9250468841623593, 0.23218801625226393, -1.8337145925735816, -1.4084436289093853, -0.8430674175147579, -1.670160008853687, -0.2322935179306827, 0.9197607377935829, -0.19832905237045736, 0.4984307122654484, 0.8321139082000074, -0.8972202022576828, -0.5163001568064534, 0.24780238610223704, -0.8435305916463536, 0.5417691874648147, 1.048135653472049, 1.125350474768189, -0.2586189431454724, 0.2604472515862402, -2.2826790719338814, 0.5627558076403371, 1.9946303702762458, 1.4173958518769223, -0.890399430815779, -1.0362251780942244, 1.566985667994955, 1.9382319523926819, -1.4049914059393152, -1.0189139259747366, 1.0006137520642902, -0.7153099244407434, 0.7385812317027975, -0.4563584878788034, 0.540885158141585, -1.3732960014689533, 1.5230866530551885, -1.1601000229714427, -1.5987265704448173, -0.08780180398570923, 0.44386361986384787, -0.5854442295655019, -1.4317785189863714, 1.9461837143729561, 1.264934270538119, -1.506743615441701, 0.20199586009511947, 0.19058155344504246, 0.04250498353555243, -0.2983659873314135, -0.10720739028486537, -0.8511737656396287, -0.026616621680371995, 0.6690621917847285, -1.4057853727666805, -0.8750150918772318, 0.327625066830456, -0.8855776468753607, 0.10945862863857317, -1.5344387845115017, -0.6381772089765677, -0.43374770039008054, -0.7647065458889566, -0.49090383692296913, -1.3233554517271275, -1.203466368651233, -0.8307457509935462, 0.9127396484363732, 0.5360677385211626, -0.4390519228520741, 2.081793645912509, 0.09041470138398805, 1.4197566566010191, -1.1783132783815333, 0.27432235755847917, -0.7607360950161055, 1.1379253131977234, -1.8859554461577626, -0.6389355546851192, 0.9100929900794537, -1.3299563057925008, 0.4121199393982035, 0.3996590083168903, -0.7016264199502094, 0.4882528258225876, -1.2061185057487065, 0.3087378803240167, 0.6119375432017458, -0.4366602971009897, -0.7011857402556508, -0.37495310764412254, -0.3472866589187447, 0.19977088279824087, 0.378457457271186, 0.5997348510271368, -1.1155173161407284, -2.6180387926371456, 0.2451171465932771, -0.005874485144379033, -0.5827026985409592, 0.5004184412249995, -0.04386395503366794, -1.4290162828108814, 1.7610459547236694, -0.1755563449029211, -0.7058328198192749, 0.6575090819217617, -0.18168001455204716, 1.26861151675635, -1.0877506522524336, 1.2896748410642749, 0.791247758663739, -0.5778613512419285, -0.7676589896821321, -0.43882357952255646, -0.21680907674354405, 0.18736200763946728, -0.5486712511461456, 0.04453476255663881, -0.5059006436085175, -1.970843984887528, -1.1879585487988913, 3.24532434479848, 1.566868968116109, 0.4393555869523159, 0.7233990416711721, -1.2833997450633188, 1.4833859181525528, 1.0117564569337942, -2.0258506158002123, 1.1742273599664625, 0.570828240150298, -1.118382319977531, -1.9177402873338718, 1.7263823815243078, 2.0312814341906393, 0.5492941364605174, -1.002575365424004, 2.158529749713371, -1.0495732403973823, 0.22393847508055972, -1.6757146005089394, 0.47622012026521204, -0.6356099492154796, 1.2922707088709962, -0.3720326460307673, -0.9248608463320945, -1.179457952895632, 2.137021232630979, 0.10467427591236296, -0.1583482710849911, -1.271087025787383, -0.4762058816346381, -1.2049495052729897, 0.6213144249022341, -0.37174086805508266, -1.01881109686365, 1.2713285686945621, -2.5355764156585465, 0.9930262001636003, -0.3389996147973551, -1.8835056143962838, -1.849808474710998, -0.30047920839586456, 0.43183415402052727, 0.03225210685105346, 0.4586798331063375, -1.0169918671342846, -0.3841514464844539, 0.13585449492393062, -0.37179586373637646, 1.1721710988687204, 0.19765578561578365, 0.30524184363778567, -0.2275068063154632, 0.09303250023807805, 0.42938846774879014, -0.48972420805807126, 0.24294218732514322, 0.17756166618627525, 0.7314666057595172, 1.8453129249190534, -0.23988196346105867, -0.0821733077482774, 1.5279852856869633, 0.32402356949641453, 0.5577135313584266, -0.022613500517551375, 0.906413704464066, -1.5124210830687574, -0.5067644349071257, 0.07262206973499369, -2.0030740880082316, -0.005036869917975117, -0.8437406175689819, 0.5360119240167729, 1.223723604808492, 0.4984278957242963, -0.6058664378640696, 0.5652771410959573, 1.2610461160727806, 1.6632002528161685, -0.8559413706359073, -0.08125087939873216, 1.576610914063074, 0.6046660002321507, -0.6172630974399053, -0.0724363898031023, 0.4885216605677609, 0.8765497184143639, 0.5507185160918451, -0.24624867140207438, 1.3916720109204612, 0.7598159512403765, 0.26768819233886615, 1.5778203898959333, 0.6371683164069487, -0.9936956424705984, 2.2806928780843223, -1.0694511414602281, 0.7433525767290249, 1.1832982842155877, 0.6770167685586472, -0.7145948387657954, -0.45189277169776365, -0.44195852578483663, -0.9409255283229864, -1.5592313738336885, -0.4794471919562726, 0.9619825198521047, 0.7474377237512154, -0.5899962830760419, 0.8955035581601977, 2.786811698464025, -1.728408651821097, -2.056780265048371, 0.26729106394389707, -1.7077136912413533, -0.26614545004484413, 1.2416622558686108], [0.05235677594980766, -0.5390228725226921, -0.2397352997401951, 0.4284936471845356, 0.11389391230209214, 0.2481444812432207, -0.41668608988454714, 1.017148001289697, -0.43764620694717943, 1.3072175177976204, 1.1941216736265468, -0.3145941482727261, 0.3110562546258302, 0.13030409653899228, 0.11314095436421359, 0.6702980853861344, 0.017215349667084306, -2.0233004588948007, 0.6941322060625933, 0.9333022738104755, -0.9778604389113668, 0.3282022967301834, -0.8385038972152514, -0.47479639004711066, -1.092241816551546, -1.103797413602833, -0.8502186822723115, 0.11110139720179629, 0.13601155697168474, 0.17568400979322318, 1.027402105228673, 1.1955441243982527, -0.5184779085017441, -0.7549954025752913, 0.6454781250128238, -0.35078527408438426, 0.33366802207490537, 0.8822142498362272, -0.02361095124806456, 1.7262228630095369, 0.8621259557641975, -0.7821702349242771, -0.2747499946149838, -0.02681364154118507, -1.444989299579661, -0.8280474745491104, -0.34421041336975516, 0.6513284294584238, -0.12075001565338263, 0.0673631923805283, -0.7991194938660636, -0.7206399106833833, -0.6260896025792629, -0.5554803933549891, -1.4835683337431844, -0.4371120178305215, 0.32042464614097743, -0.25870832964019275, -1.8115287183114601, -0.48744299337550967, 0.47380934443940864, -1.7333850383828342, -0.5912122419843121, 0.05255608965088505, 0.13359355322770902, 0.25729394625552826, 1.5900859092909392, 1.1847727651273097, 0.13655592011277706, 0.8021486981638074, -0.9440225904789318, 0.9829480852336292, 0.022571364704499042, -1.2808986272668075, -1.1546918356862035, -2.032002728003793, 0.8963132580807481, -0.7938201512112684, 0.5671767379209842, -0.7686055132378357, 1.2746024409790189, -0.19045374467673817, 0.32488121498608097, -0.9135191863692782, -0.606788067910116, -0.6769373722514112, -0.29446702422660953, 0.8324354970467935, 0.41510319964570624, -1.129772112582207, -0.31407589853103635, 0.33466981202001544, 0.503523160419971, -0.6488791240925151, -0.1189379671534087, -0.13561134883326825, -0.9239380576333324, 1.5451184278110148, 0.024355615509186888, -1.204553154556653, -1.0219824722349644, -0.5346462301843252, -1.062820252165329, -2.398680748864142, 0.21854885099463434, -2.223259199301222, -0.7491183304390359, -0.15501715889214174, -1.0765948698762315, -0.8508750437981002, 2.0439687110374956, 0.25443528591949405, 0.43581941826881687, 0.4007631587441943, 0.5903725080653338, 0.6154542680062379, -0.300007044051049, 0.7005138104295608, -0.6240505253722963, 0.0687276910915789, 1.6391951895809314, 0.14830098981821477, 0.5836973905593097, -1.6704279206957315, -1.642857948969391, 1.027645977693448, 0.6358678613061122, 0.6233646790696121, -0.8082271944690529, -1.4192512068993595, 1.2381757830425022, -0.541077623190379, -0.9886386831533384, -0.8985295886476082, 0.2062274635200013, 0.07293799858149737, 0.14393407987080212, 1.0635656285797892, 0.32420666759122824, -1.473481015749549, -0.9334269392387553, 0.09654880738177028, 0.3816019309434527, -1.6957829411218983, -0.6664353569331289, 0.2252624674759568, -0.864799856824853, -0.36824812311495464, 0.39456424785034305, -1.2260269824723418, -0.6064700276743948, -1.369002091136354, -0.4497328374745435, -0.5784053609255677, -0.5835680992026016, -1.4928995688478588, -1.6165388994613075, -0.8377955572244674, 0.4817337118631509, -0.001959375586649771, -0.821910159602623, -1.6877880816560618, -0.5669126385530606, -1.5101098609908716, 1.1070120753605845, 0.11823668974711149, -0.3357387020645525, -0.37415215825757986, 0.23908195883218786, -0.5586204011807452, -2.19550519925446, 0.6933809412030892, 0.21039993673082605, -0.498893088007075, 1.6820699584633092, 0.4757071889279648, 1.2367390400493126, -0.6035127843171586, -1.7981789426104462, -0.35223894538906614, -0.41255225459858635, -0.4057816109889606, -0.890483827740274, -0.7816399700609552, 1.111004706050588, -1.0621300659515271, 0.0802784029945591, -1.6242434141609865, -1.3055344958815223, 1.0201528536119222, 0.3502683226584231, -2.5540485278115286, 0.9635663223675981, -1.216572445293248, 0.19143324054421867, -0.16305198255106057, -2.5189125776757706, 0.0803564451980662, 0.5787503458547744, 1.012738268420369, 0.30537148562800204, 0.31014031503355055, -0.33092504732232464, 0.38153496593339975, -0.0646244972195836, 0.7714301142923344, -1.6840121723046853, -2.11728049447486, 1.4810429968909398, -1.3446979411727444, -0.16483475654736593, -1.345571762752086, -0.035900487306963234, -0.8021441996362506, 0.6614221534412149, 1.4187846082290456, -1.521915070493162, -0.650414531617953, 1.1494623379026343, -0.7948428350342946, 1.286251806316568, 1.043870174560203, -0.02473784309268272, -0.12626081851120877, -0.6029891278648059, -1.1509601056043135, 0.5451783179307879, 0.37630492166932067, 0.45500816703257285, -0.10695530205790003, 0.5519371929402913, 1.8858013333687773, 1.4684559323037671, 0.5902619043157313, 1.3910716737930415, 0.21566426007188086, -0.3151495174765765, -0.9268686392569367, -2.3513497372896186, 0.12374610570075752, -0.10377615842731878, -0.9509537450184304, 0.21476522113402743, 0.5226049970457101, -1.309299393224674, -0.5644740504862031, -0.5713821491722986, 0.12882106274687358, 0.8328446248344739, -1.9653010433145064, 0.2859581934713802, 0.7354336745809954, 1.2599049062197691, -1.5710095574770633, -0.3151690262633616, 0.037960177500543174, 0.06291028437696707, 0.3973564498273671, 1.4069388387115047, 0.994999724422265, 0.18727694034739512, 0.7433325980761218, 0.17608742065103877, 0.5043407820400344, 0.21761462577423646, 0.17179162629914463, 0.7961182155418197, -0.8372924940702463, 0.4264586489608495, 0.29338474863673963, -1.036601419446378, 0.9252148327095989, 1.8157040041924077, -0.08888239288208907, 2.2728351557677486, -1.0460988669357925, -0.7733473948535692, 0.19317467562361434, -1.5419399833383052, 2.021960813752456, 0.4556116438980816, 0.611815712360999, -1.6185362055596133, -1.1357872763622776, 2.180622773325853, -0.0557996301019721, 0.871842570989519, -0.6165612859028781, 0.6418205301731752, 1.4445558201787931, 1.5511431355797984, 0.7047979874566637, 0.510753475764425, 1.4135267880823739, -0.7827248296505982, -0.19846267954403937, -0.05930909067236061, 0.08755904187359363, -0.25296659344056227, -0.6416317565025739, -0.41316149719446554, 1.3766904274638414, -1.1316327773834403, 1.2837695114018415, -0.09294792627597026, -1.8940190624888815, 0.7961049305209923, 0.3885065110558373, -0.5473411216154079, -0.24873218770784303, 0.6909366407173116, 1.0990718911459474, 0.4978318762092911, 1.1118069217136808, -0.5187087833986591, 0.33654644161921154, 0.5319136640333914, -0.18896290990960704, 1.7255162831871982, 1.4732289302909038, -0.5384010956870513, -2.214744798445635, -1.3311872286980557, -0.38228437241236657, 0.6056804851788279, 1.31941463822761, 1.5194641573263303, 1.6903038936287933, 0.7239613158725152, 0.9568674021905812, 2.0418689987561356, 1.283882347454791, 1.2037225530119517, 0.8951653433329785, 1.0351116243706011, -0.49797130540107165, -0.6690134246596219, -0.3294679689964447, 0.09141543496381027, 0.4518502567695742, 1.173626738058244, -0.6439358500961734, 0.5529998115854671, 0.1874997448752175, 2.2213484364183684, -0.020795070005946464, 0.5793519777067125, -1.1814373715300566, -0.9041718398209234, -1.7120441014631758, -1.2294722037920693, 0.8076907007389982, 1.5539263591901198, -1.105834941419476, 1.225056064451354, 0.032401583338834486, -1.201703453181578, 0.3192283685220402, -0.9539067216136662, 1.103070085534885, 2.0810047687047657, 1.1265870091190517, 1.312218829021134, 1.343978733269451, -1.335472569101276, -0.262469972466427, -0.977258808045504, 1.776190639178493, -0.5051444071892552, 1.3450760970725129, -0.7635146741313189, 1.579134358163408, 1.5506415448546096, 0.9009781488460777, -1.1004007369280295, -2.8329448864187197, -2.630605698847624, -1.77144212067489, 0.5198630423519449, -0.19714911592903933, 0.2695529704468783, -0.6771952082833433, 0.40307302866460526, -0.34127003993049015, 1.5449165911091205, -2.1386156358951527, 1.1237356334550948, -0.5469026136400601, 1.0262623102378343, -0.27107338481963594, 0.80350694047745, 1.2136409088141438, 0.32615260718997047, -0.18390366732377156, -0.24709388464088258, -1.062197859037759, 0.512272365067897, 0.616661806309063, 0.3020560547575504, -0.12606373308892144, -0.25878808060884767, -1.5236197652033183, -1.271278197358839, -2.6091169989328247, -1.4747732287396393, -2.2496682928921636, 0.300975371702425, -0.2755716389177318, -1.4514595213202064, 0.6654243892680344, -0.7696455271647819, -0.8572367348761225, -2.070308455849261, -0.05697668431419836, 0.0919113859707866, 0.7114305776597153, 2.1234488251160006, 0.3403280429379584, 0.41707012525217435, -0.0548626053685758, 0.3017540658548921, 0.2330785530790193, 0.07942592902538317, -0.057721351525652595, -1.2190830248316367, -0.30793388393919485, 1.980858832532057, 0.35259622465203666, -0.4963543690045383, -1.1160452153598817, -3.016348730197201, -1.7765148168370555, -1.0792546479987308, -2.408699031767051, -0.6797180596888097, 0.7666187274952426, 0.27006580935975966, 0.2683241303832453, 0.22478193126594434, -1.887010965927445, 0.4205058234992335, -1.1352487436662824, -0.521361146229833, 0.3153369632453053, -0.08991133727846401, -0.7537691564729854, -1.423114541459515, 0.11846400215360683, 0.8278903951760626, 0.14069595684131594, 0.06524094240026815, 0.0863800830895988, 0.6202843512291085, 1.015194107690888, -0.1955205644801031, -0.07505088010356857, -1.6616826553600947, -0.01259222241178723, -0.8036626110638013, -2.2880110301339878, -3.155785589293653, -2.869367939728917, 1.5330583492740226, -1.409520160275635, -1.471453927293023, -0.9561126062374402, -1.1352756569682287, -0.17987044105009173, -0.3225684121968436, -0.23894988768466247, -1.9784323428139625, -0.7197090321189288, 0.6807429616373891, -1.337239578061988, 0.8776054381737899, -1.1854268788753486, -0.40646656587734564, 1.0639345119247303, 0.058966961211507005, -0.06005699633809587, -1.2350296015419053, 1.0931810766885097, -1.5990324094262494, -1.3128980102197285, -0.12163684648240469, -1.069544742031691, -0.41197910189025644, -1.1497208484878665, -1.2222660296682517, -0.3870257815004737, -0.5181267721285844, -0.3611347155386125, 1.179766969700726, 0.38727361691959217, 0.44094237749318804, -0.6256256620439258, -0.2890405849473834, 0.7898361859544618, -0.9992548564180683, 0.4278118093903545, -0.6701917814518922, 1.1940094807772221, 0.23919301298600065, -0.6622496400296448, -2.1163446733815654, -1.1049483622029772, 0.8827460717898391, -0.29634739827985185, -1.1631870039836576, -0.6148612283101975, 2.204267299742735, -1.0495073236957233, -1.8109504926479545, -0.30266966485690705, 0.1687850456245814, -0.156551591725321, -3.0578628098898903, -0.43792745135574623, 1.0745988360143857, -1.0908010949402267, -1.27982201652861, -0.2587446347238858, -0.5033229983243768, 1.7076379932651933, -0.5198258344537856, -0.8261848077657328, 1.4446379097966204, 1.7652306246340157, 1.8633403160477748, 0.12500363161057948, 0.7556373578197088, -0.3550698930289375, -0.6237808163080095, -0.17065262271864043, 0.7651214378273525, -0.8292681984851422, -0.3467745094653012, 1.4030525754531449, -2.000226889440332, -1.7566153979623615, 2.236878225737038, -0.9038045898183863, -1.872283625907891, -2.3544113194425234, 0.744297355415759, -0.18845479739766263, -0.12847611932800154, -0.3437210071384075, 1.1739674245314775, 2.42303643230999, 0.5391881289533829, -0.23992817017838816, 0.09946405461358115, -0.846013479429649, -1.1577137169285039, 2.0779428077302526, 0.26687603220471645, -0.47861291550987795, -0.4248547377537991, 0.061185308593005645, 0.24618229719721818, -0.18824014475821188, -0.041524704324880424, 1.6934279391197797, -0.4448877381432915, -0.7214723031822894, 1.0053669405240766, 0.11017708092143147, 0.9675024406255148, -0.9544679454222058, -0.31502473229346417, 0.4795246156713809, 1.664406922284217, -2.004989848453325, 0.933825335320192, 0.7419097219610407, -1.3345737164655491, 0.1061046329601811, 0.23799418538292155, -1.4845606934560778, -0.0624718179005749, 0.41625454250140453, -0.47482262919567503, -1.1729942014231538, -0.8590087910034944, 0.7205905738998558, -0.959745154684196, -0.7188180338718847, 0.9953291569818211, 1.0113861533099304, 1.03803556996419, 0.9554013016629155, -0.7812025994114641, -0.9185153982570277, -0.3668452762754252, -0.7494421939559662, -0.7986608823461752, -1.953578229875344, 0.918600799420728, 1.3160422047026485, -0.18681718617118814, -0.6760372472629601, -1.0172967261223866, -1.0521706724104642, -0.5389339189051314, -0.9610837309079396, -0.9866881454329914, 1.8608022554038781, 1.0788264770394436, -1.1994032181534504, 0.6523549171872162, -0.3894790950800567, -0.5095333455583949, -0.5701174059545442, -1.4317783797653112, -1.7179987356133755, -0.04675983602950953, 1.1353267489762298, 0.9562196123795607, -0.04090074016466954, 0.9903830682804733, 0.7568441704123918, -0.7419217222530297, 0.277339543636242, -1.2925218243348833, 0.9094284084342882, 0.42123886306615727, 0.678033332167486, -0.26807860720185545, -0.6482712983685792, 1.1836344649822952, 0.4906125972957831, -1.1801638949707391, 0.9698226704333782, 0.31791442170221346, -0.518861902082025, 4.447108956826775e-05, -0.3736349294498858, -1.7130058206101515, -1.6677502676067602, -0.5444504241678273, -0.5923249294475614, 1.8631039510343634, 0.1276858890459965, 0.44095525078791886, 0.044950221620722576, 1.1508813189485065, 0.4153626263127794, 0.3533475029628088, 1.060204881010105, 0.08069925994139146, -0.29704066619591, -0.5107777858926862, -0.09851409563191595, 0.7301119740319354, -0.5140093911413086, -0.8879115160167551, -0.35323573864594787, 0.7521961635159096, 0.8979892201619666, -2.6215929885497284, 0.29323165125311745, 0.515619113764357, 0.6557631560582103, 1.0923336435900992, -1.3015568608969388, -0.8788997031233042, 1.3582354638888448, 2.412403312165229, 2.624644455162737, -0.5914047918006895, 0.12497371426712843, 0.41830354161640704, -0.6121147877316757, -1.011130560682416, 0.4758585435413325, -0.23201231618891666, -3.1725958928538347, -0.3105782939123583, 1.5456388609716398, 2.3063733577926553, -0.529029737144341, 0.3489789913881574, -1.9419290019960558, 0.582911244403916, -2.263591190560734, -0.8945387941773881, 1.8452643984887152, 0.04371952894194374, -0.7629091820437307, -0.7029233490201111, -0.6154724009755876, -1.0648716432773677, 0.6755599814929456, 0.9249493586861004, 1.0066616625222182, 0.34518733350366915, -0.3082939300274661, 0.7482315147217127, 0.28611607509804454, -0.6829391918018145, 1.4897571834755305, -0.23336963943671218, 0.2816804095781619, -0.9102952555922321, 0.9604365409262894, -0.972595626977608, 1.6244916807679906, 0.3246373941395595, 1.1819899667985243, -1.0783510371667597, 2.6726241104142705, 0.7661744670903661, 1.506982664319661, 1.42502528586961, 1.2814384107082732, 1.3459083654606787, 1.4021519384425136, -0.30216628904317117, 0.7003985437711004, -0.8055154674967985, -0.6738954094944192, 0.5526045216522706, 0.7787560859070496, -1.0104634979147464, -1.0113667248242857, -0.011858450596421776, -0.4168617349745553, 0.10704036156084092, -0.25810338976825653, 0.49258649893921425, -0.6098695350549163, -0.841698941835848, -0.3991810823401653, 0.1376541308274435, -0.8320828370480123, -0.6090885165227052, -0.8749347983388813, 0.26405580223957165, -0.2655891050238391, 1.5994087927872895, -0.2021357827386126, 0.9636010605095651, -0.78209172287511, -0.8055494493287739, -0.7753732853285675, -0.03835659307526865, -1.0572215954454158, -1.1861926738155426, 0.1029059308313591, 0.0761956316181517, 0.220896601151612, 0.08588059279436878, 0.45393489265483483, 0.5210244072437049, -0.27292478731247743, -1.1107651529745268, 0.2629091115533067, -0.9269842468265703, -0.6427740681271413, -2.3686598351369845, 0.9738427092402673, 1.4936982416470752, -0.346871621596843, -0.8507223366718266, 0.05032432961043144, 1.3349645866447706, 0.09646542848972688, -1.0019055475026883, 0.9827994653295524, -0.10694634802006311, 0.9952116699883676, -1.3487551881168633, 0.7375530727505442, -1.4751339867433522, 0.37335002229236813, -1.1760057284818508, 1.7892535843715665, -0.9375913469669318, -2.174675634965143, 1.1627225413625881, 0.18945182225958462, 0.11616109082089794, 0.12007461852763378], [0.21770849824140215, -1.6553404506260003, 2.034589254683639, 0.3985690499530879, 0.2645083411409973, 0.11672634038943552, 3.331034944122446, 1.0332860196136893, 1.2512627266535072, -0.29998979562103223, 0.7573982419658676, -0.6201236353086689, 1.3201567532781089, -0.643628976572031, -0.3331739032535891, -0.23652913725738667, -0.1634529640594203, 0.16865741083748015, 1.5798700154133287, 0.3094692980683866, 0.36571129731307117, 2.0274436011921018, -1.093279502417744, 0.656549335778583, -0.7516427695035964, 0.6953315901376713, -0.8791689545548933, -0.5253148595734564, 0.40932026774735936, -1.4949618098127313, -0.941522926352283, 0.24246905561224644, 0.061930311729119954, 1.2557961806987032, 0.7295712924818251, -0.6746560042603317, 1.3046777778445582, -0.42787487539821006, -0.5308184715318005, -0.2620314193968558, 0.3709815792464254, 2.343379023867963, -0.5023503494373053, -0.31823471141257687, 1.899717445939597, 0.12228444882410106, -0.9114133191464769, 0.625163424575436, -0.9429912727953237, 1.5182497922892595, 0.2831517163801643, 1.149318105773244, -1.143138155412861, 1.4620987699891277, -0.20797512151897743, 0.5852057758119107, -0.2847862992324521, -1.314857250732093, -0.8743699819951545, 0.8334287308669037, -0.09791645094037667, -0.8655739639322158, 0.6764490106079896, -0.26688762143324013, 0.6782054292297032, 1.8719783581892193, -0.6388854385113819, 0.1381514230751039, 0.651710021891057, -0.0513923917423743, -0.10179066674517218, 1.7189805805789748, 0.7780432120840229, -0.7510635354699481, -0.5779153153511144, 0.6692579604291148, -0.2683635027159169, 0.7520299697256136, 0.7718760185368271, 0.5923313860408219, -0.0886058695625331, 1.1791249834004411, -1.3282446854727976, -1.5285543639386778, 0.5072246188613158, 0.11104845121960394, 1.4203829129631476, 1.2464794654986975, 0.6593907656436044, 0.5931952522462561, 0.6302560967725129, -0.12842397610817838, 0.261359576507836, -0.2231454986983487, -0.5619838949301142, 0.8992481264037525, -2.038262818150548, 1.3462802081344472, 1.3727144368705864, -0.7050551408669481, -0.5893770629953826, 1.5281077975245938, -1.019963024586118, -0.19638423012279593, -0.31894581843766523, -0.9044869084658409, -0.23545058326943238, 0.8092836170734085, 1.345514398573287, 1.2460354355278012, -1.3420289719820888, 0.38976369213045087, 0.2136631593087687, 0.42611738956615425, 0.9330338822264649, 2.903175679582726, -0.28647699387693043, -0.13388797901859414, 1.3197857326047733, -0.7550054260517748, -0.8476341533868591, 0.756002092886547, -0.5930011226203925, 0.710490071538985, -1.0551083328381907, 1.6757416037317032, -0.5228612240915447, 0.40601004189252715, 1.3235796405634404, -0.2976380881839003, 2.135706430877505, 0.8214761435375678, -0.9649392954465885, 0.6333423976596296, 1.0094900184981073, 0.13328125798702375, -0.6675169174367694, 0.33265620422673775, 1.4107202910057224, -0.7485683028298816, 0.9375731919308202, -1.013723702769583, -1.0297779259647386, -0.7277195199528708, -1.9694086873693906, 0.15017222416557868, -1.1059653226905817, 1.029593541421733, 0.8056391168605079, -1.1388833985228661, 0.1266398798951385, 0.5329666695889341, -1.2372014965579323, -0.04651947448254842, -2.0809089664740923, -0.4052051014312544, 0.26697344018095753, 1.4232695466811753, 0.38396116395228747, -0.8631576617384308, 1.0639533277157607, 0.566603247873341, -0.17583895610171354, 0.3357637429013787, 0.5189291560848469, -1.150346289583223, -0.14725909368683307, -1.2139836571933798, 0.8258056417108174, 0.8806272334503609, -1.1338212401187249, 0.32454275857828835, 0.948709590700823, 2.0787289044591106, -1.603494943693402, 0.264868566029929, -1.470072394257884, -2.196652284661573, -1.2279686868271482, -1.8136351743603585, -0.3557223988325859, -2.116465855602701, -1.0043932815217655, -1.7011288503729538, -0.7327104056828913, 0.3325185466651917, 1.235493803222617, 2.2962611253843157, -1.3107980210684633, -1.0095786955957045, -0.7382643665683633, -3.8951257092303453, 1.829984404073893, 0.7778508418136124, -1.0917891166117604, -0.9354067506474891, -0.5915447671029269, -0.5287611446910956, -0.6300452430669301, -1.2217811222677013, -0.5429077696278366, 0.38254265048225383, -1.495036277353812, 1.2723351308007438, 1.5561465655871325, -0.27660548933436585, -0.02725972475679003, -2.212352788152309, 0.7826308313854657, 0.8440857368323312, -0.26664304054771204, 0.5844753268857344, -0.4108167918384187, 1.5254621194688078, 0.596928406575372, 0.9370029868861045, -0.08754614873840696, 1.1262980593651672, 1.6171361748247124, -1.5128305299998592, -0.3192097111190337, 0.5222284297004219, 0.32887345318426064, -0.48992261055448977, -0.8456203602813716, -1.6380299113391164, -0.43058771266176415, -0.564238692321334, 0.33949215923399434, 1.4434916671003641, 0.6251656325810282, -1.1946331698769617, 0.14157391266815483, -1.188186266163424, -1.6821583799006428, -0.041086184029627874, -2.1763590181558126, 0.08788296363170568, -0.7734301635447726, 0.26757493729341275, 0.6253991424081502, 0.6254901130111247, -1.7299397807103873, 0.5436450621202944, 0.5624816879042288, 1.4215990074828468, 0.2342686466347318, -0.05855734617688208, -2.4107811541133195, -1.233014457084479, 0.5695744273802564, -0.01689033825198787, 0.6111857536401873, -0.5884147136585718, -0.6649114472417107, 1.569282819847793, 2.4725240578124033, -0.0315471233868244, -0.33042633789831777, -1.491688951876251, -0.5634364918153126, -3.5347392464122125, -1.6207194469459842, -0.319411124560981, -0.2173769489445475, 0.7362083837725779, -2.421783775450485, 0.3028903647066881, -1.3922522555240262, -1.1624833588138244, -1.446555739797602, 1.330419442465742, -0.7824890487415129, 1.2835576564598195, 0.8066198269549562, 0.45643624742738315, 0.5551870013771849, 1.3680381343881467, 0.2572305429231572, -0.5935280476513367, 1.1694423634153919, 0.8737416258151618, -1.8950053751186566, -2.136193302224143, -0.2815263171203538, -2.3411903688256235, 0.21921814936176626, -0.7429284566380328, 0.03957108411836718, 0.5996502713462609, -0.04862726235400255, 1.3517525567171675, 0.6386582705369651, -0.2811312260458998, -0.5015948130571773, -2.5929243205613868, -0.5417064363968915, -1.3211964798312672, -0.7032495663863051, -2.2509802402985093, 0.3356498056477749, -1.331656421369433, 0.35678715943468803, 0.21833987678166564, -1.798465942381289, 0.8784860627607212, 0.6782271705125236, 0.8884926431592021, 0.4274159911466656, -0.0857633584396574, -1.8368427038967083, 0.4394486432559772, 1.7038750019948572, -0.20072921537303368, -0.4574463078707495, -0.6202975644313832, -0.7499080027164804, -1.6503457554318797, -2.648151421975549, -0.35646719140185085, -1.0073913249148803, 1.1984283646152518, -0.6092743119333451, -0.4421199923011013, 0.19998217771088717, -0.4249669878479305, 2.3413932661907584, -1.2815325486009543, 0.13198372078977078, 0.024732631468658162, 0.9728508016233682, 3.0151523005292997, 1.0947741691099073, -0.32432094998713656, -1.27101606048963, -0.5176556441053379, 1.1312985755866134, -0.052905491347807226, -0.4432922850396437, -2.2262307703397877, -0.29969158460775097, -2.0765246989492923, -0.34396569491914203, -0.8518625332514328, 0.14501072511893284, 0.23301088528550482, -0.5970336403136943, -1.402749143207233, 0.11433748554777728, -0.16559437579549766, 1.5145984000938129, 0.2171096987998601, 1.1928687438680252, -0.04184359079248566, 1.2197714647683469, 0.42739813370411944, -0.13145416250052053, 0.037338820209453116, 0.11538487961336842, -0.9720079816653039, 0.6552352404202028, 0.9514573112136961, -0.42243092389970605, 1.1137379715565703, -1.6520136447647817, -0.8519217989068466, 0.11243825596726999, 0.42309785261730515, 0.3315797879812189, -1.1059078414065089, -1.3824591320417463, -0.6379577847077852, 0.4436113605655362, 0.3530635836138911, -0.940129173750165, -0.2353077767204455, -0.008202959827427041, 0.2603526421667346, 1.0153159009192776, -0.13076186597262893, -0.007255311858314739, -0.4363751738425672, 0.1761831842176665, -0.05275681637837506, -1.660320678302621, 0.24761316294949973, -0.7619797356392204, -0.6768403235794288, 0.495475633137938, -0.43367260394044044, 0.5286223335874308, 0.2707746244475153, -0.21920342771550674, 1.5213384298078145, 0.4152557732969368, -1.4760370143421535, -0.8929689163930111, 1.3385135481091963, 1.9566344033939933, 1.6365493321844409, -0.772299873006534, 0.9303803832464245, 1.163514394405669, -1.4612280288143271, 0.49970673357395234, 0.9510957740648723, 0.3272980872674714, 0.21002998680166243, -0.0672530130052243, 2.0048609562610356, -0.3772405926815507, -1.9671590000496237, -0.0724585858981624, 0.10508224428120877, -0.6590481628887153, 0.6009395694359786, -0.875174503027979, 1.5010847961015845, 0.6637679344207377, -1.0091788142941718, -0.1943124576187919, 0.6919105335474167, -1.7486191034323217, -0.42134088326549335, 0.3639123526400819, 2.0515692741467584, 0.3723026807301721, -1.6620155081543422, -0.2270671653361911, 1.2526985473110666, -1.3443687629805816, -0.4980227541881933, -0.9183596535911521, -0.9712862519039657, 0.3514815163417777, 0.21542452824282043, 1.7940073324059267, -0.10680004613219597, -0.7188879608546559, 0.5086903906760154, 0.7732844225252671, 0.7162129872371589, -0.370253251706484, 1.362528990258414, -2.620273976740332, -0.4782622878525056, -0.02779208131909405, 1.5711641338646238, -0.3566853393084579, -0.9160786487790472, 0.14540602419498486, -0.6240602662252084, -1.280963418743702, 0.2858348925294302, 1.4039010088448578, -0.31897194358056913, -0.4552338905639459, -1.107068629067207, 1.8028055333315474, 0.059708918518412486, -0.9993468481849912, 1.172382493318424, -0.2736376246939213, 0.8117059301018222, -0.17499671645519185, 0.36862113923875406, -0.9628006953397923, 0.115492448920959, 0.5008054821553931, -0.21858986535088895, -0.41108863867570566, -1.0651608602572795, -1.2320245934001122, -1.0717601322927435, 1.0976881830224559, -1.5780571359669526, -0.0765880976291921, -2.8223895127046283, -0.9894633412346459, -1.2494908421926494, 1.1824991065860815, 0.12728831334216734, -1.6423276882242661, 1.3006589415995211, -0.12125478405572172, 0.5314798982004426, -1.3788928175496773, 0.5223289805043984, -0.8796596327469984, 0.21562857594214693, 2.477301685539053, 0.5565224457076011, 0.21041686968929887, -1.1025343744183134, -0.37235893059818576, 0.07890695528317386, -1.880411208913311, 1.5883047878711674, -0.14126827898881325, -0.6130791019212871, 0.23201128023403647, -0.28402794071773335, -1.7828861117692887, 1.5555426817523055, 0.23906552820307522, -0.3950430540778595, -0.029315494522254515, 0.9079817491779634, 0.41013018255864675, 1.7459837976847055, 1.0569954306766804, -0.506555653395185, 0.11812286450610196, 0.2897336068840194, -0.15171347997530005, -0.4237510126380109, 0.9653369819271662, -0.20114228756489153, -0.4383221074852209, -0.09065660060072023, -1.9487228205925105, -1.418238544184666, -0.7748322565233459, -1.5253382293579767, -0.8854390252234263, 0.39352739756936567, 0.2407272153044097, -0.8998959436858021, 0.12554492083145344, 0.03558520160920266, 0.8285683216996924, 0.39506878950493, 1.2612659430403863, -1.2653011994198033, -2.3602588796566195, 0.33557893139949624, 0.7734699116376135, 1.2803291930153915, -1.0721223554605082, -0.15082339855710147, 0.16780434760429647, -2.1875606889589907, -0.5171494042833428, -1.017302017880212, 0.3465020623864916, 1.0130525187515809, 0.6234888787247873, -1.0800411176873663, -0.7863172254164715, 0.9290510097535065, 0.5749689707123071, -1.9066354937120313, -1.0689013377992942, 0.9134723672711491, 1.0593731905700015, 0.46277085374586824, 1.1865154094286046, 0.754223123777266, -0.25943408036141324, 0.6007304578766037, 0.3531642176483037, 1.0032653235695312, -0.2501767119540456, -0.9239522839884958, 0.42619680529652637, 0.5070413659741136, -0.5940977556071161, -1.8503336220349134, -0.3648181514892633, -0.744736418701729, 0.34182410392171564, 0.596348987719467, -1.0610652665359126, -0.2678854427734504, 0.6557734732108096, -0.15973421121985942, 0.30513508464490163, -0.8859567056430422, -0.6190740660195808, 0.18902155571488527, 1.5372903141050174, 0.2909708782240132, -0.10190376200330244, 1.0818797665100337, -1.3152819755348597, -0.14356590236638264, 0.5689501483149776, 0.13146344698599, 1.2499549173629865, -0.34968971558917467, -0.6511140922174176, -1.0078017694765822, 1.7334060276496561, 0.6313095039657276, -1.8462014302886904, 0.44573776328045905, -0.30086723549771843, 0.20391892988966795, 1.0888489164618718, -0.6204215066647495, 1.0331842050313216, -2.2918501627837506, 0.3429940588715772, 0.5704475418286412, -0.49399790333468496, -0.586062321948743, -0.7193501378547462, -1.583189767863467, 1.4728607059795868, 0.4326778320010883, -1.5284810805422846, 0.19192806567122153, 0.6398763235499056, 0.08814491012234149, 0.19632731185366792, -0.548694605523532, -1.797514175798558, -0.5932499146262475, -1.417413412139972, 0.8422988463627435, -1.4784744337645093, -1.815032805362241, -0.6891267888887983, -1.3067092447168946, 0.5386149327917508, 0.340332959607686, -1.639664183534647, -0.711230801680534, -0.37704457286630577, 0.5540482591704463, 0.9311067217248802, 1.3171758466731696, -0.07905835141160708, 2.416216713280758, 1.1559376530364265, -0.563330727752718, 0.13215388038489792, 0.49694628160161863, 0.8069818745640943, -1.5926989527701516, -1.3224089962597267, 0.7529905157790633, 0.3191132918421644, 1.0100327697667055, -0.3293281654983725, 0.3276848893583919, 1.2254068182742577, 0.36372022896112877, -0.2880600571473307, 0.26067857125988997, 1.4192398287587413, 0.5397385894930128, -0.4439327419884834, -2.6728056353525305, 0.427057684813341, -0.9251225618618745, 1.4861958896969358, -1.2084365198285005, -1.070728942508616, -0.9798412086209728, -0.02584549843674184, 1.2856648422977506, -0.6338948722707698, -0.7701698307906178, -1.8426051281423532, -1.59730972968391, 1.5519610887372453, 1.1237719888591218, 0.2104542180498708, 0.13371524851481184, 0.04427723278672159, -0.2900313316585052, 0.6940324222287056, 0.7734087805864136, -1.6297376534807426, 0.020802265710169243, -0.7950377730361436, -0.4967650272525579, -2.3982302741519304, -0.5664773570192222, 0.4429619030522909, 0.9761781461382462, -0.890291085468782, -1.7556195811580306, -0.4601999495291488, -0.1845451414738313, 1.1233624807218043, -1.278700508857601, 1.8041827083969346, 0.2047838983476461, -0.046620463296003466, 1.8446280927431489, 0.2902961860011239, 0.48055041624164313, 0.5483309175716602, -1.1117693029211808, -0.5744600864297781, -0.190982496419171, 0.23490675183044785, -0.9282744704886046, 0.5976387464938289, 0.4945389734927185, -2.4055155273239697, -0.9978549791987893, -1.514773163297839, -0.6358283857415521, 0.3109112568907416, 0.09450792859840464, -0.04742273541003042, 0.889341638726987, -0.48424945543765896, -0.6836471265075382, -0.5390602039727785, 0.5758766902797204, 0.18965289162314608, 2.2875961055689693, -0.04321438029514297, -0.046408583922233015, -2.5070231057187926, 0.8967497049274037, 1.2514962704029435, -1.8840264241638194, -0.6696487476127614, 0.05605498718452305, 0.8879469350112197, 0.5404396651625414, 0.4308271698896911, -0.3892257188693686, -1.2229269535032108, 1.6345853246521833, 0.9592905622975566, -2.620325087367431, -0.3736286093056447, 0.06152037466661965, -0.8984037739972225, -1.3546423046705127, 1.2614471510924559, -0.09187681661853801, 0.0952272417086215, -0.27014013654107905, 1.4505646913868588, 0.7243387449845127, 2.0458160082513346, 0.6162999490095009, -0.6614634451823252, -0.45008109324543244, -0.585978766607138, -0.24132726509340377, 0.35479906816940565, 0.9311757124774025, -0.3579091702880627, 1.9776680670890845, -0.30454155524068055, -1.5028707930867846, 1.0978441926125913, 0.612538951991586, -0.97433594499351, 0.3061454198634274, -2.1654723657129917, 1.1053305696516118, -1.3563632086437278, -1.5973339241722777, 2.14992836323626, -2.1735363546252473, 0.7111459106178252, -0.7366742466465248, 0.7251093522047313, -0.28724870928475515, 0.2447613271242235, -0.6036531517421104, -0.3940069595665171, 0.8869981057414388, -0.12637059291336555, 0.8423275446908972, 1.9310765006905033, 0.882442111897457, -0.6012972607276525, 0.4895072860548809, 0.8621185884637652, 1.131596587507324, 1.008468219586592, 0.33620116319116644, 0.24841133351473352, -1.2699696125307418], [-1.305682832122389, -0.18783322962915444, -0.46769231988764415, -0.49474735328962266, 0.0801870785381398, 2.418289626700442, -0.2030567312540736, 0.19102640596230927, -0.9978393922667949, 0.33945547443515706, -0.6366940700935436, 1.0164043423380529, -0.05151022189355036, 0.23167219669157604, -1.35118856067505, 0.1470831300186583, -1.3534868892004823, -0.2625996067001697, -1.162490422538878, 0.20322426077021521, -0.7030468582466369, 0.11832468597959313, 0.6985434869637799, 1.5719247413995991, -0.53315832312214, -0.5495265913005001, 1.352375995525119, -0.6587647063166234, -0.5260701885727828, -0.05855905369052271, -2.337746670777001, -1.5748588484607813, -1.3960758870219299, 1.0994329194219983, 0.8054762490634236, -0.9526182757782106, -0.11847527240937777, -0.6287554156117118, -0.12830882167408117, -1.073223288959075, 1.4848447886747398, 1.7175251878823947, 0.5046754226482946, -1.7531448793654478, -1.1821737832945012, -0.17809919017155768, 0.21633213674474855, -0.06672988071877614, -1.4041440808288073, -0.2230745633650833, 1.092475937263197, 1.8574803386002086, -0.8530803121066339, -0.6392019718499621, -1.324177644680322, -0.5209835078940385, 0.2007721139892524, 1.8649669117803684, 0.5274286524128833, 0.43065089724511274, 1.6145685737523632, 0.8341305713782123, 0.15625428338376768, 0.014276835622342585, -0.6408731132747413, 1.077261756055645, -0.19858856285765472, -0.466445013645618, 0.9389064478095138, -1.5049659753248594, 1.14605201347144, 1.772390263976568, -2.124571951766562, -0.9274590470862218, 0.2686654010493117, -0.11495689621690892, -0.3559183929222433, 1.170523720120625, -1.0415261645281795, 0.9705779268444484, -0.39095005887993683, 0.7071177513696343, -0.9906702030107204, -0.4150060223249389, 0.7098274796911195, 0.23270526923790888, -0.5258983454949159, 0.5437618949782544, 0.647622138162951, -0.06794269013078785, 0.6656109589076524, 1.0447905972461302, 0.5454236924839206, 0.44066668690247557, 0.6497069387706897, 0.9198341461805422, -1.9919216122778527, -0.1348376908725908, -1.9505336289973292, 0.12261226079579673, 0.8500391342854964, 0.8345222783316452, -1.0735758080919378, 1.9807613990642383, 0.3897073178066604, 0.8574627944474729, -0.056529431407767707, -0.272633042772619, 1.7034482634782118, -1.3192504769798483, -0.19736376200598885, 0.5106316036230045, -1.3161505280719323, 1.4143732115248535, -1.2809716086580036, -0.42455002929883223, -1.3278089277386607, 0.5279322412435499, 0.4600790327624043, -2.123716604054018, 0.7802547180608889, -0.47614754171285906, -0.24650126282059878, 0.7060079749730033, -1.3613634105256964, -1.2982129016279673, -0.4490702610690417, -1.1964786439082629, -1.6279067422932074, -0.22369317237393943, 0.9663362045008042, -0.022782861669704647, -0.9251104804684223, 0.2710704126213551, -0.376178321615381, -0.1467737626714388, 0.663979743894093, 1.5187416459184735, -1.2173045111979646, -1.0740483458930352, -0.3979403882620639, 0.5309683272735266, -0.288398572375705, -0.0372301967167018, 0.762472753394631, 1.114247806074106, -0.6988963091749039, -1.8632897929448398, 0.3852875179364017, -1.1149435640156247, 0.3431300043059744, 1.4013720870756854, 1.34028239473668, -0.2474477598501573, 0.11582743213673534, -0.4481210272534919, -0.1648089744953988, -1.866878883289119, 0.4313173756722426, -1.376679379293838, 0.36349908330674474, 0.11662161022930974, 0.990885944834157, 1.2411091017405482, 1.3143872079807795, 1.6124209219636825, -0.24535613911928267, 0.25729860853237496, -0.8594862429067592, 1.0462242095880039, -1.7883590734714885, -0.03021153579409387, 1.1642323593760056, 0.6073205046373826, -0.09036629929918602, 0.7237099819398641, -0.3110978050356221, 0.6760518390700709, -0.10644827884423601, -1.016717677603697, 2.4713630936403828, 1.4647450333972822, 2.7969112220150882, 0.5823364729356572, 0.671106567870023, 0.28670720955564094, 1.928692357305043, 1.0036510847994176, 0.7450332851306785, -0.35080129046756375, 1.1857145373844953, 1.4089286938890375, 0.5962516012225948, 1.6149124384747517, -0.6958318997385666, 0.2581004940670118, 1.3999382540369814, -0.46113806280276576, -0.22853689993882248, -0.8812367768928093, 0.9155781592867848, 0.4614902796044316, -0.7420632044307158, 0.24092472269918502, 0.6180199223978168, 1.703103457903042, 1.1211728931892408, -0.2902038352374588, 0.417691659670049, 1.0996574739746543, 1.0961220047272573, 2.3411879407466327, 2.0843727159834606, 2.1651535520381153, 2.4470571011964863, 1.195338523291419, 2.1203030413826, 0.06621716437096771, -2.9193145720119937, -1.3443896403353615, 0.9210662636723213, 0.4889124217620138, -1.4587500187974232, 0.8809460090016058, 0.3726259214199795, 1.0314026883147132, -0.11731220395485886, 1.6589219000828799, 0.9694774151309178, -0.6844746585274971, -0.8667668873961782, 0.24914368688732985, 0.8097528756932232, 0.5497512074440702, 0.041253450772443495, 0.6182248145255419, 1.5136407269764256, 0.29505043394027214, 1.1822546819915245, 2.6659528262023042, 1.1328737848211672, 0.48746391265797506, 0.2981085507624384, 0.039038830091604526, 1.2206679634323974, 0.28761460977377745, 1.540130962243166, -0.437082795194327, -2.2609060004736685, -0.07225505946511242, -1.2308555126152934, -0.9727030319362358, 1.0775729869193593, 0.509312524771784, -1.123740417846177, -1.1411343498555016, 0.7719741504287689, -1.4722964239270755, -0.44385266716714467, -1.3012464986505548, 1.3639125855653385, 0.45266603738780536, 0.6958588793793629, 2.365184426215455, 0.6983032321400522, 1.0189826425078599, 0.6627548794936409, -0.25204495321986414, -1.0031932794146254, 1.2911210713728702, 0.8511707187402799, -1.1009749840614527, -0.3850517628895068, -0.0050691473719673055, 0.3445762633145961, -1.2376728664880796, 0.5005860586547346, 0.05289139348219688, 0.2629523387886213, -1.4807923383583186, -0.3901492091830261, -0.6018419960605523, -0.03699137787506762, 0.8486076379218711, 0.0553396529549053, -1.3602042573686846, 0.24043208363271099, 0.12057330502024106, -1.1388903630297413, -1.0142398508939172, -0.6721042705450809, -1.7245509894527007, -1.5963131173869713, -0.05550100907636097, -0.19360623675623867, -2.3798813360334488, -3.1954023104458327, -3.021886791653388, -0.8628607631885818, -1.2481497122876757, -0.37054820021182977, -1.0102098302288247, -1.7008956723942443, -1.121982363547809, -0.8191250676536931, 0.600348458631207, -0.05189783446650965, -0.3655663306391224, -0.1320168664862259, -0.1927297074536287, 0.7292330776699217, 1.249364624788781, -0.04575138244522314, -0.7481370465315416, -0.23590056383799635, -0.8275023060083466, -0.05064614405155176, -0.23468691902199376, -2.0983192683888623, -1.9204190300433814, -2.6287357750029225, -2.5364997734282975, -3.200321245645869, -0.6834889843021316, 0.7790811214233976, -0.5170345280487864, -0.4190025689785747, -2.290581157640359, 1.5891395574479636, 0.6712511992440794, -0.8108354448428217, -0.5100131129274769, -1.3074779110799386, 0.23489491949540509, 0.002341829732375235, -0.0331961164503124, -0.90089297945186, 0.5336702023512351, -0.7429314358422503, 1.0432550839611927, 0.4439364187657975, -1.1463043089581044, -0.49985989946045417, -1.3954639941206899, 0.8476066573130739, -0.04138808471094159, -2.713541561989395, -0.7692736050612243, -0.38334484000748725, -1.2014225849383784, -0.03873982679663719, 0.2871248965929132, 0.5952477262839955, 0.302856835669935, 0.2029120511334611, 1.299272761021037, -0.9958268953623451, -0.08711634344756732, 0.5749294111741886, -0.053220703142280404, -0.7183677582945207, -0.9764538792710762, -0.8374927209375868, 0.39712142547253754, 1.783343051076067, 1.177872434913698, -0.3885244531251138, 0.40288915624646643, -0.47885097798791515, -0.6656048353679601, 0.7055902559017165, -0.04904839007296128, -1.6136213227706226, 0.2574310967378939, 0.9093949239857654, 0.5765492063097848, 0.38619176578729997, 0.07710924091339742, 1.8558938072864148, 0.956933858289959, -0.058039307276080344, -0.013324033202184088, 0.27583670362274093, -0.23909906312937368, -0.26519263747081206, -1.4058767027159602, -1.931568406511228, -0.6467336995970031, 0.3134744017440037, -0.3214761192150103, 0.47936302085229243, 1.877758094876869, -0.25572399154999836, -0.25040534888988486, -0.48364875236034627, -0.18802997202729826, -0.4949300621590246, -1.3215759449257263, -0.0012451081470167388, -0.2810438868982824, 0.20186366500231326, 0.10540476539314286, 1.363064516721693, -0.21187267333807927, -1.489194851433713, 0.21015188215418704, 0.39344318061517575, 1.0247022650285782, 0.7165021825917862, 0.8874020119627538, -0.01985484698310578, -0.656269502198982, 0.022582739444925597, 1.2891207702646086, -2.455328064941221, -0.5358842365817977, -1.6681933672767477, -0.9948414113022935, -0.8936400919164221, 1.269961574489799, -1.0942630401253577, -2.0614378995727027, 0.9235543444846334, -0.4692122736509645, 0.23179524792778589, -0.6841952413316219, 1.0697474406333194, 0.02581664497877045, 0.5401153177018122, -0.34544189613570575, 0.18514282573886762, 0.2684523967259916, -0.4212744563943281, 0.7334191085227246, -0.6132523927717856, -0.5969556680715218, -0.04364813305200404, 0.028486355981231875, -0.6180815339401154, -0.1482008871116048, 0.7370800985267645, -0.9733236147432905, 0.29446448529562735, -1.1554723976849006, 0.35009359923176936, -1.173412303810592, -0.10639044426484229, -0.3959990229154032, -0.0911120183197101, -0.152654140632548, 0.5449386404892208, -0.3125490657083103, 1.2977058619893997, 0.6879604553644721, -0.5459739755170585, 1.3572728785683432, -0.9295710022354918, 1.261545137788992, -0.10093150522899999, 1.3715548656607994, 0.10542360467702891, -0.6096167392446717, -0.7603205467562081, 0.5736680822426199, -2.021301863477826, 1.3225476358493171, -0.2506188059122653, -0.13752860822411803, -0.666934598293756, -1.9563145632608647, 0.4042353859714797, 1.3018965113938552, -1.1873164997429482, 0.4329724587546942, -0.3559762762374184, -0.42777814271547876, 0.4919287350845403, 0.46786940931869303, 1.575432993202243, -0.4000478945868871, 1.4948183667857675, -0.10503192613458534, 0.7253194051794506, 0.287743976073115, -0.19864233345355917, -0.18719647322774355, 1.452687881949307, -0.11900953146122457, 0.10724366755896968, 0.8252238874396485, -1.4016692701807358, -0.863414889403141, -0.059213155145860105, -0.3054284207908804, -0.5198596559120725, 0.04066973878936661, -0.24871703443893878, -2.4292074112017428, -1.4374911830238761, -1.9143780823709577, 0.9023082044724441, -0.20362523535888433, -0.21047698299108109, 0.7405970526324068, -0.4087938169133568, -0.8357580709453583, 0.3111179427982399, -0.6955813005329846, 0.7554307231447971, -0.39671194462744946, -1.289236661104942, 0.7860973935948272, 0.2392677494103205, 0.133195277925285, -0.34464513030013333, -0.6542503290914252, -1.0509989689215307, 0.8612890892655461, -1.0613540644843216, 0.9921097886000279, -0.19356042482015864, 0.9410501842437279, -0.12883350035025495, -0.5784076849129907, 1.734578911005052, -0.50412845847463, -1.1980744586079783, 0.8686575214659917, -0.8771236964004778, -1.6013846962041103, -0.38625655655588875, 0.979939228881633, 0.09693448114058108, 0.20635062817567756, -0.13692433002925952, -0.4084631023999963, 0.5681656839944149, -1.0161000215225677, 1.017877665160281, 0.5345106486787957, -0.17998864045564325, -1.511763416074769, -1.038400079210483, -0.19234011345224217, -1.1703456231253722, -1.0093640077510984, 0.05057148681846993, -0.4691482919267046, -1.6652786254117737, -0.4095363694033605, 0.6325387658260877, -0.916315051021434, -0.49338408419413965, -0.971043059212651, -0.9649344201225428, 0.5028590645614563, 1.4662186717192542, -0.10257265156745649, 0.23577308925615353, -0.14813813525604058, 1.2053971805563486, -0.8725807576627006, -1.0575047985376953, 1.0762680249598902, 0.4749153427526621, -0.7810388553612936, -1.5653413415851731, -0.5815953207389567, -1.5058694969301096, -0.9093205395043183, -0.5609623327663242, -0.8964850135927065, -1.0177145671855565, -1.1472268398755299, -1.5266368248487328, 0.1739032421622416, -0.5811452218103506, 0.584837737340872, -1.8751089012024662, 1.0736207390625099, 0.42113822820348074, -0.357052136019974, 0.9099117959495722, 0.46887071477611386, 1.6881032784393124, -0.014301811982453295, -1.313044960431756, 0.3161399734216062, 0.48106482829616265, -1.217400032569452, 0.07418564926752562, -1.3167023954792227, 0.9983207873201209, 0.5380861940975762, -0.8504424156003119, -1.1597178964100643, -2.544138267223822, -2.817828304263134, 0.8058262108935345, -1.0822932295387722, 0.8377250001116435, 0.6365007371311046, -0.1244634659358227, 0.04338549054085239, 0.7135603540980634, -1.1221719492307922, 0.27063628502892106, 0.475551264838982, -0.240007193288793, -1.4003232601577167, -0.11273146337266045, 1.1522095072369405, -0.2763471438618967, -0.3017346279912008, -0.7056945366406108, 0.4290896749925867, -0.128304691772049, -0.36302681769590106, 0.5225777585237944, -0.3133479011286131, 1.3645518107755312, 0.4410348869401656, -1.6998850520113495, -3.6436024800794113, -1.5427335700833251, -0.2639068492737707, 0.39852912045124694, -2.8256016965637945, -1.625914104711061, -0.2883948369102806, -1.0042960924785225, -1.9870598748735624, -0.44246250522733926, -1.2413130711639435, -1.6488928960211409, 0.7508024884546639, -0.35710880972038495, 0.05049336009901989, -0.09175022488344059, 0.7766271683370042, -0.3881013224826504, 0.6772157918869149, -0.19467283370343005, -1.0023319067589116, -1.5390832110360375, -0.4891163195599981, 0.8138579051420827, -0.019138180488995314, 1.0799180297027136, 2.2344003574716416, 1.0783961268844622, -0.023260512235262824, 0.6242017029428054, 0.49164929987304423, 0.12387299392623953, 1.364604230579954, -0.3291807683545533, -1.0859173973144092, -0.0783630775026541, -1.1743859074042295, -0.2843499248337583, -2.5408615078009755, -1.788811826585931, -2.110284845971305, -0.28063188302718667, -1.2001839773656593, 1.7200192385161854, -0.3319873451293638, 1.8743425220741337, 0.5894310631189912, 0.5959876134800005, -1.5723829827096452, 0.2377929593779335, -0.10047164641452118, 1.0204658929372918, 0.4810066209895446, -1.0987428966696724, 1.9635544580002813, -0.2914500986604553, 1.3843267633534808, -1.2968045232384646, -0.22483108294218557, -0.8852766332987441, -0.06281357969198256, -0.4639284702557179, 0.2829368719925186, -0.36756469855499124, -0.3327120359770188, -1.605038612340448, 0.47465062855257123, 0.18608610951352977, -0.5032383627583792, 0.35698556260690806, 1.9513030877913373, -0.22583558756194824, -0.12998889134315858, 1.9141568487090053, -0.5449653459994369, -1.0194990140087663, -0.012075851388484996, 0.07451683362369536, -0.24917163823996055, -0.9217598640705584, -1.8582671106649205, 1.041727247416911, 0.06727463640917745, 1.0856192441520987, 1.4826549484790943, 2.139012107766263, 1.3819120379466963, 1.3361947554027767, 0.4904764266763747, 0.92723816279276, -0.0358249394172859, -0.6005655403650679, 1.4802082676361479, 1.315476413316229, 1.2642655542515693, 0.8121367956886341, 0.5078728640432605, 1.4382715268196535, 1.0548577056001576, 0.7011660917540788, 2.0129163179289575, 0.3740493857121534, 1.284531197128155, 0.7921803289594176, -2.6621460338262968, -0.8266098226190101, -1.4074568567732082, 1.2211846522741086, 0.8943851553381948, -0.38727219039809674, -0.5137209950281854, 0.6808496140250302, 0.09285309818201222, 1.0305821437232348, -0.6068636748686549, 1.1370079501708859, -0.39214877545953447, 0.6571396221650639, 1.1398658035081393, -0.4483727419578968, -0.6827027487383779, 0.6769990127882481, 1.8143992723102682, 1.5879463259102387, 1.0223353763745926, 2.4811420436834575, -0.614138691196057, 0.5877009262172953, -0.12321120069940249, 0.7700647813426545, 0.5353058000569945, 0.5550809790365322, 0.3511083569619223, -1.6868280029707916, 0.7933957804428744, 2.456419101257134, -0.2895035753427777, -0.9837653972889625, 0.9240558940317888, -0.5571113762687198, -0.963632717937126, 1.4413023356550425, -0.04340394679919252, -0.8695913313226467, -0.9682901312356739, -0.9780239923002761, -1.003248105430332, -0.25419307402139946, 0.4991376759343931, -0.8067768374376327, -0.11618057944434283, 0.664135147444607, -1.7452874487195067, 1.0726692214263225, 0.44260780671534083, 1.1185501415258368, -0.3535401267001961, -1.5577640041808896, -0.23761611083985384, -0.050826750341264805, -0.773037998307595], [-0.3892054945536154, 0.9134025876249678, 0.42484715635862536, -0.481923995653113, -0.7777131925457289, -0.5653889126152731, 0.13072978950919178, 0.5298139450527402, 0.13042088928909812, -1.2110767734720043, -0.1401156180989676, 0.2703985615589789, -0.7659951759419907, 0.7632452065077218, 0.004430238675780871, -0.2507952099884778, 1.0786774846069291, 0.37513061088467287, -0.06945612486105388, 0.2967442299384822, -0.7343104911025186, 0.2910532823024181, -0.7162112697804992, 0.7520170458848776, -0.484786856330902, 0.9981741627264084, -1.148889681394039, 0.6031688191732425, 0.700994140986222, -2.3592415596390093, 1.3820464371238046, 0.08593075737330542, 2.4402891102865447, -0.9922221509460183, -1.0515243741783944, 0.5578044360566489, -0.12940294843503358, -0.8346698593921924, 0.6975105076082153, -0.66259231372656, 0.7820436106407785, -0.2312327151583799, 1.0401733289348332, 1.592283007104835, 0.6993339530454041, 0.26553696443484254, 1.7187709868458327, 2.1586211568372047, -2.0284886505282187, -0.28339658122708244, -0.13916681346107831, 0.213377644617858, -3.113002999853488, -0.17671969994289163, 0.1943261984742498, 1.6043347516057747, 0.612365241271242, 0.26367934993197406, 2.185886918135753, 1.1720528957954106, -0.2099621624937092, -0.0073192528178462795, -2.1115032921129946, 0.4939889768740207, -0.3349441041594825, -0.13636259410749632, -0.8139374059479004, -0.5660837794126343, 0.05655393267273907, -0.8281319242074104, 0.39004928247570037, 1.2660359518692768, -0.14526026753955987, -1.9313269966055768, 1.1856169238837664, -0.4318384724305777, 0.6866057105415918, 1.7700972030807534, 0.7863644630195422, -1.051789951111404, 0.23744256715737488, -0.916949183628365, 0.7837121921245219, 0.4891565315076926, 0.47985503184764433, 0.11801396115984744, -1.2192969502913025, -0.06438774833456998, -0.0006299277001968538, -0.2164210563128646, -1.717238788209731, 1.009290882032274, -1.8889854312122916, -0.5715156387149334, 1.4515253166338693, -1.4076110044408188, -1.23676267500823, 0.717738977001437, -0.18162034698762233, -0.4032111377961513, -0.09214821523143078, -0.21794368486650292, 1.9560252391033564, 0.09300712256693293, 0.7711140226724315, 1.9045270824016607, -0.6053545766972591, 0.772333008532901, 0.7316291175661518, 1.746500480277156, 0.2663896933134288, -0.9663577834673805, 2.0727628636418682, 1.0177630942691402, 0.8956078099429418, 2.7733946832656766, -1.2044468919803286, 0.5737257900197335, 0.04695557264225045, -0.3335983038717378, -0.5664702248691001, 0.5861793918254974, -1.1375423595977794, 0.235410006289594, -0.7034421336143724, 0.08323942826393244, 0.09071373528961901, 0.9223524722809392, -0.9716731116479462, 0.7457079218131958, -0.40428251492617323, -0.3545052016378886, 1.455972645897388, -0.5765205513793513, -0.16491265329324598, -1.6907000475984724, -0.4955112332983425, 2.5221248478754577, -0.4786026365825929, -1.17557967653167, -1.617789557810142, 0.27059977277782665, -0.22760944070120992, 0.8267912654909081, -0.3828253746514921, 0.5551722850694036, 0.04386947380409422, -1.4714289562438936, -0.44412784805833583, -0.9612242047934694, -2.436495705495533, -0.018139157966964196, -1.3614263669132753, -1.340988844411869, -0.06575882379854465, 0.41367290867603135, -0.5128114994613038, 1.1386370379310444, -0.505527783168629, -0.178172155854827, -0.3482251021085123, 0.562405777225758, -1.3095935052788958, -0.940192384408791, -2.142048079877093, 0.7592475768862617, -0.10772869100115198, 0.37933624990644516, -1.1430652218594364, -0.013478046137419961, -0.25375901654149896, -1.6983389461575267, -0.1624632686853613, -0.13155058203205713, -0.5648437124580273, -0.9809094954012426, 0.2863762286477431, -0.4936035766612652, -2.3056524208096802, 0.5866773744367925, 0.2139526988848384, -2.1079219901548876, 0.4838828510878126, -1.3927047158259398, -0.7989440360387836, -0.6792618806479456, -0.31664747045464997, 1.3297199708823375, -0.2529123418431938, 0.6817769059453814, 0.23334352285594934, 1.469733718262638, 0.1672800173561429, -0.11002072257699431, -0.10188877402131565, 0.6777436068085111, 2.578874901110782, 0.7132841377389793, -0.8463595836889887, -0.6498168607433592, -0.04762240007518386, 0.10108118203970208, -0.34998967114229484, -1.3570814064837826, 0.02667761337056221, -1.0210092806078386, -3.1869108176941694, -2.1173076392264782, 0.5217704011763086, 0.14331297290964898, 0.694058678656712, 0.7748322795832604, -1.3096334719636944, 0.27637594233212215, 0.36767875921031373, -1.375290382773822, -0.09821452890589126, 0.6477463492023368, -1.0197491609346319, -1.4486017872960173, -2.6427542690637384, -0.167769572942554, 1.0356553961759194, -0.5971586858809587, 1.6385002077627777, 0.20661473969789104, -0.26759006289429105, 0.22378270798340272, -1.8230357321630417, 1.4776741156710202, 0.14355538792750341, -1.3396680786355468, -0.46161676086630016, -2.3928312222756873, -1.0701138009875235, -2.6835698727300015, 1.7430150899848083, -0.9750025340673781, -0.7156402345525023, 0.09099599845173781, -0.6090465093756287, 0.8461056251458895, -0.5632482642659494, -0.3628354488065068, -0.18429928904100434, -1.1809177298356068, -1.1365603685362957, 1.4909740804481224, -0.2978559282437338, -1.3689124887724533, 0.675834250113864, 0.3430314314216599, 0.019822444771156016, -0.23111470564116224, -1.6073303169418618, 0.2916856020839869, 0.3535096951732883, -1.911852457248883, -1.2558482046234727, -1.349047705754226, -0.7529725559720348, 0.6090492120211358, -0.14341721399633353, -0.9634558081483138, -0.9992104593083704, -1.5897768917488713, 0.9844143008796852, 0.6959691986262934, 0.08799629967217511, 0.9144976990307969, 0.03948106611620418, -2.0206786628346394, -1.8849121106712998, -0.6260177499761853, -1.1417098112160209, -0.253977361583898, -1.3333171761892855, 0.887229269397235, 0.34529641064713307, 0.6484624074478276, -0.6210920007310905, 1.3547536946881937, 0.4781498077453397, -0.431206339606987, -0.744573068904176, 0.28310570007837943, -1.188369523365777, -1.1887599900265706, -0.029750624623308766, 1.8110902045281243, -2.530124832840497, -1.5245796232337312, -1.1790973260200757, -0.5096057355116337, 0.27529258540045526, 1.55274800051287, 0.22703757906768773, -1.2719193027225122, -0.8072337942763915, -0.345531775364002, -1.4875267594445547, -0.24381354607237327, -0.1879065724435866, -0.033932030070075836, 0.20454027430889268, -0.10180583729377977, 0.6646545766062855, -2.324500192833856, -0.32407511260863775, 0.6858035864147175, -1.9585434331107736, 0.3791922716977198, 0.44643410556941066, -0.4530108068980899, 2.035366910634824, -0.4464865860604827, -0.3128690607744011, -0.8283861051387308, -0.45879593509893346, -1.4086090923023844, -0.7550624309670495, 1.2292913369425118, 0.8515303015126164, 2.122855822864361, 1.143895809191395, 1.0232277566975256, -1.953485952201939, -1.3046334355306992, 0.22280349136819005, 0.07140037860787586, -0.20835429300549038, -1.4913201983804927, 0.8177338970835751, -0.3266315107670481, -0.22589345160508895, -1.0529349100755794, 0.10484246091856256, 0.01994544156413578, 1.404868126936908, -0.38174978296137085, 0.8183595858416232, -0.23291495432438938, -0.9310489525624096, -0.09107378444373822, -1.250656755341856, -1.0858475668203644, -1.2382637903765343, -0.650478835351341, -1.135243886079027, 0.3215135261000244, 0.8211387681382271, -0.01732522199345931, -0.2151856038685215, -0.5977619212712763, 0.1563234580849898, -0.4426994708830337, -0.1940793008276266, 0.2106136937429286, 1.6267333061310703, 0.3352322203720783, -0.4449996585645469, 1.1318143506663945, -0.5272213480443728, 0.46030309721834467, 0.7976849092202449, -0.14550123323408892, 0.3871146920095871, 0.8486781090815194, 0.4764391524616659, -0.33190354004188327, 0.580607221202184, -0.7610415249567135, 0.8416556405909621, -1.079193588711956, 0.24045284880703907, 1.4446356968158272, 0.6762718720497954, 0.7661893617455388, 0.06563548090642216, -0.7839666969422977, 1.829040912395726, -0.5014893011925814, -1.6359086525316595, -2.0598138225249705, -0.08002204173035982, -1.303575352323374, -0.6345024959145242, -0.431309432133398, -1.5664407514758762, 0.9429052366983879, -0.3547196717356946, -1.670063816811969, -0.830206754192273, 0.8925492087570889, -0.08278588974329247, 0.6918897168256087, -0.5760160107681217, 0.385447060935301, -1.5030505157509624, -0.33991543872258784, -0.17909192844882832, 0.7802351415926978, 0.9676616166229145, 0.006147365631801886, 1.5762279856825439, -0.21084662620087904, -1.1682603737849062, -0.3479648536758748, -0.15826147037781133, 0.2848214108462667, 0.043674842810392474, 1.0685751194982436, 0.8935524843232224, -0.08547858029317953, -0.44061062891410435, -0.27311940835931253, -0.8640365508078812, -0.1635191854157214, -1.9188177114041147, -1.0596322829271692, 0.039611537065750275, -1.0977372676337982, -2.2618630671472912, -1.0833145011325123, 2.1845173840964773, -1.3317782302299939, -0.7509305574533903, 0.5802664790316168, -2.0600981131173834, -0.23321783803935883, -0.22178753510154417, 0.7300988156551668, -0.45208978737966987, 0.2593277907558623, 1.119371422462189, 0.29121839232550784, -0.2007016065105706, -1.5391158880760156, 0.6524394997508544, -2.0180790447725507, -1.1343450453719763, -0.8208748071513163, -1.4387423108527035, -0.12273560825878391, -1.6207608006641419, 0.6928299750398167, 0.12174687002619777, 1.044527258153765, -0.7940409475406643, -0.16224014571721707, 1.5935312594322018, -1.3212490777007255, 0.8816643909378402, 0.7136143282261471, -1.7317688660885335, -0.4747066855896932, -1.418422399110825, -0.5132604675299601, -1.1991395839298449, 1.141635820126709, 2.546675642765745, 0.6694897168813901, -0.0049441591084314175, 0.6237621685909477, -0.4479937103678435, -0.2939456783381644, -1.8766011679579075, -0.2637190075464476, -1.188584936998714, 0.003948409826699792, -1.0495501153037796, 1.480060231578461, -1.8471456150404415, 0.4818438283351115, 0.4550436977860008, -1.2558841970310488, -0.8392748061785914, -0.3974457876187482, -0.8742213825080818, -0.061463197806097436, 1.2871770214988623, -0.7454400425491154, -1.0065810408452185, -1.4916183436369088, -0.3145798999478545, 0.6574152425928828, -0.8982299943284858, 1.4893473641891926, -1.7021887048667066, 0.45330556388813736, -1.63817722335674, -2.0711226738927455, -1.0817463087087116, -0.779142125928884, 0.9704909147907301, -1.5453017121833272, 0.9958066429676065, -0.11335067352124388, -1.5070076875353862, 1.4772432821548045, 0.5332356140339318, 0.581830599106119, -0.7254393986497135, -0.9350370906638694, 1.8171097096118514, 0.5918155659283844, -0.03090559555916986, 0.6456279125954353, -0.302920194725404, -1.1866012150572733, 0.1621706307625927, -0.4599720344114713, 0.9906011740551747, -0.07608568752954672, 0.2923487971824061, -0.4444435079585348, 1.5656996759713553, 2.185432948616871, 0.045642076054393396, -0.8462669514457063, -2.627138467910046, 0.9954018650519421, 2.1775563162876153, -0.9961824794644845, 0.5695175933324622, 0.9535843701651542, -0.3660538970579434, 0.12982328566643983, -1.8771749075220452, -0.39386769971626095, 0.27272626871159816, -1.7770571625456502, 0.8667001872150054, 0.49252910395613364, -0.5764290129289039, 0.2427158691881484, -0.5817425656499153, 0.09229723134003202, 0.29774479320449443, -1.0658142376228277, 0.25312973200352246, -0.7255071248493173, 1.3160441176217448, 0.3343252470952296, 0.122926294903547, -1.3637485339846496, 1.4887264886125056, -0.8811147688565597, 0.8157995807423724, -0.6232831916638735, -0.6847943012090152, -0.5069461254389439, 1.8381439303005402, -0.2730086236761159, -1.4810930887769431, -0.2462063393361903, 0.9039082024970595, -0.7436249988858443, -0.8542712866395996, 0.17396746877891348, -0.8172148732707519, 0.5936329496047865, -1.2615883031865862, -0.2798692900738593, -0.05461296523489402, 0.5191220529510937, 0.16553192232823022, -1.1440489652168484, -0.8641840041064123, 0.49253648135382794, -0.017309932790927095, 1.4747309840716938, 2.047120082322633, -0.4253358695245591, -0.2844993351812784, -2.6825057014161406, -1.8084707387208838, -1.2616760326454788, 0.3761214926040296, 0.04086236221736058, 0.7539796225223032, -1.8879141631453973, -1.2237555343861815, -0.6717452601648654, -0.28730556111458344, 1.5187384017930938, 1.472022752607752, -0.3372732929579505, 0.2633451149877721, 2.2081473000496796, -2.232839934700651, 0.16366389938536538, 2.6813473525460596, 1.6730229474797427, 0.6946677433627964, 0.5272244680576537, 0.10749296897172997, -0.1714331280308092, -0.1585661359120922, -0.6033073115615124, -0.4983584879447991, 0.10408770694690901, -0.0139215435544426, -1.6292199128361389, -3.3546064902481407, -1.3254569635769446, -0.462462454760513, -0.622537424102176, 0.1752034886266274, 0.418837935513087, 0.39708680414755926, 0.7674801086569043, -0.08436103226438434, 0.24147524185574684, 0.3112748832185852, 0.10242237432858406, 1.266398032904847, 0.4199319033468785, -0.5628947449254124, -0.5430171152470368, -0.6180457826599847, -0.2448848516071011, -0.12903899418059764, -1.009169377855213, -0.3498380946943281, -0.16290225490992155, 0.5090138085168329, -1.6052210628294272, -0.5151955262746273, 0.17852666615197857, -0.12638622513863312, 0.42269523698928974, -0.9783039019671247, -1.3051278353312041, 0.216430034759089, -1.0495384571063373, 0.5925636479300294, -1.105975781851203, 0.8288515465300936, 1.9045443893755019, 0.5549262847242319, 1.2800840255648662, 0.933438131670444, -1.1385910390100038, -0.3768914596925545, 0.4011216055449317, -0.478816502446575, 2.1476445284000154, 1.0214875225351927, 0.5697502917629995, 0.8615001754676418, 0.5139748456756007, 2.128465195643781, -0.8612140432214007, -0.06534728640812125, -0.5679368411755391, 0.2301139885469426, 2.1124171455414604, -1.6615151543854954, -0.9899755381115508, 0.18389795561270755, -1.052847026677855, -0.5199539835799267, 0.6799840115751158, -0.8783898344369028, -1.137907456596061, 0.1441415291938245, -0.7209416880176531, -1.0312744732905768, 0.21707700846986014, -1.3479107356140685, -0.17080654155255243, 1.198039114798158, 0.1522240718015032, 0.27665212166896064, 0.2888731573808456, -0.3749550865592693, -1.695869295894776, -0.9891328347810125, -1.7425472257904653, -0.989538757005417, 0.18219866498076834, -1.4785430544364528, -0.22619146175398278, -1.9725382014814443, -1.4888750444076149, 1.2382050972431116, -0.4727798039427372, -1.6266552390267197, 0.6566513825654302, 1.8043904717465864, 0.28019394669768166, 1.4557904377673372, 1.7406008787421616, 0.4388520680606339, -0.8260751580461925, 0.345768184591028, -0.1548469241516156, -0.571463582489825, -0.26975006701016385, -0.0327883331283804, 0.019149832888172038, 0.09359079148256885, 1.2646702111520498, -0.31965489894228616, 0.08718938288127001, -1.0075201650202215, 0.9621520408630603, -1.09773423585883, 0.042335323013714156, -0.10002133621698539, -0.5834661749957093, -0.2346518306979749, -1.642123631757483, -1.4155597190111624, 1.2170917988767904, -2.303657871236272, 1.103536809778805, 0.6496191452127869, -1.6317021412248611, -0.01812140531260953, -1.212301902507282, 1.8422328518468571, -0.6197023141638199, 2.1437030834075936, 0.9954828014199328, 1.1011385705450247, -0.1940766092392198, -1.2787122353593945, -1.1818192700062067, -0.9934903759442519, -0.3136540216903152, -1.7797683184369075, -0.43517485102751063, -1.2173569157776452, 0.14719417610636892, -1.0064920094156367, -0.858985400014492, 2.4999578480573867, 0.07549286510217486, -0.6801379199812488, -0.1617730967627366, -0.42638780791915765, 0.37088904624318436, -0.28828485132690146, 1.5114085541847924, -0.8080915680406234, 0.39756830153647843, -1.5247200752890087, 0.4221382269194472, -0.07936149246905813, 0.06645762743582312, 0.826130194667273, 0.5820599283123659, -0.828702929417296, 0.40660709449085336, 0.35580782398537236, 1.1376438788915224, 0.9014373511408001, 0.2371517492814437, 1.0988168302312316, 0.3070275240849132, 0.5905726329018232, -1.6613666101810414, 2.5607079554618286, -0.9151245962112964, -0.821297709876094, 1.6603616151641105, 1.1536294251945893, 0.07323171530524518, 0.6948202186946005, 2.3255314367875948, 1.285981653643276, 0.35822101507456044, -0.687221101578252, 0.1491643330760524, -0.7525024438501926, -0.2570903778247721, 1.059100684802093, 0.8776675486603102, -0.2466186175900379, 0.9539843275046915, -1.706957997013842, -1.0787567631621013], [-0.09680473578089441, -0.7424448320764115, -2.3161377469890123, 0.14251482301404161, 0.7655662358582908, 1.7037851216024553, 1.7815546454717666, -0.16555265084211598, 0.6162503761034497, -0.6951448681377986, -0.999284496555038, -1.1557806115489357, 2.4628530774046857, 0.2775699342833441, -1.5236474203369408, -0.8104173617163665, -2.642568453707237, 1.5503122978959747, 