{"sizes": [784, 30, 10], "act_funcs": ["sigmoid", "sigmoid"], "performance": "95.21", "biases": [[[-1.8588084694531941], [-2.087576308238603], [2.1345990902907146], [-2.782689331104833], [-1.9118691313937046], [-3.382663056845088], [2.013378373904083], [-0.7576571938966091], [-4.790275842773585], [1.699595278212603], [3.131845953888536], [-3.498908715195068], [-0.11717588634599796], [1.522413049542318], [-2.985292458171211], [0.8752074145151747], [-5.336887225480445], [-6.301010333672127], [0.831864942332433], [0.741485590172221], [-0.2651957639528637], [-0.7189729786834547], [1.8253399509152894], [-3.21214608724769], [-2.5633891005440526], [-0.9821596766273895], [4.6966550280942725], [1.9212353471569406], [-1.114896017266288], [2.3413920903304914]], [[-7.069020723281908], [-0.7373227832010895], [-8.07637430515886], [-5.632335414291864], [-5.150953722051128], [-4.478357998205016], [0.3564759413239874], [-4.760872621022859], [-14.083965559485339], [-8.337536386203352]]], "weights": [[[0.1736894220817007, -0.6515648843935163, 0.5276234419402751, -0.5482817563495104, -1.412893021496664, -1.5040789056894548, -0.6645614275083165, -0.3865971675030203, -0.277623911425236, -0.857046307978305, 0.5344448681717808, -0.9800962821593904, -0.3741302866094376, -1.0093849839193083, -1.367645137032828, 1.1178021887483216, 0.6829998537810748, -1.3418716137131814, -1.4570699889130296, -1.1135647874653876, -0.44993148302881586, 0.16348152598261403, 0.3676275005945605, 0.8227349893156378, 0.4212761184797496, -0.4493690734047518, 0.9723076185298419, 1.18342105397973, -1.175545934722367, -1.0161136423437533, -0.37493582583273755, -0.25076319279497533, -0.19887455600665188, 1.8480720817912255, 0.5831618718675796, 1.50460875025998, 1.131617928406573, 1.1089274398558373, -0.24940803716291549, 0.48136310186848325, -1.2376425949305754, 1.4865311424921246, -0.6643816484654038, 1.320947543618816, 0.1167580510058458, 1.6731525461435632, -2.061351316065452, 2.243639140545602, 0.8663688830405429, 0.4951098579481183, -1.7077846701772483, 0.040763534138355415, 2.190739143180571, -1.0913010271915102, -0.8339599264950368, -1.7173002256715617, -0.4222919190214395, 0.911304121821741, 0.585109864838027, 0.8353075052756733, 1.0306461683514059, -0.60741031806095, -1.0494079755572023, -1.7912185888301007, 0.20058703816857149, 0.9383808000225156, 1.6126376276452263, 1.0541953343087096, -0.6682568382900721, 0.0506650780854932, -0.18391436881762638, -0.4675905913613095, 1.6873160898801869, -0.24774437456605197, -0.29189755504985126, 0.14876543344916898, 0.7546732331088898, -0.11842918872473446, -1.3033615987950864, 0.8076562559085478, 0.47414181819432955, 1.5227258058725845, 0.32503162974003136, -0.32112298347240487, -0.7416573818010824, 0.7893226825002296, 0.7529122892283261, 0.011677442913865587, -1.0384444421357066, -0.006522354827398009, -0.9103959177007362, -0.8868173320500496, -0.7077046218907899, -0.14191640449479329, 1.682548656173462, 0.24918521115827313, -0.5622759108771336, 0.478755821507181, -0.3934110036326379, 0.5293594301541198, 0.40327451400151365, 0.9046832710203565, -1.308777175182612, 0.7614240260473205, -0.6766744520780679, -0.34812028108189474, -1.3587989512920795, -1.3983068936028102, 0.485260002126293, -0.21058997492738993, 0.8624071909847388, -0.7255410413128965, 0.09604122158156775, -0.7108725924478135, 0.4121303730237478, -0.14957060529818533, -1.2652821311070437, -0.4559460765626402, 0.2999032825418105, -0.39339130035743036, -0.8558651107512494, -1.7429763336604251, 0.8424656677264631, -0.8405720424030741, -0.7487382333223109, -0.35201562670435416, 0.930609499919419, 1.6843508653325414, 1.4108756830708895, 0.2478817226176319, 1.219312974758521, 0.4960541669505964, -0.42221637427294273, 1.639450017352219, 0.7820799275267343, -0.2464772706789329, -1.076621556989797, -0.8577230056012592, -0.1736303638863978, -0.19917973287569832, -1.141280339738143, 0.9246018838286284, -0.7458259417560014, 0.4540487446941528, 0.24714850036837768, 0.2689737788824981, -3.04164015467704, 0.6502825243494467, -1.5925623195181808, 0.2681974551809416, -0.30038405147089975, 1.5200533291045208, -1.2035726108252853, 1.0382186853575819, -0.7478263361481292, -0.02019915075407117, 0.8205050319067398, 0.483880380667718, -0.07198933858977101, 0.5772877387839702, 0.3863658623433984, 0.5849795298625846, 1.4226497102425508, 1.0553558172165556, -0.6221420156732703, -2.044268817927315, -0.5554181388452889, -1.7556795025266119, -0.50086076306809, 0.6409942068150438, -1.0481809577930712, 0.3609765143230022, 0.1817569048596328, -0.12106322223695712, 0.009481588910481176, -0.7275957472820073, -0.29180066981127184, -0.8349312437380293, -1.0202030459393998, -0.01816692189208945, 0.0019778727954826943, 1.1568883581468763, 1.1334867572862097, 0.9229841544394355, 1.0772963313787802, 1.6409048495715413, 0.7017234319187045, 1.801592932223142, 2.262514220408299, 1.6851715375008607, 1.4448575729518065, 0.4959112851157533, 1.1976209914265314, 2.611277236357391, -0.2724030536464047, 0.9191375589218733, -1.5115864600764695, -0.6159218601103257, 0.9734873165328014, -1.6485441563535248, -0.20272954091012868, 0.960228345890438, -0.20841677558614094, -0.3439680374386256, 2.595818498374054, -1.190326615158078, 1.5357465179514351, 1.322592092734441, -1.6989388466485291, 1.0259463734163636, 0.06551582475551711, -0.08316944802836478, 1.8075572325621008, 1.3234945819637352, 1.7405125616006476, 0.18315298055280252, 1.1011039405180851, 0.38932537332135264, -1.1174920808383162, 0.2815498262326497, 1.0462044363915124, 0.8485856633397355, 0.895800641582591, -1.5894790819116464, -0.4849402876129642, -0.4174593625801206, -0.9351903955664348, -0.06558360626700964, 0.15959228836238668, 0.26459048025934306, -0.6874378377564068, 1.1899771361925402, -1.276022253557307, 1.1448535968447546, 0.6870213524756559, 1.2766584681205342, 0.7770897789437766, -1.59272050708459, -1.2202351898426944, -0.2338104204263202, 0.3380758169887936, 0.4780289766205226, -0.5078414178054959, -0.23436321242078723, -0.671970814139616, -0.5790318734841827, -2.5502817438095273, -3.040675433730091, -0.05641999619066712, -0.9006972186119744, 1.4344372616391696, 0.7401091462846611, -0.007998350253980777, 0.6048918799688018, 0.5163720206778786, -0.6441902718336182, -0.4452735175797568, -0.8711821078347707, -0.3584473783135736, 0.09949010902728515, -1.4968757050780837, 1.5977725196040262, 2.0770745918073867, 1.0286500726540657, 1.7959455227928742, -3.1204210617249935, -3.9956799041806685, -5.045350737414483, -4.949551590769928, -6.145458139269834, -4.52049807177471, -3.6648181589674476, -3.8917853403721496, -4.3938035422531785, -2.8628935884929962, -2.2706980616180648, 0.9845446568164568, -0.6670690796051418, -0.12714884867417423, 0.5039588215072386, -1.7108524845004327, 0.3089079790699983, -0.6802457967107498, 0.7403638073133559, 0.47014299582221936, 1.482340096718198, 0.20957295729278774, 0.8449942251306325, 0.2529090424882589, 0.31582726651426496, -0.9657292932136601, -1.0572983493494215, 0.24974050434189232, -2.285572874772355, -1.5463250237911903, -1.438167477242699, -1.3774547984118408, -3.102178672498797, -2.960997520933968, -4.5472640281343875, -2.4065328146798137, -2.7116610940710015, -3.797371667690986, -2.270459889935343, -0.0029512328927441423, -1.4415715180794542, -0.995267972714395, -0.5847124016745004, 0.5947330209004418, -0.8181951367359033, -0.4497616048507537, 0.42431865403581337, 1.1061304059935604, -0.729549809193215, 0.08858560775976243, 0.9106470345449682, -0.14676074090113989, 1.3765529308064766, 1.114676170367084, -1.2510151678362493, 0.5323559024100165, -1.2170381564347552, 1.1625801312913646, 0.5113421080345858, 0.8545893184763312, 0.6544777722559085, -0.4005454415905927, -1.0241380624208731, -1.1804469889320965, -1.8202309495539017, -1.3421516385722114, -1.6118742702900761, 0.9153267238370394, 1.173759997111981, -0.12663010657031476, 1.2391352190842497, -0.5970770291759758, -0.3877789562702457, 1.0667093242690342, -1.2754524445008408, 0.13654907157927046, 0.7439412631867967, 2.0995645992025938, 0.7824076127676197, 0.3029091030783558, 0.5118855053473179, -1.2336987848046443, 0.41886115629990694, 0.9974330496756695, -1.9134679609596625, -1.3658824259381848, -1.2580162443989344, -0.5169944162693818, -1.8268554807985609, 0.3778801301499652, 0.07027374491880206, -0.9767750820596474, -0.07994006171451033, -1.6253032101677967, 0.04729736566315783, 0.6390382340168929, 2.5340019137850236, 0.6835546087352092, -0.9322510722284729, 0.8225072441415425, -0.02228748534503873, -0.3096747963463867, 1.048215357318312, 0.36304919154898574, -0.36267086700431783, 1.2046829762947262, 0.573145414796554, 0.4782523208799315, -0.7002443224626007, -0.4669674925240127, 0.5801055971231343, 1.1453250812214102, -2.4070090673199016, -1.9622158517784398, 0.6760574442697005, -1.486791411415596, -1.3640495289266974, -0.4647068399239463, 0.17040018034228777, -1.1924222879320752, -0.8859991425191982, 0.1403652891785867, 0.36729517957815705, 0.3675952518202615, -0.9070640043208184, -0.8006303618552756, -1.6151122139881704, -0.008206896797370496, -0.13050416097534434, -0.8220596341395758, 1.179298273033757, 1.114884177167969, 0.24767340055400022, 1.3940324706051586, 1.8005484202694235, 1.122477535254536, 0.3261581116079255, -1.1847706809066154, 0.9185086363277368, -0.703610194820271, -1.4120472446360677, -1.2632082754934497, -0.9159457230557148, -0.7354633855696828, -1.5522178132174018, 2.0821399383885972, -1.4105322981680177, 0.10923806916806034, -0.1197258280430612, 1.4027889363509995, 0.8263856828613744, 0.4388704496131465, -0.486647492664149, 0.359814788882065, -0.16214279441702728, -0.8805920789819393, -0.27044911684072165, 0.4668674167451011, -0.5679832123085748, -1.6187417927987717, 1.4183500670741662, -0.6128005069619431, -0.7240952874054571, 0.881233378233304, -0.11592556791466825, -1.0844914815615894, -0.7308925145722263, 0.19838055342532016, -0.6019700997972542, -1.8377205568639574, -2.0718682139039046, -0.3238927333044743, -0.7963420441954552, 0.10842875254795277, -0.9856867587560602, 0.8386380923510819, 1.9388440555935627, 1.0592702907520237, 1.837274575721368, 1.6050024302547037, -0.04604243069095194, 0.40798018526919816, -0.30443111476690743, 0.008684388631534666, 0.27104426406262444, -1.0784521564138718, 0.7796684102841556, -2.568792221425983, -0.10341010251236533, -0.8727247439292003, 0.20682462503123691, -0.5152975633992235, -0.03828183610150456, 0.8866170258497881, -1.112929833163295, 0.22759796462801424, 0.8690597756985964, -0.8591542275418406, -1.6466028243685713, 1.0322061289367706, 0.9805063031912622, 0.06729275638197327, 1.0608504648251822, 0.114092940267296, 0.829914737690507, 0.1030364750203697, 0.4679288025418758, -0.8976169807017949, 1.687074324356821, -0.7057896795351495, 0.5028213825482433, 0.29519938667939294, -0.11919711404253235, -0.46231349900510466, 1.23792882015317, 0.5194095356591782, 0.23956529287053335, 0.4058165273004813, -1.1584187154685415, -1.3848034248447345, -0.8731876947822755, 0.4151357326942154, -0.8800925042232767, 0.5991427002449334, -2.9358117841097187, -1.0530820501997744, -1.8503146402402764, -0.9899854219254699, -0.5039793712308975, 0.6885276580353147, 0.9018778934004958, 0.5516733953107681, 0.3866264710121648, 1.4589011137089294, -0.19830190193925523, 0.1801311259924911, -0.11797551032576131, -0.49276642050466835, -0.8776656255150914, 0.42197391725821914, -0.08590698576572062, -1.1611925159503989, 1.2012972707855765, 0.89480771296772, -0.4456308693476, -0.7751624326580163, 1.6069403269633662, 1.4230177243197575, -2.087542936219988, -0.9132635046394245, -1.26547841220349, -0.827349300073343, -0.567607760886157, -1.6159487714886378, -1.0157459505320543, 0.9368072758765785, 0.9419291537119984, 0.6065609925349987, -0.13971736020187003, 2.5265699752643718, -0.06692465036585964, -1.2295069923902016, 0.3753222598275377, -0.08724376736094906, -1.6049416785964792, 0.34531331639637663, -0.7723064279520352, -1.4791905766358753, -0.09122052370715378, 0.22835853961224983, -0.2616658305142328, -0.10615653635791986, 1.3154916043800653, -0.1863776772651192, -0.4001216848769951, -1.0390817716672818, 0.42453868891026175, 1.0106305655522472, -0.691998890413153, -0.30307443656192823, -0.06196124886335957, -0.5823934016317128, 1.0987682386094701, 0.27077032835887244, 1.0924272471375123, -0.30116148965352374, 0.5866997833792746, -0.9668992949334211, -0.8468006070579304, 1.1978535056362183, 0.05233895413193233, 1.1874052966270596, -1.908988413770351, 1.4900962705880847, 1.076986072122383, -0.4868175968994963, 0.03368303642838242, 0.6351306351763283, 3.4343182145420275, 2.347812098933723, 0.10570806264903478, -0.4875247236457962, -0.8139773761616094, 0.22816904798575952, 0.7529269170945697, 0.2963587412956127, -1.0707742964719595, -0.5268983011622025, -0.4541141839989831, -0.3841757754204947, 1.117235844776848, 1.964115644075977, -0.5376136362713296, -0.00431046756232785, 0.17716713800662043, -0.21327979091563537, 0.3852592580928649, -0.3294263201139069, -1.3990586684588566, 0.867657144406925, 1.6027495452179423, 1.303713956157922, -0.015850142212205105, 0.7652498650506623, 0.17892283886536764, -0.6383590241387755, -0.4288935357847443, 0.17831380333852542, 0.3551370574120424, -0.46741822066059996, -0.2550210680879121, 0.05775743031345333, -0.4488106470211151, -0.4099547042302408, 0.9425394995501165, -0.13017879783663386, -0.5955558634841119, -0.6607133635970523, 0.782231559541829, -0.09344144778265642, 1.9484478395862423, 1.6195833731163904, 1.5277237531192285, 0.18638242537486407, 2.1089947399115507, 1.433720305625958, 1.0717860660312837, -0.1399508733748949, -1.6785435885037605, -0.4978344551222983, 0.463212839654117, -0.3151948782499073, 0.01686308511382447, -0.8794354158700086, 0.5505329726167171, 0.16079465698428205, -1.507409086132641, -0.8855500313685628, -1.0527528731329572, -0.2555359259842236, 0.0477672235702474, -0.8007164506128212, 0.2350047788452808, 0.7689343153421381, -0.832623998617466, -0.04905104234393621, 0.6392255209321587, 1.094063898127574, -0.24111885495935106, -0.6936067575953448, 0.7649463576637593, -0.20847281193127096, 1.0907553678711688, 1.1056286688544203, -0.00629157545063653, -0.13218520738379275, -0.8655682932423985, -0.2735563359779626, 0.20913485731973783, 0.3031592359634959, 0.4439439890756851, 0.03572649073884496, -1.854563874515592, -2.6072185919006663, -0.44876812452330406, 1.2200309261953493, 0.07141103134583832, -1.95518633818714, 1.0805366234006655, 0.002417825507747509, -0.6208849949512397, -0.08545121830599542, 0.4126319321627921, 0.5066155714606964, 1.7719556704769774, -0.37192746375647195, 0.38696767610126315, -0.9589119596165361, -0.6373631235198938, -1.8937238617235133, -1.3042377775276572, -1.097295450158142, -0.2502648619569325, 1.7836354270391346, 1.9223910034026177, -0.7868363370814797, 0.08085885289231927, -0.25296624066944506, 1.0464412438411448, -0.28289661186579224, 1.0592644209623632, -0.8329594416740305, -1.0037520311755304, -0.7215099094208934, -1.52438208663605, 0.019627718412109155, 0.17289735229982908, -0.3112202093044622, 0.03942261731033946, 0.3175186971671763, -1.02320449314245, 0.03555180385743775, 1.6629113585678006, -0.7977365319281051, 0.1213214468936765, -0.648392942461126, 1.2709655946399396, 0.27255510122939813, -1.067963325642832, -0.7843382558816963, -0.8091157018715058, -0.6650990887842174, 0.9089817282165557, -0.798482775800491, 1.4097552944562814, -0.4168862099577038, -1.4374201321368343, 0.5099745199033472, 1.570466919190703, 0.7134835085690887, -0.8203868733761527, -0.9810417095160849, -0.08810769337447595, 0.8690495801929807, 1.649843929468475, -0.16343168396710187, 0.019693955338104377, 0.8451552905323099, 0.9413981543268302, 0.7026759622333795, -1.496054966804524, 1.726560505011263, 0.1859418952072232, 0.6387081510533303, 1.2657470214820217, 0.5923729333865565, -0.8582697916608034, -0.5460480783281904, -0.08208060943979616, 1.1271056101241927, 0.7196554841939666, -0.4586647908341283, -0.6875294178191971, 0.17235966162319244, 0.23676104984742347, 1.9460051191149594, 1.4454088710212967, -0.42794334233669507, -0.9892273944233583, 1.1961882878822971, 0.7399758503219305, 0.07536106447835406, 0.43353666600812935, 0.33833280351979844, 0.31816012267480603, 0.06296786569018711, 0.7595837799626289, -0.306609481016355, 0.8113597629538837, 0.38538595066584586, -0.6228576282026004, 1.0231746040894598, -0.8680016605016213, 1.795271730522616, 1.2858766845434624, -0.08313125788712175, 1.1348995264477084, -1.4469039203020897, 0.8596097086608186, -2.1448083185376356, -1.132344990790034, 1.369637310717061, -0.626480438798401, 0.9042110240295946, -1.888587489779101, 0.3855385590632124, 1.8461708628164128, -1.7958042157569032, 0.8079333089111983, -0.7817396418319372, -0.5974259458764248, -0.15859290338890128, 0.2564417094818573, 0.4597432978324415, 0.42303514902058614, -0.13566094510668011, 0.5587887683295819, 0.6679757041646901, 0.8284275985278433, 0.20284429442464788, 1.0544581366028487, 0.0569836353200305, -2.6726012598727173, -0.26218483303751006, -0.2041457985683918, -0.4156336118273332, 1.348300728745262, 0.15696323559328354, -0.5139347042313641], [-1.4462100298366074, 1.4696554385732232, 0.038824562537257426, -0.1463073396053596, -0.07567216888898393, -1.2629685360829503, -0.017254370243996522, 0.5912884764618538, 0.37446850410204807, 0.29039595634170373, 0.943199238943957, 0.48681432629671634, -0.9364903741749422, -0.09685693618959271, 0.508074795336085, 0.6817005258358961, -1.2935392747020673, 0.36545470735623536, -0.14474999601725802, 0.7766562045127998, 0.36595392168615903, -0.9355373095944935, 1.6940137001739877, 1.1573897208999853, -0.3994567128735267, 0.9458441654180915, 0.95889717962218, 0.7119111744005382, -0.14835557607365848, 1.1656309906282698, 0.31859218947633244, 1.0966523579448477, -0.02564887808469784, 0.28019337567425023, -0.04313183824786948, 0.8601977278097364, 0.1438723330995451, -0.004026856209663335, 1.0044875556967097, 1.2207424014510142, 2.201055693579628, -1.2575921175696758, 1.2557087892596805, 0.5360734842397499, 1.3006881537511834, 0.667161823364132, 1.4174853795781723, 0.3021389823844497, -1.1028295700866275, 1.9034591147089772, 0.49155918939791304, 0.4227430086067498, -0.2400764028157372, 0.7161339865634891, 0.5012616986998943, -2.5365942828743138, -1.8304990277760864, 2.02587747067158, -0.36300012927627384, -0.16789102144900134, 0.40589649352470947, 0.1415446378016467, 0.06266274997009522, 0.9389495716897095, -0.41349877771506255, 1.2461548111190546, 2.299774550229469, 0.7347257866972239, 0.4296629654644142, 0.3216174969450083, 0.6321721935437066, 0.0806450998571312, 1.5363522840166517, -0.353429413222196, -0.27360608657618046, -0.7146023496989446, 0.9049167220796286, 0.528559601721087, 0.01865367094833617, -0.08184001463496131, -0.13080144233568558, -0.4247233416767876, -1.469740423953873, -1.346418641339896, 0.7030691834378103, -0.6573463993523868, -1.0629333607504827, 0.41921649564565366, -0.3582142962813686, -0.09787460911659941, -1.8335425934618375, 0.5670051661187742, 1.1696902747752649, -0.07530640005921045, 1.2771899236442608, -0.1381318402417516, 0.1971213464524, 1.3776938252480184, -0.48384672897503983, -0.5383640620578426, -0.26628472560625827, 0.5516252900241722, -0.10837715586562294, -0.1571027333131675, 1.4749491153309333, 0.29439663719885, 0.8058070538070409, 0.46051306997136465, 1.0008548181205368, -0.1358152090674642, 0.6233685017638517, 0.030734845386340946, 0.7062020280278649, -0.324596660906733, -0.46202427327564044, -0.008963756459599993, -0.4916138087527714, 0.8404048619340981, 2.1200544069167946, 1.0435389583101646, -0.482803094787246, 0.9920222400946961, -0.4858185824447805, 1.2930607242077714, -0.6391572366789633, -0.44094722516630525, 0.44620536433288704, -0.3875334021538294, -0.9162217312738087, 0.2217817821457473, 0.053931446955337144, -0.07908075415578208, 0.019453535329262778, -0.21936271670329585, -0.5511258472262243, 0.5288700974191481, -2.1256509994430357, 0.24292746704989698, -0.4955688740997512, -0.7395655610108629, -0.1293111995315236, -0.5727383618632514, 1.8084202054568899, 0.5767172181458498, 0.7455435734333451, -0.028716570422086696, -1.3567399282832246, -0.37204446579757244, 1.3649556318205405, 0.776753434863282, 1.0075226336241858, 1.3622962851033922, -0.2002290493736531, 0.1386719723048902, 0.8591965209793606, -0.9218505044503846, -0.206650433175646, 0.5192358881914262, 0.48713488867350363, 0.3432938336710911, -0.06990459216363294, 1.3207180749525722, -1.921498390666839, -0.5743736880286116, 0.3801897286115487, 0.2419156744828465, 0.2533718123356099, -0.9853510995682488, 1.2743209336940737, 0.34715677838305514, -1.5591307807395385, -1.178898414204208, -1.567646981024238, -0.3283769952547326, -1.2001578265975836, -1.0153055298475593, -0.5828139833301985, -0.1789139578173567, -0.6592771176577349, 1.0187219793022375, -0.7443492162389764, -0.6321380207478235, -0.08724526939440724, 0.16416822574329953, -0.305915120179922, 1.0579573199936496, 0.5471967313177575, 0.006697221686685379, 1.118696931426897, -1.9908726607198173, 0.20178456123750768, -1.2406422024225763, 0.8695777932045503, 0.3797136016605944, 0.20637034810312588, 0.13978060683095636, 0.03738287562668992, 0.8704351723143136, 2.6926269071975937, -0.6438082015919696, 2.109816668092714, -0.8912526092288879, -0.011460578255447995, 0.507572905605356, -0.11065023961820158, -0.8777211011054309, -0.061056582303828495, 0.07914898453768933, -0.5192174742933191, 0.18344955629486911, -0.6338053272430618, -0.9597325134421365, -1.7925485662379255, 0.18684426634707085, -1.3010731041181494, -2.168733460323433, -1.0240368147232548, -1.8196214502617536, -0.07888448067963905, 0.5261305296024564, -0.38917385297106244, 0.2997383089108958, -0.6853809246304832, 2.195751322717565, -0.09033381001299366, 0.45824190372863915, 0.04429893339881416, 0.1691644277743974, 0.46790176614515544, -0.33127804654275694, -0.13773503137734627, 2.1673862878951895, 0.7527498740358702, 0.22048427802538317, 1.510225955054747, 1.0135786722354143, -0.41606113761707775, 0.5932249574592007, -0.5438298713763693, -2.330699123638068, -0.10268221674161693, -0.9241889599285512, -1.4500724449681466, -0.3613625104352982, -1.06797949918142, 0.8806697153360599, 0.38511897383540566, -0.2592561086675594, 0.7830332211652603, 1.5631994727366951, 1.1805093300072023, 1.2256500810080702, -1.1689333796801165, 0.13126981891062436, -0.5312183144992079, -0.5115374138565685, -0.39745751564358495, -0.38265405622153886, -0.880083884237204, -1.4811560438447118, -0.0852602654389791, -0.4896195842619661, -0.5490670953805276, 0.40618078144508807, 0.6260359258039546, 0.25004361598634156, 0.45734189434481454, 1.159041394916214, 0.9381991261207271, 0.15964170983098555, 0.02707598839399775, 0.11099082735648083, -0.44092102828322355, 0.008159323821982773, -1.8773869597774058, -1.3312574768035021, 2.2104413276546837, 0.07000450441021211, 0.23977248797759265, 1.51737579205214, -1.8667031844750426, 3.1678299192622834, -0.17580374497987844, 0.244609538278801, -1.2626032867063754, 0.30725742267713047, 0.07269360884786033, 0.31384291888560295, -1.8711215307351157, 0.25864583429355126, -0.35603145548074827, -0.5790765785209432, 1.4954691808635001, -1.3858028959599704, -1.3560873181902118, 0.6256898123176033, -2.456084221397165, -0.037015386944881, -0.5043310677442026, -1.600228557633227, -1.1223853366476726, -2.0715646476693683, 0.37249141832833393, 0.6376707013910851, 1.3984779407258978, 0.10034780694463581, 1.8018703259236664, 0.2727265513606918, 0.2064872050539417, -0.7443124328654617, -1.860640076471628, 0.2951948111840143, -1.9694226517688185, 0.17292939653206185, 1.3302436306568262, -0.691012223300393, 0.15010211858805866, 0.8124173099644185, 0.2289418198231821, -0.8057498071752726, -0.49090930276307626, -3.8375672778996393, -2.3898458830550147, -2.5658274641740557, -0.4702071236967073, 0.33555322711022734, -1.7409304825068725, 0.16298376278294058, -0.4194427725025163, -1.8273162562744623, 0.5068034256179822, -1.5856663347511437, 2.469897435670137, -0.33561104630994604, 2.229751460753641, -0.11915657427236176, 0.942298529821821, -0.44854810074131957, -1.4490088281550078, -2.5236357464550396, 1.0259285787747436, 2.649056920816465, 0.24728068546998896, -0.16845081095927372, -0.7503985382330268, -0.11597183871791071, 1.3254141436260016, -1.560396485498475, -1.7437409802759374, -1.8538387679442052, -3.2146639280276093, -3.0298824659486274, -1.3678797678170855, -0.6875400198219789, -0.6678389740201327, 0.2642584478243418, 0.08819159784970625, -0.2068510566353748, 2.435185472201035, 0.2986653903897213, 0.03725650766351854, -0.7008372649643846, 0.9210740928662052, -0.5528180175591695, -1.8516347282278967, 0.562948030707212, 0.6414854903262824, -0.17801740408277758, -0.6755362478546592, 0.2992452023524275, 2.5048390949454795, -0.28947097891828183, 0.28865960303654903, 0.5728359874906356, 0.18696314146084358, -1.6342496460097025, -0.4316772203223385, -2.9410991767858996, -3.116252462659529, -2.2746237422360687, -2.336782979197353, -2.061258403724769, -0.8593170485868614, 0.18255408278305638, 2.5933958822374183, 0.8507054173226817, 0.5771563191201088, 1.319947782689842, 1.4086392258831253, 0.06007809060993924, 0.07069614371442806, 0.4620886120503521, 1.3776797263139493, 0.43739000617352525, 1.952257153691496, 0.4429484872386259, -0.11116493542084971, -0.017588504605867486, 1.465326403113474, 1.369916922390739, 0.5962079559919677, 1.4812934842684515, 1.1026430098753284, 2.195166395511051, -0.8186178388127153, -0.8161828019136173, -0.4711411563754773, -1.903853885511935, 0.5354981126870125, -0.9253158750273969, -0.4889890392061083, -1.9461923490275073, 0.9335284833628176, -0.4520770814714032, -0.42457767771397953, -0.061429526848935746, -1.1813109651093032, 0.6890895574351752, 0.026468540202259562, -0.4511766038825867, 0.8243440979428974, -0.11625176113439208, -1.800725530405709, -0.14611391555782136, -0.035693050339225284, 1.4002404976031968, 2.5325584328758897, 2.406843362805983, 3.419546412036765, 1.28685219594959, 2.5176199549133296, 1.5311450327741403, -0.41277788311156327, -2.015280469980078, -0.07481377525971702, -1.3215608155939802, 0.42683277182015666, 0.34014762942988425, -0.2144605234558741, -1.228944630749616, -0.7608211724468492, -1.6808993255446985, -0.9961362123307693, -0.5174499174625067, 0.9223363193030315, -0.5926972567092283, 0.39115034852162117, 2.9807369777613846, 1.1465561198838383, 1.0869956051371936, -1.0506051460433672, 0.9463828829260025, 0.6474615707223856, 0.9633836253383292, 0.23859935010003053, 0.18885809403443368, 1.523046907657561, 2.3937360478561214, 3.5147109104829752, 2.461391977288968, -0.6101835941481395, 0.29822102432055797, -0.8109276209081728, -0.3832461597178155, 2.3093443212172224, -0.29845543846807665, 0.06002504717935361, -0.06303409140951152, 1.7577166087301273, -0.9108154991617308, 1.023393751040601, 0.37079463464284346, 2.0183709256570093, 0.6217841355253687, 0.18050962016526975, -1.9910220374515757, -0.36331896840546274, 1.25797767566497, 0.874142265468026, 0.7452154819297392, 0.49464042081086884, -0.012870760279267927, -0.8621599603662865, 0.21642990858166516, 0.33088610975390503, 0.7064703821630022, 1.2474859349704392, 4.0682963588876095, 2.200978048244127, 1.189733523974665, -0.10070574759384679, 0.17218238495706165, 1.3143621156551992, 0.09986424090727936, 0.19250773171530516, 0.13452533803883845, -0.31414446892053427, 0.5348672845772108, 0.8331336452486842, 1.1806507648173785, 2.9684984662621536, 0.8940668725754438, 0.4073372365226581, -1.4458216251452871, -0.7619801897272882, -1.3851706993698982, -0.04159309579737855, -0.7798208797597697, -1.4444997945521845, -0.5975677561576822, 0.2689824165315388, 2.8364039677416857, 0.553034070728969, 2.012267846567361, 4.215106296531931, 2.3967522186973667, 2.575644596447723, -0.43768780076056546, 0.8055221681221733, -0.5506915006440147, 0.44547056300488536, -0.2612813461133001, -1.062803127848423, -0.458805012182768, 1.2895463138828476, 0.8578176526233395, 1.1701802015006775, 1.329303260479579, 0.7429591609502935, 1.7215267651690913, -0.900974965941212, -1.0650350224963012, 0.6668198905659439, 0.7040466295302081, -0.8419452709467733, 2.1883887042552903, 0.30557923612846216, -0.26855321995007503, -0.22943333388967402, -0.3713516272524701, -0.08731868352643428, 0.4123764188524368, 1.8685799895465853, 1.1748561931289099, 0.006453126828983145, 1.866799963680193, 0.9646091179252015, 1.5172630465835402, 1.1135205235033512, 0.031358015690125196, 0.5164795941802476, -0.935310897016633, -0.4260995672174049, 0.0705728987008874, 1.5166745681470848, 1.5343390151758616, -0.962715269524659, -2.2540492013829314, -0.10861854279758687, 0.07746443110963495, -0.18410003020463814, 1.3406074808815276, -0.2769454688550597, 0.5187608281216922, 2.428045859401713, 2.771423393571222, -0.9478133777083805, 1.2483858783303792, 0.1829147185720274, 0.044407555725628156, 0.8602086121921959, 2.864385335316702, 0.9459219237233062, 0.37853931825384707, -0.5484464286421242, -1.721486465319502, 0.10705484660593069, -0.24625187149230504, 0.6219427475720204, 0.14619766526357098, 0.7331500179442674, -0.16400420026947263, 2.4763057094771077, 0.6845001812379646, 0.592632581187659, -1.220918881252765, -2.57876034014848, 0.2555360996933157, -0.2514839121919383, -0.7115686062159624, -1.055786021255467, 0.8155234372507706, -0.2891598927570511, 0.4807591689230551, -0.6543854106564932, 0.3745889121439994, -0.719919130741182, 0.8515854011628989, 0.22119253200991834, 1.5740411787876152, 0.051874040014089386, -0.20052188738365054, 1.3923367912602598, 0.7680967684946217, 0.5566484961408568, 1.105654732916671, 0.7717703632405002, -0.9716338257102848, 3.2154288847849273, 2.356680241649182, 0.5529397917803351, 0.8486033789966957, 0.46468493695863616, 0.36148214507213167, 1.1826407375729697, -1.3291742230721941, -1.1125327068915007, -0.7637001263632863, 0.07835005626922573, 1.29083905437486, -0.3360697227635765, 0.29925942413050416, -1.5073620159966112, -0.661258591208544, 0.306685755055831, 0.694075094720747, 0.8828754411247732, 1.0361695432991347, 2.4144639882742176, 0.5809320129671725, -0.5827994426002082, -0.9551344457530866, 0.5336626349849949, 0.014959390142512501, 0.1543711570672067, 0.6079598382461134, -0.7653906294683063, 2.38021508248292, 3.4756190226728436, 1.9648478527537692, -0.6321826426414137, -0.02099557201319312, -0.4045505566422896, 0.14661311690006856, 0.627765883326998, -0.40208352715059, 0.9866117298495076, 1.0959349321142344, -0.7469833523831033, 0.5991460261305266, 0.7734234088561378, 0.1133969163373311, 0.025692917750056776, -0.0425982590012305, 0.25692348023538614, 0.3579853849307877, -0.7984689191778835, -1.173362090166733, -0.6166637338894395, -0.30555431692360235, 0.6376115983206092, 0.9937316373788454, 0.7565290167550499, 1.7807466982493567, 0.7030571923727332, 1.6421344820768993, 3.766156604040809, -0.5300678791040825, -1.2378102640954787, 0.5845170098929753, 0.8291534134487549, -0.8576686496046448, 0.8390779220417341, 0.14004919696362725, -0.5927107088698759, 1.1926685773088295, -0.17693865037866827, -0.7361504201184774, -1.8573279452640645, -1.5068290249223384, -0.7557776383683728, -1.4883504055131092, -0.33267840841244606, -0.2644858820026992, 0.7825398281760485, -2.422417981750449, -0.21685757351976503, -1.9753364405568674, -1.157980102789151, -1.4320048829538843, 0.8461603170129761, 0.11049954950115849, 0.5186645205538984, 2.2638119903319494, 2.5961351605096676, -1.384508045509039, 4.144869360045381, -0.23250427908390014, 1.2284462322012117, -0.16306374680363317, -0.7098462092899398, 0.26462593064308954, 0.17161899426119862, 0.6465723886827204, -0.6898592506109053, -1.7703918993960652, -1.2092191962418442, -0.13837589055462984, 0.4144449532035335, -1.3380362339445948, -0.7439767980829373, -1.5078788163379488, -2.3515974328872478, -0.6264680345473919, -0.5326038198338628, -0.6670329604971473, -1.0676646955500317, 0.4102589423911658, -1.647682304752787, -0.16047141764794023, -0.2373063411890163, -0.8374870402378635, 1.9044474419614315, -1.1105895519468327, 1.2297788583052252, 0.2925318068374239, -0.2318784259980358, -1.8916271602922703, 0.7079429814875959, -0.12719468772691575, -0.1420074998737158, 1.6353762937330574, -1.863828264393108, -0.31204937149177037, 0.160803801167736, 0.4546136665436802, -0.8195565928652173, -1.6768263384320694, -0.15397505105776796, 0.46175225510375767, 1.1191167595935376, 1.4790229586415244, -0.48376344584008335, 1.5932243141819795, -0.09593824121672827, -0.050600590764591995, 1.9452370371927763, 0.45702361285625814, -1.0813937802002695, -0.5820133210143201, -0.8832004646136379, 1.441398123435848, 0.1381632918697882, -0.014921121147940433, -0.27390508620942244, 0.21972303713109015, -0.27770969126478795, 1.7770290115731255, -0.5423261732642427, -0.07815527223064428, -0.4008205159729471, 0.32769667231382105, 1.5752702994877128, 0.8055466135222333, -2.5904385334187494, -0.02700020781549279, 0.17396625027716664, -1.4914010235845045, -1.2530253625951058, -0.11844534436718877, 0.2910235829510686, -1.6384237574381466, 1.0238872413319906, -1.462365091644881, -1.0481276443035825, 0.350934690504418, -0.48862708523856, 0.12985590246999623, 1.3113415293841764, 0.5385736662520804, -1.0095961980201489, -0.2895287864887786, -2.1776685088547003, 0.10834161786700969], [0.26246770733348834, -1.653547973631757, 0.42596467032210306, 1.165115619961059, -0.2777930971087139, -1.009233349910776, 0.6123725397561791, -0.40430170425319534, -1.9353419362765696, 0.21409912536022413, 1.4934467900672492, 0.268826748600937, 1.3659776665325174, 0.14212669553976492, -0.9766508137373172, -1.316847920756719, -1.3804178052391833, 2.3492421015359284, 0.22889123598166738, 0.05200947713525456, -0.7460418199901014, -1.050249558017945, -0.5331825551661862, -0.21377071209176857, 0.1467419723854501, -1.002063256120785, 1.5714608087885076, -0.17322284042344524, -0.4977764286781416, -0.3047866211297794, 0.4952618679672072, 0.8583994052766171, -1.0016582765885298, 2.63861554245878, 1.3932784509485547, -1.8300163152444586, 0.8403085486284118, 0.5641099924749431, 0.8547435728965642, 2.0871867753589948, 0.837009373824407, 1.4052807038344297, -0.1287261740766865, -0.3240026480592387, -1.7203853083608693, 0.19335279007162662, 0.7978376898886227, -0.39708539376171265, 0.13800339496589228, 2.067919566256309, 1.2305980990427028, -0.1893608019046448, -0.5440867052118434, -0.6702391950155366, -2.158203167540178, -1.2399469004869235, -1.197385335748333, -1.7466549955625694, 0.7067650416198785, -2.2009486501909783, -1.5901616454701484, -0.11177392780893008, -0.4532288570137447, -0.3936223953043504, -0.18230435266862782, 0.6556873666721211, -0.21738965539841176, -0.015071547859935924, -0.6703030882245472, -1.3916866253552507, -0.3692595661339321, -0.8673322462959427, -0.2540077867340526, -1.0193008622953619, -1.0267284863070223, 0.4313494545108965, 0.4027304927468976, -1.3172296023275292, -0.17370719212438776, 0.9449519695348847, 0.22182609123122413, 0.5314697971521543, -0.7894592215176296, 0.7748521201411853, -0.12134844098536253, -0.4559796819188328, 0.02545147951317807, 1.606203941800637, 1.4473365088267558, 0.27591961505874185, -0.13642001232901024, -0.329629156677541, -0.7447762485322387, 1.1372309849889422, 1.0617758090922114, 0.9862155402727184, -0.5327720005755802, -0.8007060094769489, -1.2672693173287877, -0.6687445733633599, -1.1106974324213397, -1.7117451683474025, -0.35440900672085296, -1.5023140827233332, -0.49523321289610456, -0.6102905527176421, -0.9835892472183295, -0.6180885255170422, 1.6972278121304718, 2.477535015176305, 0.09576996094324673, -0.9740022940573094, -0.6946348764991215, 0.6993862028763608, 0.9305641621723199, 0.36284833530766736, 1.2499477178154803, -0.09128213919515873, 0.578250709082055, 0.8846913897678801, 0.0730371007688663, 0.428167511022338, 1.8660206125263954, -2.1477730762985154, -0.6414732400587326, 0.14590531323571201, -1.986348561935098, 0.2006260743699354, -1.3187241931880194, 0.4422089058358555, -1.5879656443139185, -1.6092954236078307, -0.791232903502146, 0.14143694834277307, 0.0041170500642874605, 0.11742442603468961, -1.5268234235049365, 1.2860988412272456, -0.07981797464779783, 0.37926804643237877, 0.3486754217528741, 0.43043776857029825, 0.6183767174675576, 0.5717244078239437, -0.3652595314317069, -0.3995866361169195, 0.8428632297742905, 0.8695691454333849, 0.7741170357324768, -0.34876594652422643, 0.8060798140858204, -0.8078851335070836, -0.29241993812864914, -1.1102597059765686, -0.04939726810952821, 1.8007330862385627, 0.38215452836283154, -0.2798678618654235, -2.0332121218673187, -0.32337145463251793, -1.6771951899669524, 1.906983153294104, -1.3224726496676968, -0.5974367967704475, 0.13982954401127465, -1.6690170404441098, 1.6647567417591231, 1.2713549630944991, 1.2026799544159468, 0.29761109129725266, -0.2710247656105303, -1.0407735444838264, 0.41782299069553364, -0.9792801214737868, 0.5771712876794959, 1.6541158289518183, 1.1180432043658544, 0.8452611792635499, -1.2164242107436996, 0.977298713454951, -0.7018687017049828, 0.01952870007431254, -0.7255783831089698, 1.399115908889466, 0.09089360526957786, -0.38105195179352047, -0.2885923853928414, -0.4701825297883358, -0.8529415206419305, -0.8824368638971959, -0.9710416924896074, -0.048165075040201885, 0.9520020614318769, -0.9250789206640779, -0.12767900706154534, 2.0634967201998182, 0.3314565003219935, 0.033642407917434794, 2.363923084058676, 0.034596156031249624, -2.228221721445537, -0.3161779485259032, 1.957195876998757, 1.60592035497632, 1.6797454357630466, 0.3894973836988268, 0.7068494448519829, -0.4439283576815857, 0.5522423240494905, -0.401871318814828, 1.0815449832330832, 0.7054670104360048, 0.42253582307420146, 1.12427435225318, -0.7596135520213705, -0.20981407739116237, -0.3505141463608115, 0.5287603544661157, 0.5044887242169205, -0.007884349528261373, 0.9217051558453284, 0.3230333599478548, 0.49561249636958554, -1.0048839148946722, -0.026983215780567747, -1.084348366795498, -0.9298759255926612, 0.726028798659949, -1.1744240192845463, 1.0332072234271819, -1.4658284447116963, 0.825020591933994, 0.38372104726821266, 0.2643175742580328, -1.9374072195213383, 0.6573562101163722, -0.43884124456212265, -0.5844109251404357, 0.6466443099299191, 0.5050545103754934, 0.2920571682573607, -1.7299706890223787, -0.1593648011653157, -1.1403150990010298, -0.05384235275344405, 0.7224597956490556, -0.02406227882507932, 0.04177691766523115, -0.26104571263196247, 0.47215324129848435, 0.18806828133476172, -0.3734269316813863, 0.1548561728450622, -1.6839988451481778, -0.8188782076579297, -1.053964268445545, -0.2544250584552154, 1.8549407693480593, 0.6360297055937826, 0.6722795235968277, 0.3030505178130981, 1.3159109382673235, 1.1910379994888936, -0.37802182608366885, 0.6804191590180833, -0.20602041867667253, 2.5379835238978568, 1.2339303926739242, 0.15686582429504967, 0.7453687628865914, 1.8150159882054138, 0.09540854204232309, -1.990754370440768, -1.5723249899919645, -1.1357934560535718, -2.249867016667718, -1.58051723527304, -1.339492990932915, -0.3155772805671886, -0.09641691521008396, -0.36865492513676185, -0.3320214957635497, -0.21974775519818351, 0.030490359072686907, 0.06864355017881968, 0.5427345349864489, 0.3973806147663524, 0.2560225665851521, -0.7566921076051752, 1.0220110203770427, 0.08770675449256053, 0.12366563014801195, -0.130742133502327, 0.3894835221088468, 1.9344794494806818, 2.0496458667190995, 1.4535794131875275, 1.137519051828584, -0.9478147205650694, 0.5017960413193253, 0.4678551797925622, -0.3739117080282067, -0.5201904692737697, -0.741991417094069, -2.599327046301168, -0.8427583602067561, -0.9468153311838026, -0.9346551586115488, -0.375136520142082, 1.2380107634179873, -0.9388199476365674, 1.7254949512846351, -1.1639364434335213, 1.6974547385582148, 0.4828790122258195, 0.09299351810625042, -0.06146917594419246, 0.34682009054512397, -1.4188750409052149, -2.465122641584268, -3.526026279775964, -4.155672009813649, -1.204720425661258, -0.4824313215352181, 0.044532479344055347, 0.008073361897052204, 0.7971151374406925, -0.8211587910906126, 1.3385077423347636, -0.535636425602528, 0.5681114055380202, 0.30796952050928733, -1.3897324845871821, -1.5204004422041368, -2.1320664026908593, -0.9874425357890654, 0.5168715465239164, 0.5454423780974113, -0.28638876459712675, 0.8163612667528691, -0.918082717780444, 0.10037014230104481, 0.17159774350562437, -0.4173493968325913, -0.7639652557049406, -2.6236322583067904, -0.19087442879889743, -1.106492630296619, -2.186793929614039, -4.2114376809252505, -1.2553804182623391, -0.8015434818133987, 0.16995483936789135, -0.07458985252618584, -1.6899694051565957, -0.37867618384162166, 0.6792481898972691, 0.7238377130542474, -0.5801567918466582, -0.6237575032747997, 1.5108529179888297, 0.9485812021877341, 0.3697588436314906, -0.28910835098343163, -0.782381953413053, -0.4747228329109945, 0.6038120615863112, -0.43315839378048265, -2.0226789940855165, -0.7433754013030274, -1.0940051946957243, -0.48423677741518006, -0.9118896630895587, 0.8587273729919591, -0.14275028460392422, 0.5646093781226527, -3.093699386161741, -0.6121393228206217, -0.5976953839362436, -0.2590803129503702, -2.172975297115838, 0.3581180875523949, 0.9107238715839776, 0.4192306491195823, 0.6947468006869763, -0.11163052511391278, 0.9336524638083831, 0.8164634613835046, 0.26579375312560033, -1.1751211043649195, -0.44508431515609037, 0.38090112887653615, -0.13578121689349174, -0.4810613361208206, 0.6628391797203146, -2.3160131270726945, 0.348252670557791, 0.7402699453576561, -0.38104676132741844, -0.17966672535705108, -0.2085293788685858, -0.3126428564225256, 1.099448268375844, -0.6184948112942363, -0.2529159946626436, -3.4795241536651673, 0.31564299242793936, -1.849380408241475, -0.38508646654683154, 1.222167638757295, 2.379873572954188, 0.48252804959251905, 0.9338494182651796, 1.8295904647518837, 1.2207433049083727, -1.3359729756178154, -0.5014839939196712, 0.21882019768234154, 1.0248845549507088, -0.7188702468855728, -0.6496417775760209, 0.12695176140759243, -0.34381144639239414, -1.4996699532250741, -1.487742572615189, 0.6775800670503775, 0.9202449241631532, 0.6534927364008554, 1.0789295155299763, -0.6634535573400945, -0.5872916400292946, -0.6854042985379751, -1.5982967322651747, -2.031380139202278, -0.21341758916265918, 0.5249390326249648, -1.0468191876334676, 0.5904827267208339, -0.6294156893535929, 0.7393348022075369, -0.5474337151021504, -2.850037022017682, -0.09174199761229467, -0.7111827618935374, 1.2683626470427718, 1.1609150786875015, 0.008728642312023647, 0.658960670229898, -0.676229730551463, -0.5539396121393143, 0.14545593378880708, -0.28604091877945576, -3.404543304963872, -1.4540612208242796, 1.3343856614014107, 1.5187047084445104, 0.9891882854493462, 2.513017673480678, -0.1731173610648291, -1.0295335693240868, -2.101738550134429, -0.5342402786360639, 0.8432872422195982, 1.2085382029963252, 1.5914236317917219, 0.9087275442474398, -0.5387831201635928, 1.6013613985181898, 0.2139504507978144, 0.4361036385728996, -1.1672176102764564, 1.886671455211583, 3.5014215114858818, 2.4918454694838466, -0.6070016938453602, -1.7316955316598546, -1.3614655155192557, -0.8990016223205943, 0.16314846021871174, -0.7400694875808878, 0.18189919928232756, -1.6515168897165553, -2.327569897674782, -0.6404976945604142, 0.5759162026946953, 2.9108778760279463, 2.5634429171725728, -0.19353402904334163, -0.03795950394555202, 0.6320680940925397, 1.29093029152288, -1.0300976367209354, 0.2897766475901964, -0.2963166502920259, 0.49029435109510733, -0.9554286871375456, 0.22455539081706838, -0.25827685433766684, 1.0739171790779733, 1.1337783153746284, -1.2311455018265494, -0.8192521709679116, 1.886030747396773, -1.1245709827379333, -0.3737415854177009, 0.017434166605596626, -0.4485354913497002, 0.1246290913859203, -0.6500707337954357, 0.36774735451288354, -1.7584083835752011, -2.4141301330600213, -2.9329290935272883, -0.10511829511053457, 1.0506189093896603, 0.7041661909714753, 2.429557854028366, 2.232376169511065, -0.434221438813182, 0.9003999046563498, -1.0843537347663967, -1.4244078892360605, 0.05185288408630134, 0.7202633910304436, 0.13788931677394733, -1.510676708718613, -0.5191652053168198, 0.6417395987329461, 0.7582394495534002, 1.9544214322087219, 0.8663949723955074, 1.0576182333272193, 0.41004734781047103, -1.5312637154836743, -0.18197619102605136, 0.6814177106080225, -1.444697716874316, -2.7595236149980695, -1.1740280031718968, -2.1582918061744363, -0.6454226745247024, 0.40092026897144484, 1.2889668352267454, 0.20334293649355958, 2.7253169899191083, 1.0305300304959417, 0.22009764533602255, 1.4684770552250455, -0.5892545871194574, -0.6850559961657863, -2.0633573264831093, 0.6093481367836544, 0.5774973586999892, -2.3301803508427312, 0.2168026903488879, -0.29346929912449726, 0.7779209693588949, 1.3414351649768992, 0.3710972521486352, 0.9839535970265363, 1.6419069332945022, -0.09319678706721339, -1.518994524464137, -0.8443931547233082, -0.8864306228839886, -0.46122332639950137, -1.615566060776772, 0.16991763186427197, -2.012678496053485, -0.6614168089561667, 0.4178471644976246, 2.114067497783304, -0.43782184908903543, 1.3186865857412622, 0.6376414159131029, 0.09537718528291855, -1.0305838667315836, -2.742671152656225, -0.27347326482517564, -2.2595836770581186, -2.4616430108597585, -1.2310221391689709, 0.6305688263917577, 3.832929248910495, 0.5118095491313639, 2.9173675599797315, -0.09692361917129513, -0.8726907166004777, -1.432257575433842, 0.2612385158092922, 0.027809571888708418, 0.7420173408581052, -0.928007094494388, -0.6155311168449296, -3.0639599726688127, -0.664346799943634, 0.3594278431264034, 0.7066615711736554, 0.1873219868876373, 1.0671731685661974, 0.29634918625508905, 1.1622067677602381, 0.26316774057414116, 2.067531621285643, 0.22345325148442258, 0.34190964431345855, -2.742573073459183, -1.5558465463272924, -0.5873347469910889, -0.4209046328589556, -0.4348084267050927, 1.831694952776875, 1.3978902295340623, -0.17194320629695253, 0.25620524163552205, -1.5585052819239515, -0.788035374860487, 0.08733129873525093, 0.4655766872268308, 1.106463594010793, 0.14679266095760157, -0.589798648918608, -0.010758500260835229, 0.14400594606980147, 0.5652568576053355, 0.2946697928937553, -1.146465196554415, -0.8789044651027773, 1.0168295895152846, -0.6164033902348978, 0.20981354319645035, -0.5607108029094804, -0.2716105393363827, 0.0262238740404551, -0.1261729174116939, -1.6654738151556863, -0.8591266773164242, -0.6698815293143824, -0.7655367937776205, 0.4427956220140077, 1.1132683840444235, 0.12631617264202658, 1.4089974428144147, 0.7568404975918271, -1.0526537225849988, 0.311782861237694, -1.5266678828056446, -1.1738018464112254, -0.8854912509560137, -0.4958155979704533, 0.3283431501420329, -1.2250191852901529, 0.33477660640661194, -0.5691908192711655, -0.11229852533283836, -0.9216213746544178, -0.6958038824795141, 0.19065895487281642, -0.4934251554571095, -0.12482854109833319, -0.43711596943583614, -1.4057236790021193, 0.4561448430899064, -0.33926041101406074, 0.9531950287278735, 0.642919786681275, -0.14307152513075186, -0.35357465536851307, 0.29620086459382083, -1.0097222546853757, 1.2198232444971295, -0.8965477474643286, 0.2710171783059502, -0.36919438339156596, 0.7847723843320966, 0.19281015082062933, 0.10549383355874768, -0.7710893718762932, 0.3268353831638773, -0.4725605031965589, 0.0727072596994089, -2.5851343322513456, -0.9362547285101303, -0.6117130546678797, -2.423188408682702, -0.7809121100510215, -0.3673812590735329, -0.6412619308578168, 0.5727383353538757, 1.7139806038947611, 0.1861900935189984, 0.7072688879957283, 1.736218250622888, -0.2386559395467908, 0.06641574670075734, 0.44000850052333607, 0.8112845706254211, -0.5203743425008144, 0.9857520252215913, 0.8125537469341202, -1.1999516269198647, -0.1539660736638167, -0.8810327930350632, -0.27380663866248267, -0.18726603171588777, -0.4821893669256861, -0.41711912951824204, 0.44431012177182444, -0.6163975744113566, -0.18976259262586587, -0.3928538031243407, -0.03023313107737412, -0.5041504423860658, -0.7796850879399712, -0.16913632697627123, -0.516553717759708, -0.2729486225495155, 1.7779109763850165, 0.18928072764411186, 1.4269840163757173, -0.5271422620015132, -1.0909251520047414, -1.0036868993670904, 0.7827008651397344, -0.7548054204771741, -0.9467204681248467, 0.47469583990877634, -0.15675261853280764, -0.22471222377658603, -0.6505528871084009, -1.9999947387621924, -0.9046578173020557, 1.0058069061888177, -0.4678510861999989, -0.5623157912930641, -0.2668152653467093, 0.8608205085592807, -0.8739639301606505, 0.4382914595920427, -0.979897171102405, 0.6712610926274835, -0.012970308761621054, -0.26352799953266975, 0.04768879425359775, 1.0551546048761433, 1.423970237123717, 1.0787254293795456, 2.489254364727296, -1.1497356860199812, 1.4135821885992892, -0.5466422920022425, 1.4120076150986178, -2.2661441212660414, 0.5772503259896237, 0.5209187050842445, 1.2040130150032164, 0.3494978195765649, -0.7755210857993857, -1.8378932835622783, -0.7898973011882847, -0.6269659970291679, 0.22814359557422828, -0.35321878385741895, -0.6784766812561449, -0.6370277107025747, 1.0664530622910378, 0.7948265258285908, -0.5485359150637104, -1.1411518116185173, -0.24884800017687833, -0.740650361698177, 1.5881844375349252, -1.6278334046402576, 0.12917246941125127, -0.32601026751732304, -0.9079405299830594, 0.8257771957657937, -1.977176374187024, -0.6044849992086914, 1.502298734274334, -2.4810317320525654, -0.42445301286980236, 2.3601782254083608, -1.0733010784188304], [-1.7925206826789972, 0.7038733713090336, 1.5747813144265124, -0.8554542426001331, -0.536244497553755, 1.3067183006374403, -1.2486899825523023, 0.4011965295630143, 1.5708815487365593, 2.1665588278763273, 1.3680993888997666, -0.1478142194506246, -0.8866919148216226, -1.4493196356035405, -0.16991167205668106, 0.3865349401896746, -0.22627241629932585, -0.8827871470049764, -0.19118194822167114, 0.8951240707254297, 0.0860621385368494, 0.26672936833850125, 0.49479525521605133, 0.007520554064355988, 0.43445417803704506, -0.3246977617264669, 0.16534682678611146, -0.24705275343104774, -0.40101728773298206, 1.1068910978141295, 0.5037661374074329, -0.35582416891247454, 0.05370305753499286, -0.2574997080240895, 0.6216373729308232, -0.15269565673616112, -0.32086189574261437, -0.44622698646711095, -1.5756493783138552, 0.11506109914981782, 2.610224646768422, 1.8667465251756281, -1.0734013077819593, 0.9717358043565278, 0.9783587676083568, -0.8041903456680888, -1.2386114702522215, 1.1518389059182441, -1.191649537532675, -0.3705715014129721, 1.1295706375055348, -0.11816480543821853, -0.02503401268927118, -1.2364631733423745, -1.5384165602722917, 0.7024375633957085, -0.43100207217874725, 1.417025635126067, -0.27017931697652703, 0.6990528858475292, -1.4256216827910528, 0.8357156859709456, 0.2843743363276749, -1.4515403595504714, -0.8339121247109276, -0.004545261692658496, 0.8776456006621068, -0.32430396064229555, -1.6305885602270296, 0.31246709050323235, -0.17393354728292615, -1.540097594084153, 1.098146266287231, 0.06250057524434846, -0.23640262484340302, -0.11047398425493654, -1.5271858665658191, -0.12813173512718487, -0.030149259914003294, 1.6772920769138109, -1.6043133815038064, -1.9827338073131076, -1.5043363835532801, -1.012199098359535, 0.8516547932903878, -0.24049847056959742, -0.5840656270216102, -0.6731491213190296, 0.01329164131026887, -0.96086238048713, 0.2801700797663713, -0.3203846079174872, -1.3625939951201607, -1.2692887139489757, -1.2886447496330868, -1.3775954883280683, -1.681936577625838, -2.9881258696718045, -2.7286262759438435, 0.31821302566214876, -0.9315801211067586, -0.9045188729175652, -1.1111401308308195, -1.7543077993214975, -0.46401358970022216, -1.713960624194391, -0.9026513343873152, 2.1378270763853386, -2.4574070209518606, -0.0967206686163435, 0.6396527343566026, 1.4005263167884914, -0.8133429281078302, 0.051685425581506045, 0.7876701206711196, 0.3165753357493409, -1.9352945639927717, 0.09069827695579419, -1.1106080621975967, -2.6008012166994727, -0.7643882388142568, -2.4248765814743742, -0.7410859668496158, -3.624719924372269, -0.5986033650155023, -0.4997715550459902, -0.7873796428499228, -1.2645502782302906, -0.9748062231801252, 0.3413578237858159, -1.871513247992708, -0.7177515220073483, 2.4561495607277934, 1.0251298129703883, -0.30462515036423965, -2.1616553100291216, 1.25888293059743, 0.6077502825089768, -0.8687299833041271, 0.08923487232255604, 1.1871623389034727, -0.5540512578062663, -0.6353651961442535, -0.7427864668236944, 1.5598283947062561, -1.1108886025870255, -0.6238501006315361, -1.5084669924087453, -0.03437988191856031, -0.05174745405182353, 1.2044607154090055, 2.5162410903855723, 2.1215876026954255, 0.8617716724703792, -1.0044659381609216, -1.1416431751420113, 1.3375081382092233, 0.776823473032374, 2.324538042999691, -0.5763343437280513, -0.7316224311594816, -0.21720236341072838, -1.5294026383398243, 1.4116981775582758, -0.30887584502265036, 1.6642986311971877, -0.3755642211320678, 0.8724937083653833, 1.7089860419154481, -0.30047395492024853, 0.7208049381602358, 0.07722554335756848, -0.545632331928189, 0.21638931601556088, 1.391281221560161, -0.5800195832428253, 1.4124096129180104, -0.4168412951942792, 0.9579433949186482, -0.5480351282621119, 0.2802163991148229, 0.41607411853022164, 2.4460008123417856, 1.0136460407320513, -1.7359847490268308, 0.9396519304654598, -0.9181843327860876, 0.016633512793561758, -0.5329901107546011, 1.431965861980661, 0.14407183005127663, 0.47269869201963477, 2.1533906922065866, -0.255686025227, 2.902270906793157, -1.2931650373045596, 0.7859450319335138, -0.31736134311997183, -1.2332244199754767, 0.17412546716237018, -1.607701995926844, -0.4750015733324545, -0.7033876306483693, -0.03517180074615895, -1.1855134444837938, 1.5676168468470124, -0.6461662657602831, 0.6588548753949595, 0.6263051647138919, 1.187561539298214, 0.19759004459237337, 0.9982251588036526, 2.4628009930253687, 1.3145434829378386, 1.5927890023515685, 1.39544025404541, 2.020011468057338, 2.438687377991274, 2.2706192455643324, 3.8037415030823882, -0.8854557895611386, 0.990048087641911, 0.6135847745996101, 0.7874787808558874, -0.8546342566824192, 0.40999739403082985, 0.935388509911521, -0.27754498998102506, -0.5302243448903589, 0.6894246123492865, 0.41104278954252726, 0.9320129040723969, 2.0725415104521825, -0.7981453859497533, 2.0026344758002117, 0.363333546529683, 1.165875108114491, 1.4885355608775916, 2.698565880266101, 1.3782360114125911, 2.7185160488208537, 1.5105210159079816, 2.794627828566453, 2.9498680572131475, 0.7942830786906578, 0.6333934517110867, 2.7721304423905933, 2.2435983762268727, 0.9823263083054237, -0.8332005886734843, -1.8593662894511966, 1.2134298459739188, 0.08523734072188986, 1.3539365169524693, 0.012389456686500858, -0.6040379914539885, 0.7510930657291336, 0.27830565926664813, 2.1143333357416525, 0.7407771316725607, 2.000903840557953, 0.9883046457925824, -0.7010061168936278, -0.167132477928902, 1.5229701022972804, -0.22039141510000868, -0.668099497986187, 1.5774223608845197, 1.2405804101696798, 0.47688467861920075, 2.2629708464476437, 1.9394631930524764, 3.1788432866095424, 1.733192844050785, -1.0422915102586578, 1.9136336020658775, 0.5457835813584567, 0.10549197884467403, 1.184665502456414, -1.2090200902981418, 2.15486613567092, 0.9082041567743929, -0.31041246645065024, -1.8978830516697711, 0.4680789908392194, 0.7004621964638427, 2.0719598828363623, -0.034511344132960475, -0.10675417214898647, 1.9409251187885692, -0.17295783554332989, 0.6413546422947887, 0.0018536098284636833, -1.058449541701806, -2.469992320557399, -1.34047614240552, 0.8341368606989055, -0.377503651367025, 2.316291228821214, 1.2669659208198514, -0.030251516268931154, 0.7578558299892731, 0.8077269254075468, 0.7842977945274657, 0.27226843391772726, 1.2180965879227523, -1.2796733479014157, 1.0289005473817738, -0.08329779103307824, 0.24120450810583272, 1.5439383242558995, -0.42238352657872535, 0.9836766754520627, 2.5796757151204712, -0.2797413136352387, 1.2575284730859007, 3.11652773320395, 2.0253337006927263, 2.0877721508897014, 2.108972613402001, 2.1427350925076407, 0.343322915772923, 0.16639250232947045, 0.9833879592540823, -0.6027533321932713, -0.6946417838899962, -0.6146840557065768, 1.9829905858558456, 0.9353608461589911, -2.771878522555087, 1.287129023942219, 0.9809840023571875, -1.540082438849705, -0.08205885428359345, 1.0785517816866692, -1.0020425629108582, 1.104196678172627, 0.634695461516858, -0.15824439108167274, 0.9890311286474935, -1.049139135834501, 0.5608309790032631, 2.6404045963860074, 0.1637483159264443, -1.4637947222620815, 1.0933740552228544, 0.5813211523072435, 0.6470844141989016, 1.640315170237659, -0.03005931263885976, -0.8962716125206821, 0.3345952118069434, -0.2937202553709989, 1.1739029857980452, -0.4842527710536851, -0.41703093226675636, -0.8610545572277849, -0.41873611184130427, 1.34272562703478, 0.36252609123917245, 0.38860965941914083, 1.2074053754225584, 0.5969815459166498, -1.0187171114285218, -0.5298150162533187, -1.0753236207965364, 1.3446682097547358, 1.6633827913956347, -0.08994244259997407, 0.3719194179838, 1.3235498964963646, 1.9389866186491245, 1.8642110054535195, 2.063387371715069, 1.1743195960756798, 1.1690179091665849, -1.1290588915005257, -0.7493698937116532, -0.226875531445147, 0.018287441562173778, -0.4311272518907956, -0.2929049867186501, 0.35399261204234156, 0.10265494669010365, 1.3517636587136157, -0.5414311161581643, 0.14563707209217425, -1.2091214925971616, 0.16034896980229846, 0.3286966307461344, -2.064835586725979, -1.9358460825951942, -0.7176934802369084, 1.816958753509578, -0.3756524744666799, 0.3412535667755048, 0.3277497721565976, 0.18762856658652385, -1.2364872768171717, 1.9469785525359722, 0.301190339471886, 1.5115090712414456, -0.21665741288450746, -0.8200754391119297, 0.6197572200751839, -2.9133635644889933, -2.2357843774427315, -0.586051426332867, -0.17411089929503717, 1.4268203374843322, -0.42084407818096775, -0.2264428216661756, -0.30849392040754586, -1.0054838509710056, -0.09007076088543334, 1.1870495522768483, -0.9467532131642542, -0.6347289654753262, -0.3497614937946638, 1.3375573463227566, 0.2133340885319608, 0.08955252075918581, -0.2259847119013635, -1.0387244555435438, -1.406415419180429, 2.1072970426551443, 0.27309112813620295, -0.032076573567882, 0.3471873866614168, -0.7825839475245149, 0.7863418947049332, 0.7359545605575117, -0.46285436856307177, -0.7424875115070774, -0.6609593045683115, 0.8271432094930428, 1.4239448259749152, 1.8102014821795047, 1.496053787729495, 1.3747233340437297, 0.2761630466515207, -1.9913933953256804, 0.5679808977550985, 0.31488912948736886, -0.05061616529183999, 0.8331848213275519, 1.0071160694395023, 1.8609025721350643, 0.23457029552064612, 1.2698160727494006, 1.6171611367841268, -0.5177449977971248, -0.7006436455368387, -0.45135043880754727, -0.5770261096084762, -0.058065604529916194, 0.6194284222138824, 1.7324389667861864, 0.34453042473790224, 1.2711849915734459, 1.9365824571421864, -1.9801622826566034, -3.3088889098683807, -2.8147700018882493, -0.7149465384932465, 0.06255821593560097, -0.6481825636749433, -1.239999687706397, 0.4587104074611524, -0.18983595762141198, -1.0070810218861512, -0.4191921724720293, -1.3789714031878548, -2.3765814331902377, -0.7980340694985598, -1.1770309244974793, -1.7387859496313045, 1.6077761051438904, -0.4153296802708097, -0.4710067307308283, -0.5586506385111881, -0.01850503229095913, -1.1667012981005123, 0.7873787140578089, 0.3954174576327316, 0.7984031472071329, -0.9636265178112288, 0.2661613561889449, 0.7603737905200539, -0.4948269725072243, -1.305897448629945, -0.3805835042858099, 0.5192959462235684, 0.954427489781719, -1.066293161456958, -1.4902590700802354, -1.7585019312499057, 0.09988482136908378, -1.5818499506188348, 0.561375475610697, -0.6946308210578792, -0.8973996144124156, 0.9649196551902918, -0.43599513298618575, -0.9494723875574944, -1.2571227103740297, 0.37964424956323406, -1.1258059327694698, 0.12389714479120885, -1.967308493746051, 1.038996959269485, -1.1200468735908247, -0.011908060826852604, -0.5967463035916127, -0.41940196418733855, -1.3036981172744235, -2.5315574135544656, 0.3600491450378281, -2.3172508045103237, 0.23851146419209393, -0.3252942592233274, -0.7821525121233933, 0.12204634570798825, -1.1430338741562305, -0.07526785420548376, -1.2716585980290023, -0.7189780973867469, -2.4209690843498937, -2.9197953363668905, -2.0816955631401126, -0.4707820432503026, 0.03564986181424653, -0.5272765459650599, 1.1836428750826544, 1.949306644282408, 1.6650885409450862, -1.9161347084584601, 1.826668623381465, -0.43831796109768656, -2.0513775585265037, -1.3177366630162546, -1.0095601510212682, -0.6209981666147083, -4.508454819419906, -1.0431029809555894, 0.17497395676323563, 0.4076370390881806, -0.9585301319144255, -1.8380946547334498, -0.34839238186777194, -0.06329687597369711, -0.5982632704750567, -0.044364057816513, -1.5544210583785323, -0.9021661528831455, -1.1992985522675146, -0.9129749331006877, -1.062029631779213, -0.9245638916894913, -0.057991916041588876, -0.7424085228910756, -0.08810796087883525, 0.14457542142873303, -1.1756977802512267, -0.6666659520905251, -1.4125209915073034, -1.8941093431444087, -0.3218151450451898, -1.0096108118582419, -1.271694299253087, -0.6942799318967429, -0.0605454389020878, -0.0762865685226995, -0.6951087843099714, -2.219963359673635, -1.063186408841195, -0.974737769338483, 0.3152465977923352, -1.125173778986457, 0.5577214863970171, -0.4470352966658927, 1.0151150609759803, -0.2901291477016295, -0.2070921568942324, 0.10446452081369076, 0.3184471807611424, 0.01079003312421331, 0.7233262981797767, 0.9752196685589644, -0.6609159156226382, -0.07512262317602088, 0.24178106887313733, -1.6557469546206254, 0.07483143370217225, -1.3146527479476036, -0.6479438609828271, -1.2489662181122785, -1.9887800934398079, -0.6787659454713416, -0.5299719812331325, -1.5460796778454284, -0.8427582473884466, -1.4650007193111287, 0.786246694400555, -1.1239128521091601, -0.05545131529900303, -1.2924178906434967, -1.5150660772126054, -1.1288650189542162, 0.7776210227757385, 0.6162089787240753, -0.6639208919841497, 1.227123572158293, -1.2667267920602001, -0.523424882388461, 0.3766964431964891, -0.8436887696160537, 0.9819808718764804, 1.4004783508910323, -1.7956686301834237, -0.7748850429438484, -2.049495481983955, -0.12515961160063996, -0.41550242328541315, 0.4779550219232112, -0.8927613588247855, -0.6459307384943784, 0.6110787775472649, -0.8635955485962276, 0.5907760492251846, 1.579460503907632, -0.5839087703159195, 0.6127198828087806, 0.9225768247571585, 0.335052314345728, 0.5405716381677313, -0.7603701977140419, 1.2295974081384977, 0.722569240432094, -1.3427101237065293, 0.3744702547082537, -0.4658029996578154, 0.2699739795472489, -0.08245451914577097, -0.07103956558377086, -1.2253862381345315, -0.0425763154770615, -0.46455692462333076, -0.80044087554747, 0.9823486550963046, 2.6507275174205644, 4.018005828458883, 1.6765455576285393, 0.7011991044147429, 0.9892036172288273, 2.4811734936444227, 2.265372214964679, 2.9210117948745533, 3.1604522439636997, 2.860954857464698, 1.6154459570772328, 2.406427910496243, 1.0038978998678374, 2.8316896564275793, -0.0638423913897741, 0.7893414307449377, -1.481722378609186, -0.41818768053223543, -0.2699688277057947, 1.4277730225024186, 1.5695182543594826, 0.8820035544905788, 1.383440534172562, -1.3976357094732483, -0.4642906032765662, -2.384756206090485, 0.3484987538856946, 0.8834783607032898, 0.4311482218128319, -0.41838600640992796, 0.9248560025718673, 0.7299952676006831, 1.0883799696550918, 2.334816986670504, 1.079990037858097, 2.290510329865753, 2.6114182672289603, 0.9921879554093473, -0.6578317574825345, 1.3583309159925958, -0.12654981820427838, 0.45918215687945513, 0.5193881522140604, 0.15812571546678267, -0.6883405516243806, -0.5462413442620786, -1.2743391344494075, -0.16107432355076465, -1.3575003306222986, 0.2620171619331111, 1.6084003265208484, -2.077201685814779, -2.6356514434639626, -0.23785328781182333, 0.8567288399010458, -0.6910878989474467, -0.07309577876374701, -0.41478059605811807, 0.005036900174901099, -0.22724767052395803, 0.7540647144628013, 0.7297577357063312, 0.7577680780737068, -0.08967136478221258, 0.3049609689398662, 1.3523993245357426, 0.33143671483295006, -0.19468727006066508, 1.1067008466432373, 0.9162672366932351, -1.2472929340046355, -0.5075450183704275, -0.25814398139801176, 1.2666806239396613, -1.4049364356745597, -0.3683586892127151, 0.766975371056943, -0.054742428336477696, 0.40739637629444764, -0.22228670122825012, 0.246603038855708, 1.673093483069778, 2.0330832444913582, 0.2072900280059237, -0.505700120193497, -0.851025687286211, 1.6934139675959763, -1.7098998685162246, -0.7029787980366581, -0.23323748251397078, -0.7775792105356912, -0.2862819782828589, 0.8009082027409836, 1.0804481318748336, 1.165571211098618, -0.8283906459510533, 1.5079858635830024, -0.09013411740884958, 0.4168573963543213, -1.3670790688140204, -1.0967867740258217, 1.1300096321429958, 0.12844171063454748, -0.39607063865058517, -1.0012755086077276, -0.9132733228648877, 0.446381133701248, 2.038706164122697, -1.3622152010044812, -1.076147911202223, 0.655340120701022, -1.4059225148544277, 1.0423971852145437, -0.28755242229489425, -1.3532036090037831, -0.7977055389840454, -1.5507131774953928, -1.3171090682047903, 2.349409252500848, 0.013892177005313599, 0.6110918025019461, -0.14840363738786416, -0.791567053531088, 0.4062567248267288, 1.7390765318237864, 0.08406059018194026, -0.369337812532192, 1.7627079914463093, -0.7475198209286644, 0.40542726624187186, -0.8718615674088133, 0.43659463739235593, -1.8976056545342463, -0.2789769962517891], [0.9578641145642498, -0.033330798641602925, -0.4320154653798919, 0.04016145875877865, 0.10783817206058706, 1.4966886015706244, 0.3741928542336727, 1.8016978419220036, 0.6913870409786392, -0.24621385671111154, 0.08654466689805418, -0.4429942282171219, -0.07759439823780079, -1.0895833195615663, 0.004568803570517943, 0.2717263585555333, 1.2111614657929215, 0.3585972868600499, -0.15797900467430057, 0.22995721836780217, 1.0144223709443716, -0.26107867499871856, 0.6728340755729424, -1.0437855725435268, 0.2048149214947741, 0.669718524038881, -0.6079622148281066, -0.0488907362446712, -0.21060865604817994, 1.1796783853781152, -0.23117838796980303, 0.7658253180965534, -0.5642152431574917, -0.7821035267659934, -0.677163458019164, -0.34161635997322853, -1.2360081814297457, -0.18345338364082128, 0.43817253203280443, -1.4089442274868837, -0.6431076498944253, -1.3610987314816452, -0.23717827833541333, -0.41677243248764684, 0.07955212373671261, -0.8887881032566536, 1.1206944104458372, 1.3532263737773578, -0.32037027028572856, -2.830962963187737, 0.6562618082735526, -0.9395057997582316, 0.14732309754749864, 0.7325691539749811, 0.4532122842834165, 0.879835013755895, 0.8257325464113905, 0.8018010656073667, 0.17112001719511452, -0.058697144591257515, -1.4786508608993723, -0.32314581918468044, -1.3228352882983017, -1.1012902627121017, -0.11379997919663855, 0.48096700502871526, -0.16624288797439624, 0.08798235671141655, 0.276923083016186, 0.11710107576173409, -0.24625690011150558, 0.13145574620947656, 0.4888268526927049, -0.7328431215487884, -1.0052199798241293, -1.1642833785537978, -1.3801636142074465, 0.11627323322529505, -1.6945585529198661, -1.1044822387335809, 0.12181418304410621, 0.9545337892391752, 0.654880025527283, 0.49071995100347143, 0.01650851745721169, -0.3272016004406211, 0.03774324408681191, -0.5302621707245844, -1.1139639283199598, -0.09757269419757052, -1.2810883455063142, -1.1326672454660125, -0.21682372128732044, 0.7047141720297165, -0.1416283906661014, -0.4577757890162633, 0.061407103989837356, 0.6662509743082241, -0.3132573050148308, 0.07584908756774242, 0.5756851320947299, -0.5006441436777999, 0.8738488346455334, -1.1204267402707033, 0.38316647840652107, -0.22861585745438937, -0.8504683702811556, -1.3836556810623752, -0.4183114084312507, 0.6169134081560315, 0.3423423943031517, -0.10484102392003604, 0.7838950849370568, -0.17664331336591044, -1.4659213098125716, -1.0568471458025546, -0.20841608647178814, 1.4178262113706146, -1.593733749507597, -1.2066911265201061, -1.1722231025159222, 1.9409631072105598, -1.775259725253795, 1.6279157219481115, 0.8754790260252752, 0.8329869113589032, 0.7611140305221581, 1.5482410276109242, 2.1017822805131927, 0.2613827648061419, 0.8801894868044827, -0.07707152423314956, -0.6778949187456779, -0.40216397127167336, 1.8836769581702575, -0.8123722165970172, -3.3459088317219554, 0.0002185574514436053, -0.52415136982696, 0.8493543604038757, -1.8807205645546365, -0.6725316745235237, -0.25640175197276793, -0.9854717519543685, 0.7589419711858708, 0.6941779016977687, -0.6673736946813239, -0.6741724183354112, -1.0700950031347691, -1.8448007257824979, 2.5086774066072284, 0.8680209666482506, 1.413856585645433, 1.4167305603149134, 1.1229218329473656, -0.4261528391255605, 0.985217705664141, 2.2238924537460547, 1.1830240299407957, 1.5038808850351166, 1.1507992827708444, 0.32044882040920086, -0.8108150847275786, -0.7899368757262711, -1.2600474963020059, 0.28503815919549996, 1.5495982185097872, 0.508221887226615, 1.582862909857218, 0.9010011611666913, -0.26167497992241723, -0.574450289257554, 0.9483927295833636, -0.7157389538143624, -1.1381221942691777, -1.4128263546806699, 1.5688661842175475, 0.2894685572307254, 1.366294992487825, 1.3488088137899568, -0.4488812342793216, 0.9064031385663435, -0.10937343490023431, 0.11931935204925496, -0.604005611645792, -1.060948035410618, 0.29797034076513984, 1.0468013464816577, 1.9210129415447943, 0.7636859576657807, 0.41313331343359333, -0.3536054814091236, 2.0398140530824533, -0.009166393639388138, 1.2959263039009312, -0.7480460252986869, 0.018469642812982915, 0.7853410709829796, 1.2203032012075798, -1.0964704521189177, -2.3218076809739703, 0.36335552571152335, -0.606990404393762, -1.088119633274555, 1.0360729144774385, -0.548151296758723, -0.6612491535705778, -0.39944172255554966, -0.4696894619532278, 1.086501108587903, 0.5780261835531582, 0.42905093224390006, -0.03426384575140495, 0.9135231108154412, 0.3248591548512036, 0.14089978511438023, 1.2800892154716312, 1.1555933655742765, -1.6046551177534094, 1.9822002419305422, 2.0835642722206478, 1.1308406783829257, -0.20339997357255685, 0.3911613496329423, 1.0836152267808377, -0.033613913485337876, 0.298591755889911, 0.09070036935733555, -0.14629490705826195, 0.30272669180642814, 0.1257656290925476, -0.45937519190048665, -0.02226139669578529, -0.4280659385105474, 0.3944662944839074, 1.775437110944636, -0.1614991792414776, 2.400948190935707, -0.5210862486526188, 0.05071359464913749, 0.4632351979241213, 0.364917506152854, -0.15180986619196626, 0.3005364515364085, 0.4174250413564234, 0.5668478012473047, 1.4034782099083378, 0.5162007838159437, 1.268558028486631, 1.6977362188659226, 0.5489782710053936, -0.17980345952837573, -0.7402553442659928, 2.562683768350101, -2.1790179676770323, -1.8731990724850462, 0.7644060322934331, -1.046276922991354, 0.8229398832325082, 1.1511118638301359, 1.5275033870055754, -0.6860819192447494, -1.1787105174290626, -0.5309484303382935, -0.8566508251787004, 1.162585496953563, 0.5684335550688744, -0.4608475016510359, 0.1309454904704533, 0.9424396813935524, -0.40959203367825014, 0.42494207046362614, 0.45287394926313923, 0.1694903434116662, 0.93903564202871, -0.07967265545383767, 2.911785804371101, 1.4748617553808732, 0.7518179493666055, 0.5167102096838954, -0.42917697859121184, -0.4627509101610228, -0.5967442648942249, 0.054911467060722426, -0.1561296256958908, 0.8448960439716016, -0.9050016370101985, 0.687987962146471, 1.892070413527767, -0.7352831016732092, -0.7933586443349405, -0.30319218043682106, -0.6485426134499235, -0.47593174992361403, 0.2600718831504487, -0.11214638610823656, -0.5375216920661864, -1.0509634764210716, -0.08648728434954354, -0.8710344714840766, 0.2663982387855351, 0.7282942915482515, -0.0683357279601267, 2.0974949458598138, 2.3692803523580466, 1.7367611033443462, 1.6775649270240023, 0.5283193461318463, 0.4968168748197613, -0.37782884372422226, 0.04101235748159418, 0.6421047667763352, -1.7858541577529783, -1.1309077154363425, -2.929635626699944, -3.625167902738208, -1.1833855875013473, -2.674767176623886, 0.06990257777320615, -2.697105581208935, -1.9864328694433553, -0.01304092986454258, 0.602896304179941, 0.5424753022205935, -1.039973567127148, -2.1187983341510437, -0.8846337578053634, -0.022048257479631732, -0.12274044401796756, -0.5071610481184159, -0.4026683623290776, 2.123410673605927, 1.3576979628908696, -0.17432788666974824, -0.22039492977279834, -1.4743337767555804, -0.21477396224547352, -1.2932592911791634, 1.1567777983042808, 0.5950555942818659, 1.1658071491962265, -1.0652105174947009, -0.6571587474780509, -0.1353305551111006, -1.3771183060162102, -2.9438396965900817, -0.4103262815824769, -1.0402715281795158, 1.045639169288892, 0.6548039944911932, 1.6384465910113304, -2.40836240164742, -0.8775670615744495, -1.1207019979960093, -1.2017564889416172, -1.2042266969790334, -1.121851364597816, -1.7192081507237111, -0.03211512059379103, 1.6878163135942672, 2.006895834069499, -0.12896190899494892, 0.6591249013943493, 0.48464742187519927, 0.9076893435392275, 1.4952861693590285, 0.06569515095330412, -0.2353669370555997, -1.3581306412180778, 0.1291117380341731, -2.3008237422099542, -0.38011314062762536, -0.6091319913608881, 1.1540612436706759, -1.3125265561592516, 0.18634044213960274, 1.4015718316014132, 0.7702325487357441, -0.4615653199283579, -0.43389762776531837, -2.217768783432175, -1.4659215535736807, -0.8498427064685947, -2.2770718561510273, -0.9283730688825795, -0.037559869317505476, -1.4725876710092909, 1.3789621116401725, -1.396957332655042, -0.5750258917674098, -0.4522415365668464, -0.12495105325589667, 1.013016192934293, -2.0809262611134733, 0.8569144399082824, -0.589830204468252, -1.4075667467757356, -1.575383901567931, 0.14704456598260882, -0.24377526173816996, 1.0454714236242908, -0.5295115419495352, 1.0367322273758133, -0.03230844018620542, -1.2651930169221646, 2.271986383422226, 0.7875146631555484, -0.030225314753347932, -1.200558642675157, -1.8650637032193986, 0.3228270597068917, -2.34474679082112, -3.571706132852557, -2.717422198625948, -2.4494951524059716, -0.9157604203108625, 1.0332177651321754, 0.8939167769390807, 2.616226485169112, 0.8936577418822174, -1.7184309928078043, -0.5742635142815923, -2.090289708344797, 1.1176712969043285, -1.2617249510958617, 0.0072579355541405296, 1.6778544645954958, 0.5223330133692765, -0.9317116474981465, -0.8169417665895962, -0.5654276594832075, -0.2555414790447677, 0.15685608358792355, 1.1934418852191104, 1.8735445734646767, -3.239816288123657, -1.3781560067351437, -2.354340622346249, -2.627900962621709, -1.6611014142870175, -0.5149447424729323, -2.393958966370882, -0.195156496302595, -0.9849863879227271, 1.2491920749663865, -1.0178185668195272, -0.28290473618098233, 0.3258680715470556, -1.794501482429654, 1.4099844121862488, -0.152971228368743, 1.201968235489209, -0.20849827346232885, -0.005443550797867735, -0.38617439361114314, -1.233766880833083, -0.11261338509473973, 0.4626317785081734, -0.21917793595948323, -0.0633717450838585, 1.7937568311258427, 1.8850831782522897, 0.5437999627323976, -1.764645692499687, -0.7784648634762642, -1.7454834909355064, -2.0315741559615246, 0.4780509237399385, -2.0515296056055696, -1.164970135916628, -0.008297890658722887, 1.6094993375771405, 0.9316924043543368, 0.8251566162976595, -0.6534253191844328, -0.07877491343177606, -0.4579928168858057, -1.39947815849639, 2.023398278541426, -0.5088369458037337, 1.3144537303793462, 0.6778044245710438, 0.03474706920902918, -0.908633000663804, -1.571652418890433, 0.4455599228426223, 0.2204431443092595, -0.062120922588715675, -0.13406504989403858, 0.7356712556781794, -2.803701372445258, -0.9380773053857157, -1.132728743862494, 0.2498509341891058, 0.315806357519214, 0.7952723155603313, 1.1731071193501839, -0.3007755994848436, 3.112234445607373, 0.21319836986044094, -0.27406747800555026, -0.09610865182200536, -0.03935210426304286, 0.5373979807712856, 0.10499799025942086, 1.0136236723127552, -0.3550671119103062, 1.6838523994041628, 2.457884841951288, -0.4137563473767103, 1.4373881760499572, 1.1600895529643658, 2.0071945141817404, -1.016297682478689, 0.752686488081759, -1.0984602834748918, -0.6258086108917621, -0.27239045096894293, -0.7900698866971633, -1.0568322516003392, -0.08975247281875665, -0.35081640249503365, -0.5517482637691911, -0.06237763869257293, 1.3907348138783966, 1.858871233272696, 1.67898333643917, 2.0595475155339455, 0.8547700548428515, 0.25226796172179555, -1.8784438764444342, 0.36327711870882506, 1.4115403490208607, 0.7479928424865375, 0.4193781627650863, -0.6893468129838531, 1.841088105721259, 2.02415241326181, 1.504520933732236, 0.7927573947899714, 1.6812742441264104, 0.33649882100291817, 1.0152094721004568, 0.04645373850945307, -2.0713952469643826, -1.176794813363643, -1.089318270524549, 0.2287991896550607, 2.305462648018358, 1.1312313206744846, 0.5644813080727858, 0.44292848852839434, 1.5473504526438047, -0.5366253742150754, 1.9275323357160077, 2.707257967868013, 0.7853525624853448, -1.9627457901841077, -0.7028034777903803, -0.02434890534444011, -1.8913111926263506, 0.6824187641068298, 0.21456681987908646, 0.417804650261689, -0.09323112704823994, 1.6419505829830014, 2.2404541177319235, 1.8293159353613082, 2.626563536221236, 2.965852883951587, 2.3535175131261963, 2.2078743063699733, 0.8009401116561419, 0.7980369849666751, 1.8114950512722967, -0.05514228364006447, 0.5048887734490198, 1.5071637590491453, 1.3513747178810764, 1.56852535291881, 1.5880811656146645, 3.1745837675178787, 1.3962346387307032, 0.6600268761621878, 0.9445464643365453, -0.5805564501437053, 0.020916072887201785, 0.014340351077007459, 0.15090168084458794, -0.7331533237751646, -0.1980191635423355, 1.4672799641072976, 1.1033184674144687, 1.2378859536035711, 2.705925957962141, 2.585833281951764, 0.2938236549124125, 1.9989494811360526, 0.9915237774912018, 3.4169523534723947, 1.092603594157374, 2.2666206764613537, -0.5154829178899212, -0.591361567242941, 0.07210171348748959, 0.2848192435773745, 1.2776016316265169, 1.679807910839907, 2.728657800894383, 1.8645804385142088, -0.6418416403892937, 1.267691165780228, -0.28107686147511574, 1.2683556709647532, -0.9274602211836169, 0.1820773544936007, 0.7289820155855486, 0.786890983664141, -0.21126290196882222, 0.32061063619305685, -0.2923050348566562, 1.11032901890116, 1.6819574714897034, 0.4507208502635062, 0.4373046941399422, 1.357785193008281, 0.5832136472577163, 0.6509545559614752, 1.295722817547468, 2.09169927848061, 2.022813332579412, 3.071118110604214, 0.9022546800521366, 0.4304121842365328, 1.448047457566889, 1.1954071286117631, 1.48499419588597, -0.22649589795666858, -0.7328028171502635, -0.36321342175652555, -0.6540686452406137, -1.0429290267407285, -0.2893524246482344, 1.4712523797114796, -0.36361042922996323, -0.18814713719524423, -0.35135464570294506, -0.06715884512713333, 1.7366019395737091, 0.7401719892067156, 0.7631728622386349, -0.06594858140531522, -0.7088957903153719, 0.6286493642694913, -0.6406267726599975, -0.47980198085648207, 0.07492019355018806, 0.7478129525093543, 0.6705290738285626, 0.7377295768278176, 1.1352401400995895, 1.4421911045492148, 0.5893963766307357, -1.3394469862784895, 1.0779287066757894, 0.35022551419477166, -1.726910120531104, 0.9723660439468294, 1.216050532570748, -0.3200584041054307, -0.45834733543786377, -0.40105976903820906, -0.6149034559196911, -0.4192328477756379, 1.2777912278306336, 1.0309581044053129, 1.0081313060719068, -1.2852005329180434, -0.10724709981773338, 0.6135767960759526, -0.20465013442141386, 0.5282281723211433, 2.187019472406698, -0.9169648740200645, 1.3970206454936265, 0.6325890204056936, 0.9029263217785891, 1.6331225098566402, 0.4921605900007055, 0.9080925240961455, -0.48931268276452283, 0.3217525465184417, -1.0762190979977744, -0.2647569684723044, -0.17578113267324524, 0.139239791464464, -0.7703417427913372, 2.5199033890820033, 0.626140811624105, 0.18198434044913456, 1.040724159608298, 1.109434755797003, -1.896660651990518, 0.26324470102940695, 0.1163332756045167, 0.5698015202605323, 0.32925034215796906, 0.3654120206282794, 0.46131346773243675, 1.6533028223755952, 1.1783436019481957, 0.2774891168476872, 0.6972228232879575, 0.7251857250909672, 0.6372466288561879, 0.8825130687279317, 0.458273459702807, 1.473998781562459, 1.1966355359344678, 1.055058787704599, -2.419827543470519, -1.0847619040706566, -0.8236464176849142, -0.5484529382250822, -0.8424090835885933, -0.5821005883475963, 1.291823209380291, 0.49264850419950645, 0.26361840685327775, 2.0423259573071695, 0.7767953484830927, 2.1500481569864345, 0.34394814240466637, -1.193981524215069, -0.9952915842258708, -0.314953084508453, -0.5668659274578496, -0.011376821576440287, -1.9881595767694862, -2.398619692859085, -0.8743248813622208, 0.14413177558526477, -0.6236950893912023, -0.20649836878787223, 0.8092121033898679, -0.1955962206956772, 0.25469132264952704, -1.0762301676864703, -0.4669563186168292, -0.6894545444987789, -0.4036349814844866, 0.4296733844815988, -1.237300524484806, 0.9312066331750983, 0.2351515883954494, 0.3287554396425096, 0.7976431246408899, -1.917990449430158, -0.22604615462746416, -0.22275140361472642, -2.1778815048104003, -0.8781376285226904, 1.0698947601340902, -0.4631857263876117, -0.10461856534435841, 1.3352421896736033, 0.13962655506925548, -0.27892504807843965, 0.9980415972645595, 2.087137454900488, 0.20691112188115263, -1.1588795352051524, 1.537716738179805, -1.0248493866283481, -0.12461821103914092, 1.281353353342502, 0.6726467319559711, -0.06478910670445366, 0.4227594614520705, -0.12734626415685404, -0.3242458473746849, -1.074999472485765, -1.4783138709440746, 1.7631671175504708], [0.7997811932025879, -0.11474539626035868, 0.7221407331316135, 0.7028385728817095, 0.5634717719072545, 0.2131916024508308, 0.15813172136510537, -0.6409967494797312, -0.1833852728947091, -0.025614762744739773, -0.9515311173927182, -0.7546770602338679, 2.30753956131275, -0.1898103238592602, -2.0708828229496374, -0.03692606330418838, 1.2892557569378034, -0.7378039047282541, 0.3831518746442719, 1.587845717565476, 0.9131665155357328, -1.3073611626795536, 1.0544380377143012, -1.6313382136258303, 0.26602414481417336, 0.506913586375095, 1.1619085133679308, -1.2641943792824133, 1.538181077649751, 0.8565391360563285, 0.02353922363716398, 0.42418254205467504, 1.8982456843001432, 0.8360246235723642, -0.015439338593621302, 0.28321925555193, 0.727744186288543, 1.8515943457115127, 1.363957684101447, -0.06299005141582147, -0.22252858478893517, -1.105996631301611, -0.21877414203116663, -0.6980144266607027, 0.38704927132701755, -0.9942895858565646, -1.5719801897609536, 0.6361853936097692, 0.13369890706606333, -1.2644091015283592, -0.6669681002904344, -0.6028647894360489, -1.4975036650378424, 0.058777358246685334, 0.2210172571840633, 0.9686850065179229, 0.3207064507134267, -0.5813112852293547, 0.6484358547937731, -0.3377024377933288, -1.2593547722300258, -1.0653884479859235, -0.025988020055793853, -1.740934065717253, -0.5508171081327985, -0.9395616247198563, -0.3274717072482264, -1.7603329609995058, -1.5871079067960894, -0.12875749605060502, -0.26844425731974125, -0.9807841629513583, -0.18634488322470893, -0.06001414561535555, -1.4244722061649207, 0.2816370423094389, 0.40521680104429936, -0.5147805295156795, -0.14814845223178016, -1.2243916625159112, 0.1383948568762213, 0.08411310601258716, 0.3307526876515047, -1.4116711189012683, -0.8693691693476299, 0.9548759358066258, -0.33004069570832156, 0.17806173605491107, -0.3557821138258742, -0.711674917347196, 1.2969500518693615, 0.654734971443269, -0.36361436787145496, -0.6625205720943893, -1.0181594978696182, 0.344779307512743, 2.6231312080206215, 0.6759887656561432, 1.1589661493185908, 1.4862924360242324, 1.9526389410248457, 0.3622961447514166, -0.7308604716461753, -1.2324216854605083, -0.8295607043519893, -1.5472056341524763, -2.193586195728013, 0.312010288612782, -0.8695973282878491, 0.06550464784110992, -1.8391478144464892, 3.4677681089876855, -0.16220202423573926, 0.7012014487038224, 0.8092887800653007, -0.667091800909577, 0.7830929638077416, 0.5047195898350134, 0.586393643927815, 0.8549858061434182, 0.2957299795387245, 0.13065588728246558, 0.060633490060817016, 1.5875539976004922, 1.4996768590129113, 1.8540373400858579, 2.471155389014386, 0.7215486457141129, 0.9028242130039437, 0.02756558467507186, 1.4780201904736, -1.4147170549634447, 0.49195176051925144, -1.6749664480110629, -2.7482463851157415, -1.7127137237616825, -0.3987518453813036, 1.6465598360068243, 0.5137555110457578, -1.3059545112667792, 0.3230418405704635, 1.7111973921195922, -1.1023659241304076, 1.3731064726119095, -0.20789201649173847, 1.6945651819597265, 1.7178845516019121, 0.7575410248854211, 0.9342508219548803, 1.596994670868037, -1.7661276176291427, 1.6842269701252917, 1.3762046392248768, 0.9821275134700258, 0.45891438762860487, 1.556722861724307, 0.5744016707843612, -0.6177683955251354, 1.4964574301095217, -1.1092893308586527, 1.427891311562542, -2.049109443586639, 0.30309437602981504, -1.1928787848508016, -2.8937853518764096, 0.931842859734021, -0.13034845585360802, 0.6386168542739751, 0.2000688740774405, -1.4387873994372942, -0.332457230735513, 0.12658954175544657, 0.7694057776316409, -0.7275059830003133, -0.5359431684409989, -0.41004254007976, 0.6403722137726072, 0.9959397943584404, -0.29279984614243315, -0.3905101780574017, 3.0317555864299903, 1.8368592451543562, 1.9954855886486498, -0.11900775054616597, 2.6992716204635903, 1.0854327376457307, 0.6878912824421426, -0.8375088877446534, 0.023922037035764024, 0.7794984918247921, -1.7140824945541906, -0.5911813835425639, -2.10198571388379, 1.5071469870957392, 0.827750199378891, 1.4634980135927464, 0.9056769622608518, 0.46431989463057965, 0.15324784302529948, 1.807493917293183, 1.1090266302583716, 1.3924646729625878, -0.27339632241830086, -0.23159829524546893, -0.7189218852797777, -1.382402528912554, -0.6504177461524905, 0.11560438521586508, 0.14092737737779124, 1.4196028088708808, 1.4243569614795777, 0.5320753431377933, 0.05202687692642702, -0.45111519203494166, 0.21727059561593862, 1.16298244161514, 0.44997533326385847, 1.6778259221684897, 0.6074532326740407, -2.226117620706532, -0.06324373424600406, -1.5852877099056033, -1.2852836540992754, 1.037927132004326, 0.8174160290670144, -0.5529134655835459, -1.1859812582334, -0.8076936891449477, -0.31033700019304433, 0.5464900363892885, 1.22452788780933, -0.0629595237005011, 1.6862351018591921, 1.0571961575737647, 1.4010023048000089, -1.3084989968112855, 1.9628351264672854, 0.8819732165653694, 0.4487251772682324, -0.28214014443276153, 0.052549291065714744, -0.380213161564185, -0.19031047043861732, 0.6005641454515719, 0.9134623809342723, -0.005038506785955332, 0.8360599400839157, -1.2476565167722489, -0.38077761731938764, -1.4376068155357715, 0.12968481657660244, 1.6245643178652938, -0.15569733570766583, 0.10917179579787598, -1.1231426294892117, -1.5941793694769057, 1.8345012133706113, 0.6760987344123949, 1.619083156333712, 0.144859709665835, -1.415070691608993, -1.9268275814220541, -2.1519037686825704, -0.3083121460499081, -1.027348022879594, 1.696952695259904, 0.45065957929743533, 0.2985172716361813, -0.32162505535170155, 0.40842056475091976, -0.7211829410234784, 0.09084994938402315, -0.47907346204479356, 0.9632625527064236, 0.603519270364044, -0.4472203141481196, -0.9773385890738538, 0.9304540890424678, 1.0657038690866503, 0.3407286895485941, -0.2903845041980132, -2.147130970262512, 1.8073573605065067, 0.43645049884197756, 2.1065323609327558, 0.4003501155463061, 0.2927875539617408, -0.6408424403920405, -1.2708865509650011, -1.3440903178591714, -2.9135167025878537, -2.5997695199309647, -1.1277450454664157, 0.036513693091882224, 2.143667573472765, 1.1462693205332066, 0.04627049309228978, 1.128730866619986, -0.5750742939255045, 1.3322021696817687, 0.5402468824287925, -0.426604724704022, 0.7747064289979205, -0.8837545110518557, -0.8290958228692039, -0.46812273959180684, -0.8855398438842835, 0.4396734802443011, -1.2279335479681406, -0.7261249674397026, -0.22353939502636289, -0.7596107005662001, -1.0218088151649596, -2.866219236379195, -1.7788416783108594, -2.401707309629885, -1.7178051594618864, -2.0649223496818596, -2.5408557590387484, -2.909555858150596, -2.128858478346415, -0.36489592201207977, 1.4347585177981428, 1.5253527453457658, 0.9123277090869055, 0.823326799373622, 0.9820577330666671, 2.0265828890702657, -0.2157406051884745, -1.1344945386601077, -1.949764655165097, -1.3957364923693167, 0.9359916676790249, 1.1470378620165693, -0.032391963121564525, 1.9059205873027145, -0.4295286745632203, -0.550729468142655, 0.3761498767406298, -0.7874677494716645, -0.7422345284839825, -1.4854489664783412, -4.3793020081720915, -4.03232446265457, -1.0418105897105125, -0.3511360439402885, 0.773846595471458, -1.3783074990226158, -0.6322097284888875, -0.7332248972308371, 0.15110175324704142, 1.9095585618989361, 0.368837778114465, 0.36978267118127095, 0.5146065766251128, 0.3460840304199987, 0.007511367167267462, 0.35061840785239995, -1.8828505568059062, -2.734529066241844, -1.4766348701692857, -0.5495823358044175, 0.539529927732514, -1.272067831442828, -1.9943957496740576, 0.20967355795936424, 0.05006146597741143, -0.9646438454725802, -1.4622228396770942, -1.6447674530549437, -3.07357227885035, -1.3536067570131998, -2.7915084186703303, -1.5851364645064299, -1.6272960935962066, -0.29701981000682576, -0.5239198447892355, 0.1253616525697319, 2.164707942615023, -0.011084601655109327, 1.8368190881021866, 1.384170559176298, -0.5232696324056244, -0.4588428475955855, -1.7920450642220542, -2.6903114481953496, -3.500413394235282, -1.9178289707653822, -1.217623160597364, -0.24595154650239254, 0.07789031759758662, 2.1489634582372754, 0.9215248130455894, 1.4898827041484222, 0.8793369598313311, 3.3755418639189063, 0.625311143150951, -2.5724567610824507, -0.6909763721669232, 0.27215212725261007, -0.823273073597136, 0.20710777403317576, -0.9898897980278494, -0.07799804082277147, -1.3324316961567837, -0.15144071668107473, 0.42848209068632914, -0.3426161986894028, 0.9271978322057496, -1.2874361612280618, 1.8628527429347548, -1.7969503424346742, -2.092008387908044, 0.6791331116208548, -0.4781086250257104, 0.17098641915017257, 0.3027623722398828, 2.1844326086926236, 0.8375681517181879, -1.4072406025148714, 0.6670763112158032, -0.6157867458563006, 0.09268754553943867, 1.0355296900994564, -1.451349133316168, -0.2141606039788221, -0.7173485892478153, -0.5013823739097651, -0.03998467396957149, 0.010132197274668638, -0.7092782884844948, -0.40839635770307336, 0.06821121795589745, 1.7832046601564868, 0.3991949114869111, 1.8347289322138085, 2.880124666881906, -0.26428084646648475, -0.21040969948775776, -0.1389788447329577, -0.3869689318769116, -0.45741200572010965, -0.9486549967462663, -0.21421319898347144, -1.2579941221288595, 1.9944752277330782, 1.5197868038721383, -1.2245437574823423, -0.3550241575560321, 1.6851596446545958, -1.0662882471779913, 1.520392631831841, -0.2898767098619306, -0.4985011727170247, 0.7265720187228892, -1.1525725486639486, -0.1737966628901693, -0.19272874129266254, -1.9432780455900165, -1.2758249116112936, 0.7110496807072922, 1.6091570596155684, -0.3178934341550477, -0.08989674172931784, 0.7869035801221267, 0.7637957046245755, 0.7132856737674443, 0.5342285331204953, 0.7507888358151377, 0.29310578700290535, -0.157212433900719, -0.7525016570815308, 2.205711374627991, 3.255222053167099, -0.4447002855584798, 2.024459697978918, 1.4855681247156396, 0.6148211943510556, -0.35103583640535163, 0.7928134715399808, 0.827904949158064, -0.9110572197208067, 0.1427825829902893, -0.25095485338266954, -0.9194968292514268, 0.7798553226378977, -0.4032548971914675, -1.627420622250764, -1.060138653962412, 0.5686469523315723, -0.42852411411928826, 1.0362900727218878, -0.731864384965676, 0.32407454924805806, 0.44747623554963223, -0.08653870601230142, -0.5076872617582827, 0.701510110111829, 0.5698718759715605, -0.37132972349335147, 0.8748384537629316, 2.495817300194766, 1.7255679931537145, -0.13584243192091885, 1.2174946613221342, -0.4483030765792843, -1.9852949284371366, 0.7759674700136279, 0.3418859475447176, 1.225449815699991, 1.161535698018083, 0.12031347757638056, -0.08186239089316182, -2.194382240760965, -1.5931418696767117, -1.6979218953967217, -1.7379977700153066, 0.1436697993529593, 0.5197500208857189, 1.4000475417746328, 1.1956119916095793, 1.2755882156960412, 1.3216213945012556, -0.664007295916956, 2.0225593043901324, -0.5070437574079515, 2.2181469990979066, 0.6661664669085666, 1.9316073981546673, -0.6931447487681105, -0.06409036626418196, 1.5992098660472274, 1.022017702704261, 1.5117148219372778, -0.9796182456088143, 0.3047338319920304, 2.0456585316010547, 0.722442152921527, 1.6499120318062028, -0.0029148718998695954, -0.4121907349843539, -0.16343812277041042, -0.8611691007207893, -1.4124310807838254, -0.5213017872059597, -0.024973018274237976, -1.4824078084603052, 0.9907292951108497, -0.16080709504948487, 0.4030945332526612, 0.8005681475057982, 1.0984904511964977, -0.7792445459685546, 0.7310960843328381, 1.3869385984440605, 1.8248559579590844, 0.420508221594198, 0.6537705411843735, -1.9152103021081757, -0.9012392636972628, 0.10575416659009518, -0.435979908214121, 0.16850593200928438, -0.020434209420283924, 1.5267637076303557, 3.0485180995933914, 1.6061491473041862, 1.1486590156490493, -0.025250702510409846, 1.14930701357697, 1.5834129487580832, -1.0091052054967817, -1.8401200991068032, -1.853327665547506, 0.5706850952463014, -0.6594787799463697, 0.7567742482890636, 0.7958107906013907, 0.10288451717296274, 1.5495706801084594, 0.5998880282585232, 0.8187636920471777, -0.4136035417944965, 2.0284737176371355, 1.7859371826420014, 1.806247023065905, 1.808751817017115, 0.8271533093866409, 0.33674808455843236, 1.8705373370863645, -0.5654927347782492, 0.873729005236059, -0.40702784574962353, -1.2855042842935651, 0.47649087496236603, 0.42891213789297894, -0.6633838331409665, 0.8251593456646261, -0.8563342009495851, -1.80722614397244, -2.0511341763439517, -1.0375756366344477, -0.28412360325402514, -1.847129008525706, 0.7315882342806339, 1.2329891258585675, -0.37881018946492007, 2.058384786209631, 0.1388036943693479, -0.17177515474294916, -0.18208064444230276, 0.6015719167882759, 0.6886852312911561, 2.779544877027871, -1.8970604627857084, -0.5690288688226648, -0.4194001997153963, -0.8997505927132529, 0.3868437088598847, 0.48761851108839416, -1.1743968327298484, -0.6510272764514281, -0.39887161955347034, 0.3101830854341408, -0.7806805035671356, 0.35814548406046115, -0.8665363662050303, -0.3882603359152602, -1.9392687425109743, -1.596857944324272, 0.2219051212563383, 0.38388930545514816, -0.7830685899009805, 0.504973142704728, 0.8924517800688841, 1.1696125265160209, 1.0306544762162015, -0.5853455490516243, 2.4582089110920493, 0.5181435643541156, -0.9872636811940847, 0.9801906777264332, -0.2683411951127055, -1.1714418863492053, -1.6668348494160417, 0.08345404149196911, -1.4989377249049591, 0.4331698681833223, 0.19084820193902502, 0.1067530927362592, -0.15377391242591165, 0.13605215498465073, -1.1958133806885656, -0.12733205652648216, -0.34967863566426227, -0.3020808497600744, -1.363449910715695, -0.8893321474900098, 0.5282374512077728, 0.3610203540241997, 0.11008910302227415, -0.9410275164097651, -0.40196111085441527, 1.8735611344258134, -1.2620196984719632, 1.0121679446991734, 0.3296737021046659, 1.5427695204147, -0.31081899199729535, 0.4408308157980477, 0.6531139947963515, -1.7662473893223578, 0.7211334042522776, 0.461894674733032, 0.5012383880665405, 1.2910821282528557, -0.0165786044919727, -0.6038295382130855, 0.7204506547080054, 1.311400003303967, 0.6496540811158337, -1.5302683385883644, -0.6696263923990781, -0.32390839643108554, -1.816755203571723, -1.720064923180061, -1.3027706003926496, 0.3354572951852737, 1.758033901348597, -1.031436057539562, 0.19446838446932646, -1.6379885971538708, 0.5881349458130289, -0.09187606905468586, 0.034422018364848754, 0.014654430909621147, -0.8640802653714335, -0.15488784350119303, -0.3395661043270779, 0.9243807415507775, 0.5459702379947242, -0.29607209562001197, 0.6068798964311286, 0.8526332452171128, -1.643303253937852, 0.1269645359333353, 1.0079808256272988, 0.5913553101771465, -0.9594043974331368, 0.9270623301464962, 0.6520646950526878, -1.554749108359407, 0.8248926991117902, 0.5410365967952675, 1.1048397084636734, 0.3136612085420956, 0.6584297233217661, -0.14211153929183973, 2.4693421432295666, -1.44975882188658, 0.04428865491952271, 0.4337163150376812, -0.44498973347847603, -0.7625081156518385, 0.26906507342947833, -0.9192240885914178, 1.564611196110954, 0.7265969478830872, -0.3160765408554432, 1.3897063790190318, 0.012678575557680179, 1.0412701394140438, 1.7553937063126093, 1.3714079293462833, -0.48817816629394806, -2.1818761085186904, -1.777189104641575, 1.5157988501684654, -0.43589101030630567, 0.16621908922770623, -1.5546752972288629, -0.23873671594004464, -0.7274189396240158, 0.4939730915028934, 0.9457907997266385, 0.7832104111402781, 0.09827518499154014, 1.5462099838348098, 1.6986110375451557, 0.7344936374208382, -2.216580414311724, -0.010373427596924173, 1.7607149826700634, 0.9914434318236472, 1.0228375510250844, 0.7045212446287018, -0.1916330514279244, 0.6220650350219661, -0.7277040020858572, -0.7747576956731865, 1.2018236221282048, -1.543935817787911, 0.42803503890340217, -1.011081072654294, -0.46636404392557224, 0.7239176540834913, 0.1203778603901714, 1.8070124600220354, -0.31144242127259203, -0.8275785974483548, 2.0423704730798162, -0.17110523073916123, -0.5265954219043806, -0.7272411332238936, -1.3882966307052702, -1.7737135841167972, -1.5329048806281989, 0.03412175808895688, -0.11480703136435716, -0.3280183605918491, -1.6299362910621122, -0.6167167162749069, -1.7936204779752754, 0.46235655169888734], [-0.7544975741483534, 0.16471909358194234, 0.7536218837097558, -1.0041600707275724, -0.38612680258115906, -1.346502619056031, 1.2719648701617625, 0.3603372927883088, -0.031229672613992628, 2.1504512126777255, -0.8044049136954006, 0.5542642408263287, 0.9303784636763011, -2.845985655113414, -1.1125502778772054, 0.7071519808173148, 0.6871356754935348, -0.9406175190665824, 1.0968999242553825, 0.7779866817435235, 0.7967067393502472, -0.245134193140535, -0.2295927628507329, -0.6215210455753949, 0.9181389231987191, -0.4978302704565712, -0.5762070279076287, 0.0925689614540124, 0.3931498956163768, 0.36687801100048495, -0.7624374411457938, -0.1859369174265695, -0.38503171872006486, 0.8876535436371413, -0.17727626317728312, 0.8403602133038935, 0.0008255067739009595, 0.8176672878371348, 1.9232881793040753, 1.3407464836051715, 0.40728570998800234, -0.5169120187191425, -0.49883811281137114, -0.7357985254399744, 1.4192212137354812, 0.5464855032589268, -0.7035177182512361, -0.08382808835294453, -0.822329632297552, -0.3319837344150046, -1.2179369704819127, 0.3064556755663725, 0.9430826985763355, -1.94131844228087, -0.932817225218119, 0.18287872994179308, 0.05218067040568357, -1.1687479590340846, 1.7767383401148016, 2.3781118859622894, 1.173276745079994, 0.1523339026350058, 0.8467214963248135, 1.5038448133522082, -1.2070863293426985, -0.7414725810441933, 0.0014717275490735118, 1.3476501773585898, 0.46518194242341054, 1.9160010906024858, -1.418133968609245, -0.8958429252141197, -1.0125184243671426, -1.168326795846303, -0.5898662389338447, 0.3873028885678137, -2.162206545306962, -0.01648130605389345, -1.5646670018254802, -0.5057747546768311, -0.23290606098107355, 0.2121605618535859, 0.10273430494014792, -0.2786042336832631, 0.13977701344177887, -0.117617865778876, 0.8260838860487375, 0.4986264949054239, 1.8531330418526735, 1.1545476777013626, 1.44725347990898, -0.13151943655408346, 0.6129691790088183, 0.5672675963236596, -0.38282857464053155, 1.885204509260331, 0.14516614717449405, 2.9578515262161718, 0.9044220381423307, 1.3530755427383947, 1.505957843925594, 0.0933771715786863, -0.31629954556438983, 0.8917705453434179, 1.1312532820083476,